{"learner":{"attributes":{"scikit_learn":"{\"_estimator_type\": \"regressor\"}"},"feature_names":["pm25_lag_1","temperature_2m_mean","precipitation_sum","wind_speed_10m_max","wind_direction_10m_dominant"],"feature_types":["float","float","float","float","float"],"gradient_booster":{"model":{"gbtree_model_param":{"num_parallel_tree":"1","num_trees":"100"},"iteration_indptr":[0,1,2,3,4,5,6,7,8,9,10,11,12,13,14,15,16,17,18,19,20,21,22,23,24,25,26,27,28,29,30,31,32,33,34,35,36,37,38,39,40,41,42,43,44,45,46,47,48,49,50,51,52,53,54,55,56,57,58,59,60,61,62,63,64,65,66,67,68,69,70,71,72,73,74,75,76,77,78,79,80,81,82,83,84,85,86,87,88,89,90,91,92,93,94,95,96,97,98,99,100],"tree_info":[0,0,0,0,0,0,0,0,0,0,0,0,0,0,0,0,0,0,0,0,0,0,0,0,0,0,0,0,0,0,0,0,0,0,0,0,0,0,0,0,0,0,0,0,0,0,0,0,0,0,0,0,0,0,0,0,0,0,0,0,0,0,0,0,0,0,0,0,0,0,0,0,0,0,0,0,0,0,0,0,0,0,0,0,0,0,0,0,0,0,0,0,0,0,0,0,0,0,0,0],"trees":[{"base_weights":[-2.088039E-8,-1.4185658E0,5.412434E0,-2.4903078E0,-2.2721338E-1,4.9779663E0,2.4403448E1,1.2166433E1,-2.547364E0,-8.257956E-1,5.378525E-1,3.1426415E0,1.23266E1,4.9874477E0,4.8744765E-1,-3.0758557E0,-2.0646565E0,-9.587758E-2,-1.0713989E0,4.350177E-1,1.0196433E1,7.95103E0,2.7392075E0,1.0998388E1,1.5994448E1,-2.7702892E0,-3.3602324E0,-1.8439221E0,-2.6167946E0,1.0401351E0,-9.943051E-1,-8.974795E-1,-2.709182E0,1.1372689E0,-6.1000156E-1,5.1269474E0,-5.3855246E-1,2.1654148E0,9.985297E0,3.1094804E0,3.967651E-1,1.88132E1,8.38293E0,-5.222427E-1,-8.682884E-1,-7.069323E-1,-1.0361742E0,-2.9777542E-1,-6.1799526E-1,-3.6622065E-1,-9.017301E-1,-3.1975456E-2,7.3016393E-1,-3.580808E-1,8.278328E-2,-4.1652195E-2,-3.1091565E-1,-8.676221E-1,-2.9407862E-1,5.834824E-1,1.7319718E-1,-5.1793765E-2,-9.440398E-1,-3.5032862E-1,1.4871715E0,1.1919128E0,3.7070866E0,8.737984E-1,2.4842832E0,9.94617E-1,-3.7606063E-1,6.183102E0,1.0669302E0,3.0030892E0,-3.1409317E-1],"categories":[],"categories_nodes":[],"categories_segments":[],"categories_sizes":[],"default_left":[1,1,0,0,0,0,0,0,1,0,0,0,0,0,0,0,0,0,0,0,0,0,0,0,0,0,0,0,0,0,0,0,0,0,0,0,0,0,0,0,0,0,0,0,0,0,0,0,0,0,0,0,0,0,0,0,0,0,0,0,0,0,0,0,0,0,0,0,0,0,0,0,0,0,0],"id":0,"left_children":[1,3,5,7,9,11,-1,13,15,17,19,21,23,-1,-1,25,27,29,31,33,35,37,39,41,-1,43,45,47,49,51,53,55,57,59,61,-1,-1,63,65,67,69,71,73,-1,-1,-1,-1,-1,-1,-1,-1,-1,-1,-1,-1,-1,-1,-1,-1,-1,-1,-1,-1,-1,-1,-1,-1,-1,-1,-1,-1,-1,-1,-1,-1],"loss_changes":[1.3420957E4,1.7678335E3,1.1570493E4,6.406255E2,3.0132047E2,4.8436025E3,0E0,1.139834E2,1.7911182E2,6.6048004E1,2.826103E2,5.427219E2,3.33338E3,0E0,0E0,2.0670654E1,4.185327E1,9.697297E1,7.6185E1,2.1131328E2,2.7866776E2,2.373064E2,2.3294897E2,1.2934814E3,0E0,1.691919E1,8.223389E0,4.8907104E1,5.4434814E1,6.738527E1,1.3746719E1,2.6306366E1,5.386322E0,7.666452E1,1.2815674E2,0E0,0E0,7.092836E1,1.7904932E2,2.1303809E2,1.8718707E2,3.9281592E2,8.545056E2,0E0,0E0,0E0,0E0,0E0,0E0,0E0,0E0,0E0,0E0,0E0,0E0,0E0,0E0,0E0,0E0,0E0,0E0,0E0,0E0,0E0,0E0,0E0,0E0,0E0,0E0,0E0,0E0,0E0,0E0,0E0,0E0],"parents":[2147483647,0,0,1,1,2,2,3,3,4,4,5,5,7,7,8,8,9,9,10,10,11,11,12,12,15,15,16,16,17,17,18,18,19,19,20,20,21,21,22,22,23,23,25,25,26,26,27,27,28,28,29,29,30,30,31,31,32,32,33,33,34,34,37,37,38,38,39,39,40,40,41,41,42,42],"right_children":[2,4,6,8,10,12,-1,14,16,18,20,22,24,-1,-1,26,28,30,32,34,36,38,40,42,-1,44,46,48,50,52,54,56,58,60,62,-1,-1,64,66,68,70,72,74,-1,-1,-1,-1,-1,-1,-1,-1,-1,-1,-1,-1,-1,-1,-1,-1,-1,-1,-1,-1,-1,-1,-1,-1,-1,-1,-1,-1,-1,-1,-1,-1],"split_conditions":[6.28E0,2.83E0,3.5E1,1.01887E1,4.3E0,1.472E1,2.4403448E1,1.77E0,1.8E0,1.6676977E1,4.1736717E1,1.3708391E1,1.6758E2,4.9874477E0,4.8744765E-1,2.4980553E2,2.3850288E2,1.7145834E1,2.6446732E2,2.2086521E1,4.79E0,1.14862E1,2.550112E2,1.5596767E1,1.5994448E1,1.3724999E1,1.59134655E1,1.6935415E1,1.6981165E1,1.3804165E1,1.642247E1,5.7051918E1,3.31607E2,1.6860418E1,2.563074E2,5.1269474E0,-5.3855246E-1,1.05E1,7.4E0,1.2E1,1.6263872E1,2.997775E2,2.4980553E2,-5.222427E-1,-8.682884E-1,-7.069323E-1,-1.0361742E0,-2.9777542E-1,-6.1799526E-1,-3.6622065E-1,-9.017301E-1,-3.1975456E-2,7.3016393E-1,-3.580808E-1,8.278328E-2,-4.1652195E-2,-3.1091565E-1,-8.676221E-1,-2.9407862E-1,5.834824E-1,1.7319718E-1,-5.1793765E-2,-9.440398E-1,-3.5032862E-1,1.4871715E0,1.1919128E0,3.7070866E0,8.737984E-1,2.4842832E0,9.94617E-1,-3.7606063E-1,6.183102E0,1.0669302E0,3.0030892E0,-3.1409317E-1],"split_indices":[0,0,2,3,0,0,0,0,0,3,3,3,0,0,0,4,4,1,4,3,0,3,4,3,0,1,3,1,3,1,3,4,4,1,4,0,0,0,0,2,3,4,4,0,0,0,0,0,0,0,0,0,0,0,0,0,0,0,0,0,0,0,0,0,0,0,0,0,0,0,0,0,0,0,0],"split_type":[0,0,0,0,0,0,0,0,0,0,0,0,0,0,0,0,0,0,0,0,0,0,0,0,0,0,0,0,0,0,0,0,0,0,0,0,0,0,0,0,0,0,0,0,0,0,0,0,0,0,0,0,0,0,0,0,0,0,0,0,0,0,0,0,0,0,0,0,0,0,0,0,0,0,0],"sum_hessian":[1.746E3,1.384E3,3.62E2,7.28E2,6.56E2,3.61E2,1E0,2E0,7.26E2,3.68E2,2.88E2,2.9E2,7.1E1,1E0,1E0,3.44E2,3.82E2,9.3E1,2.75E2,2.86E2,2E0,2.1E1,2.69E2,7E1,1E0,1.71E2,1.73E2,2.76E2,1.06E2,4.1E1,5.2E1,2.5E2,2.5E1,1.71E2,1.15E2,1E0,1E0,6E0,1.5E1,2.32E2,3.7E1,1.6E1,5.4E1,2E1,1.51E2,1.7E1,1.56E2,5.7E1,2.19E2,2.4E1,8.2E1,2.3E1,1.8E1,4.5E1,7E0,3.9E1,2.11E2,2.2E1,3E0,6.9E1,1.02E2,9.9E1,1.6E1,3E0,3E0,5E0,1E1,2.25E2,7E0,1.3E1,2.4E1,1.4E1,2E0,4.6E1,8E0],"tree_param":{"num_deleted":"0","num_feature":"5","num_nodes":"75","size_leaf_vector":"1"}},{"base_weights":[3.649956E-2,-9.9053E-1,3.9549556E0,-1.7429993E0,-1.5409076E-1,3.5838747E0,2.0742931E1,1.0341469E1,-1.7904689E0,-5.810147E-1,3.9154598E-1,3.3427353E0,1.3595281E1,4.239331E0,4.143305E-1,-2.0961344E0,-1.3383136E0,-6.2615514E-2,-7.554658E-1,3.0367905E-1,8.666969E0,2.234256E0,7.8388577E0,-2.40655E0,-1.9101644E0,-1.4089267E0,3.0726045E-1,7.4471796E-1,-7.0120776E-1,-6.296404E-1,-1.9411083E0,7.1989316E-1,-6.0069305E-1,4.357906E0,-4.577696E-1,5.8400774E0,1.9321734E0,1.7824184E1,6.642917E0,-7.2645146E-1,-2.4801674E-1,-5.113048E-1,-6.637904E-1,8.065425E-2,-4.375596E-1,-2.7345473E-1,4.446427E-1,-2.2782566E-2,5.2264357E-1,-2.308897E-1,4.2853013E-1,-2.0341724E-1,2.2427373E-1,-6.1837274E-1,-9.98998E-2,2.7853113E-1,-1.5607153E-1,4.9050412E-1,-2.4193993E-1,5.0345886E-1,2.1887689E0,4.3411404E-1,1.0056015E0,5.952637E0,8.574824E-1,2.401988E0,3.3096504E-1],"categories":[],"categories_nodes":[],"categories_segments":[],"categories_sizes":[],"default_left":[1,1,0,0,0,0,0,0,1,0,0,0,0,0,0,1,0,0,0,0,0,0,0,0,0,0,0,0,0,0,0,0,0,0,0,0,0,0,0,0,0,0,0,0,0,0,0,0,0,0,0,0,0,0,0,0,0,0,0,0,0,0,0,0,0,0,0],"id":1,"left_children":[1,3,5,7,9,11,-1,13,15,17,19,21,-1,-1,-1,23,25,27,29,31,33,35,37,39,41,43,45,47,49,51,53,55,57,-1,-1,59,61,63,65,-1,-1,-1,-1,-1,-1,-1,-1,-1,-1,-1,-1,-1,-1,-1,-1,-1,-1,-1,-1,-1,-1,-1,-1,-1,-1,-1,-1],"loss_changes":[7.0344927E3,8.7144324E2,8.533195E3,4.3670337E2,1.5327261E2,3.4915552E3,0E0,8.235303E1,9.767212E1,3.3323334E1,2.0751038E2,1.7816587E3,0E0,0E0,0E0,2.0341553E1,3.482788E1,4.898455E1,3.995256E1,1.0846279E2,2.0133751E2,3.0568958E2,7.294673E2,1.730957E0,1.334845E1,2.4028381E1,1.9965929E1,3.4511337E1,8.822514E0,1.7243797E1,4.3365173E0,5.1431526E1,4.3183037E1,0E0,0E0,1.21052734E2,1.8112488E2,1.5468774E2,4.822124E2,0E0,0E0,0E0,0E0,0E0,0E0,0E0,0E0,0E0,0E0,0E0,0E0,0E0,0E0,0E0,0E0,0E0,0E0,0E0,0E0,0E0,0E0,0E0,0E0,0E0,0E0,0E0,0E0],"parents":[2147483647,0,0,1,1,2,2,3,3,4,4,5,5,7,7,8,8,9,9,10,10,11,11,15,15,16,16,17,17,18,18,19,19,20,20,21,21,22,22,23,23,24,24,25,25,26,26,27,27,28,28,29,29,30,30,31,31,32,32,35,35,36,36,37,37,38,38],"right_children":[2,4,6,8,10,12,-1,14,16,18,20,22,-1,-1,-1,24,26,28,30,32,34,36,38,40,42,44,46,48,50,52,54,56,58,-1,-1,60,62,64,66,-1,-1,-1,-1,-1,-1,-1,-1,-1,-1,-1,-1,-1,-1,-1,-1,-1,-1,-1,-1,-1,-1,-1,-1,-1,-1,-1,-1],"split_conditions":[6.28E0,2.83E0,3.5E1,1.01887E1,4.3E0,1.6758E2,2.0742931E1,1.77E0,2E0,1.6676977E1,4.1736717E1,1.472E1,1.3595281E1,4.239331E0,4.143305E-1,1.33E0,3.0000002E0,1.7145834E1,2.6446732E2,2.5862436E1,4.79E0,1.3708391E1,1.24811535E1,3.3999999E0,2.4980553E2,3.1859625E1,2.7691935E1,1.3804165E1,1.662249E1,1.2200001E1,1.1E0,2.5053735E2,4.7589535E1,4.357906E0,-4.577696E-1,1.14862E1,1.042E1,1.3272915E1,2.4980553E2,-7.2645146E-1,-2.4801674E-1,-5.113048E-1,-6.637904E-1,8.065425E-2,-4.375596E-1,-2.7345473E-1,4.446427E-1,-2.2782566E-2,5.2264357E-1,-2.308897E-1,4.2853013E-1,-2.0341724E-1,2.2427373E-1,-6.1837274E-1,-9.98998E-2,2.7853113E-1,-1.5607153E-1,4.9050412E-1,-2.4193993E-1,5.0345886E-1,2.1887689E0,4.3411404E-1,1.0056015E0,5.952637E0,8.574824E-1,2.401988E0,3.3096504E-1],"split_indices":[0,0,2,3,0,0,0,0,0,3,3,0,0,0,0,0,2,1,4,3,0,3,3,2,4,4,3,1,3,2,2,4,4,0,0,3,0,1,4,0,0,0,0,0,0,0,0,0,0,0,0,0,0,0,0,0,0,0,0,0,0,0,0,0,0,0,0],"split_type":[0,0,0,0,0,0,0,0,0,0,0,0,0,0,0,0,0,0,0,0,0,0,0,0,0,0,0,0,0,0,0,0,0,0,0,0,0,0,0,0,0,0,0,0,0,0,0,0,0,0,0,0,0,0,0,0,0,0,0,0,0,0,0,0,0,0,0],"sum_hessian":[1.746E3,1.384E3,3.62E2,7.28E2,6.56E2,3.61E2,1E0,2E0,7.26E2,3.68E2,2.88E2,3.6E2,1E0,1E0,1E0,4.31E2,2.95E2,9.3E1,2.75E2,2.86E2,2E0,2.9E2,7E1,1.57E2,2.74E2,2.83E2,1.2E1,4.1E1,5.2E1,2.5E2,2.5E1,1.96E2,9E1,1E0,1E0,2.1E1,2.69E2,6E0,6.4E1,1.55E2,2E0,1.67E2,1.07E2,8E0,2.75E2,6E0,6E0,2.3E1,1.8E1,5.1E1,1E0,2.42E2,8E0,2.3E1,2E0,1.68E2,2.8E1,7E0,8.3E1,6E0,1.5E1,2.02E2,6.7E1,5E0,1E0,5.1E1,1.3E1],"tree_param":{"num_deleted":"0","num_feature":"5","num_nodes":"67","size_leaf_vector":"1"}},{"base_weights":[5.6804944E-2,-1.1267658E-2,3.9633434E1,-4.0445703E-1,5.0441136E0,2.0355435E-1,1.7631493E1,-9.5739484E-1,7.124685E-1,4.4681473E0,1.1555988E1,5.9112415E0,-9.883076E-1,5.7810986E-1,4.7882576E0,1.1831771E1,3.7249472E0,3.6034307E0,1.3833342E0,-1.3852221E0,-4.911412E-1,1.004427E0,-3.5603428E-1,1.5824721E0,1.2165648E1,1.5035296E1,7.400331E-1,-2.0884864E0,4.179115E0,6.104716E-1,-8.570681E-2,-3.5595086E-1,-4.8288107E-1,-4.2709183E-2,-1.9509055E-1,1.0567625E-1,6.088251E-1,3.599339E-1,-2.5043103E-1,8.1526554E-1,-2.3314975E-1,4.8021927E-1,5.6026053E0,4.81322E0,1.1960868E0,-1.0226607E0,1.2711861E0,1.5426068E0,1.3165258E-1],"categories":[],"categories_nodes":[],"categories_segments":[],"categories_sizes":[],"default_left":[0,1,0,1,0,0,0,0,0,0,0,0,1,0,0,0,0,0,0,0,0,0,0,0,0,0,0,0,0,0,0,0,0,0,0,0,0,0,0,0,0,0,0,0,0,0,0,0,0],"id":2,"left_children":[1,3,5,7,9,-1,-1,11,13,15,-1,17,19,21,23,25,27,-1,29,31,33,35,37,39,41,43,-1,45,47,-1,-1,-1,-1,-1,-1,-1,-1,-1,-1,-1,-1,-1,-1,-1,-1,-1,-1,-1,-1],"loss_changes":[4.7070117E3,3.4706155E3,2.196704E3,1.0011784E3,2.2572888E3,0E0,0E0,2.3600623E2,2.9130258E2,6.400078E2,0E0,1.2148973E2,2.1243884E2,2.0784148E2,3.8280383E2,2.9292236E2,3.1235962E2,0E0,4.9312987E0,2.4843506E1,2.6608498E1,2.385976E2,1.2315264E2,3.6930893E1,3.1397815E2,2.5194824E1,0E0,8.961633E1,3.8310803E2,0E0,0E0,0E0,0E0,0E0,0E0,0E0,0E0,0E0,0E0,0E0,0E0,0E0,0E0,0E0,0E0,0E0,0E0,0E0,0E0],"parents":[2147483647,0,0,1,1,2,2,3,3,4,4,7,7,8,8,9,9,11,11,12,12,13,13,14,14,15,15,16,16,18,18,19,19,20,20,21,21,22,22,23,23,24,24,25,25,27,27,28,28],"right_children":[2,4,6,8,10,-1,-1,12,14,16,-1,18,20,22,24,26,28,-1,30,32,34,36,38,40,42,44,-1,46,48,-1,-1,-1,-1,-1,-1,-1,-1,-1,-1,-1,-1,-1,-1,-1,-1,-1,-1,-1,-1],"split_conditions":[4E1,1.09E1,4.19E0,4.23E0,1.6758E2,2.0355435E-1,1.7631493E1,1.01887E1,1.0400002E1,1.2879752E1,1.1555988E1,1.77E0,2.41E0,2.4546085E1,3.233794E1,1.3583335E1,3.1859625E1,3.6034307E0,1.7379168E1,2.3131732E2,1.7145834E1,6.69E0,6.94247E1,1.770625E1,1.1685417E1,2.5410466E2,7.400331E-1,3.9000003E0,2.4980553E2,6.104716E-1,-8.570681E-2,-3.5595086E-1,-4.8288107E-1,-4.2709183E-2,-1.9509055E-1,1.0567625E-1,6.088251E-1,3.599339E-1,-2.5043103E-1,8.1526554E-1,-2.3314975E-1,4.8021927E-1,5.6026053E0,4.81322E0,1.1960868E0,-1.0226607E0,1.2711861E0,1.5426068E0,1.3165258E-1],"split_indices":[2,0,0,0,0,0,0,3,2,3,0,0,0,3,3,1,4,0,1,4,1,0,4,1,1,4,0,2,4,0,0,0,0,0,0,0,0,0,0,0,0,0,0,0,0,0,0,0,0],"split_type":[0,0,0,0,0,0,0,0,0,0,0,0,0,0,0,0,0,0,0,0,0,0,0,0,0,0,0,0,0,0,0,0,0,0,0,0,0,0,0,0,0,0,0,0,0,0,0,0,0],"sum_hessian":[1.746E3,1.744E3,2E0,1.619E3,1.25E2,1E0,1E0,1.083E3,5.36E2,1.24E2,1E0,4E0,1.079E3,5.2E2,1.6E1,1E1,1.14E2,1E0,3E0,5.99E2,4.8E2,3.57E2,1.63E2,1.2E1,4E0,7E0,3E0,8E0,1.06E2,2E0,1E0,3.21E2,2.78E2,1.51E2,3.29E2,2.19E2,1.38E2,3.8E1,1.25E2,8E0,4E0,2E0,2E0,6E0,1E0,7E0,1E0,8.4E1,2.2E1],"tree_param":{"num_deleted":"0","num_feature":"5","num_nodes":"49","size_leaf_vector":"1"}},{"base_weights":[6.75847E-2,9.745112E-3,3.368842E1,-2.7797427E-2,9.82259E0,1.7302123E-1,1.4986768E1,-4.162744E-1,2.1613686E0,-7.896692E-1,1.293371E-1,1.488992E0,5.067483E0,7.385614E0,-8.167036E-1,2.9043693E-2,3.5848017E0,4.1600537E0,1.2238185E0,1.0158915E1,2.946718E0,3.0629163E0,2.6061016E-1,-3.0939078E-1,-1.6801079E-1,2.4345724E-1,-5.339924E-2,6.3103896E-1,2.9389682E0,2.600819E-2,1.8100193E0,2.2772112E-1,7.321451E-1,3.8909972E0,-3.338124E-2,3.1239697E-1,1.7599589E0],"categories":[],"categories_nodes":[],"categories_segments":[],"categories_sizes":[],"default_left":[0,1,0,1,0,0,0,1,0,0,0,0,0,0,1,0,0,0,0,0,0,0,0,0,0,0,0,0,0,0,0,0,0,0,0,0,0],"id":3,"left_children":[1,3,5,7,-1,-1,-1,9,11,13,15,17,19,21,23,25,27,29,31,33,35,-1,-1,-1,-1,-1,-1,-1,-1,-1,-1,-1,-1,-1,-1,-1,-1],"loss_changes":[3.3969146E3,2.1452546E3,1.5871187E3,1.484068E3,0E0,0E0,0E0,3.020278E2,5.0635742E2,2.0052393E2,2.0887178E2,1.4719217E2,4.9915332E2,4.6344177E1,4.7783203E1,9.524177E1,1.3582248E2,1.4446219E2,1.09539734E2,4.0562683E2,1.9417322E2,0E0,0E0,0E0,0E0,0E0,0E0,0E0,0E0,0E0,0E0,0E0,0E0,0E0,0E0,0E0,0E0],"parents":[2147483647,0,0,1,1,2,2,3,3,7,7,8,8,9,9,10,10,11,11,12,12,13,13,14,14,15,15,16,16,17,17,18,18,19,19,20,20],"right_children":[2,4,6,8,-1,-1,-1,10,12,14,16,18,20,22,24,26,28,30,32,34,36,-1,-1,-1,-1,-1,-1,-1,-1,-1,-1,-1,-1,-1,-1,-1,-1],"split_conditions":[4E1,1.6758E2,4.19E0,7.6E0,9.82259E0,1.7302123E-1,1.4986768E1,3.4E0,1.679E1,1.01887E1,1.0400002E1,1.3708391E1,1.5596767E1,1.77E0,2.08E0,1.6595179E1,5.63E0,1.14862E1,5E-1,1E-1,2.9055367E1,3.0629163E0,2.6061016E-1,-3.0939078E-1,-1.6801079E-1,2.4345724E-1,-5.339924E-2,6.3103896E-1,2.9389682E0,2.600819E-2,1.8100193E0,2.2772112E-1,7.321451E-1,3.8909972E0,-3.338124E-2,3.1239697E-1,1.7599589E0],"split_indices":[2,0,0,0,0,0,0,0,0,3,2,3,3,0,0,3,0,3,2,2,3,0,0,0,0,0,0,0,0,0,0,0,0,0,0,0,0],"split_type":[0,0,0,0,0,0,0,0,0,0,0,0,0,0,0,0,0,0,0,0,0,0,0,0,0,0,0,0,0,0,0,0,0,0,0,0,0],"sum_hessian":[1.746E3,1.744E3,2E0,1.743E3,1E0,1E0,1E0,1.481E3,2.62E2,8.79E2,6.02E2,2.14E2,4.8E1,2E0,8.77E2,5.86E2,1.6E1,1.8E1,1.96E2,1.3E1,3.5E1,1E0,1E0,4.76E2,4.01E2,1.22E2,4.64E2,1.4E1,2E0,6E0,1.2E1,1.43E2,5.3E1,1E1,3E0,2.2E1,1.3E1],"tree_param":{"num_deleted":"0","num_feature":"5","num_nodes":"37","size_leaf_vector":"1"}},{"base_weights":[7.03856E-2,2.123678E-2,2.8635155E1,-1.0666951E-2,8.349202E0,1.4706802E-1,1.2738752E1,-2.141541E-1,2.2517884E0,-4.6906173E-1,3.63069E-1,4.2283225E0,1.2504953E0,4.2014203E0,-4.8973322E-1,2.7699053E-1,3.0761597E0,2.3616052E0,8.177661E0,1.399857E-1,4.1244097E0,2.603479E0,2.7379316E-1,-2.0706733E-1,-7.4809514E-2,6.5976775E-1,4.83894E-2,1.2599505E-1,2.491355E0,1.3841481E0,2.7702045E-1,3.0920675E0,-7.633385E-2,-1.5630919E0,1.1117349E-1,1.8874484E0,-5.6634966E-2],"categories":[],"categories_nodes":[],"categories_segments":[],"categories_sizes":[],"default_left":[0,1,0,1,0,0,0,1,0,0,0,0,0,0,1,0,0,0,0,0,0,0,0,0,0,0,0,0,0,0,0,0,0,0,0,0,0],"id":4,"left_children":[1,3,5,7,-1,-1,-1,9,11,13,15,17,19,21,23,25,27,29,31,33,35,-1,-1,-1,-1,-1,-1,-1,-1,-1,-1,-1,-1,-1,-1,-1,-1],"loss_changes":[2.4520486E3,1.548504E3,1.1466931E3,8.0338605E2,0E0,0E0,0E0,2.3573917E2,2.7970142E2,1.0931999E2,1.13815445E2,3.3455798E2,3.0899908E2,6.56965E1,5.3176117E1,1.0572447E2,2.0482375E2,1.05870804E2,2.719309E2,8.95262E1,2.5355817E2,0E0,0E0,0E0,0E0,0E0,0E0,0E0,0E0,0E0,0E0,0E0,0E0,0E0,0E0,0E0,0E0],"parents":[2147483647,0,0,1,1,2,2,3,3,7,7,8,8,9,9,10,10,11,11,12,12,13,13,14,14,15,15,16,16,17,17,18,18,19,19,20,20],"right_children":[2,4,6,8,-1,-1,-1,10,12,14,16,18,20,22,24,26,28,30,32,34,36,-1,-1,-1,-1,-1,-1,-1,-1,-1,-1,-1,-1,-1,-1,-1,-1],"split_conditions":[4E1,1.6758E2,4.19E0,1.042E1,8.349202E0,1.4706802E-1,1.2738752E1,4.33E0,1.7610588E1,1.01887E1,1.0400002E1,1.877E1,1.4000001E0,1.77E0,2.43E0,1.4007655E1,3.233794E1,1.3583335E1,1E-1,1.2012501E1,1.7145834E1,2.603479E0,2.7379316E-1,-2.0706733E-1,-7.4809514E-2,6.5976775E-1,4.83894E-2,1.2599505E-1,2.491355E0,1.3841481E0,2.7702045E-1,3.0920675E0,-7.633385E-2,-1.5630919E0,1.1117349E-1,1.8874484E0,-5.6634966E-2],"split_indices":[2,0,0,0,0,0,0,0,3,3,2,0,2,0,0,3,3,1,2,1,1,0,0,0,0,0,0,0,0,0,0,0,0,0,0,0,0],"split_type":[0,0,0,0,0,0,0,0,0,0,0,0,0,0,0,0,0,0,0,0,0,0,0,0,0,0,0,0,0,0,0,0,0,0,0,0,0],"sum_hessian":[1.746E3,1.744E3,2E0,1.743E3,1E0,1E0,1E0,1.6E3,1.43E2,1.11E3,4.9E2,4.7E1,9.6E1,4E0,1.106E3,4.76E2,1.4E1,3.3E1,1.4E1,7E1,2.6E1,1E0,3E0,6.02E2,5.04E2,2.6E1,4.5E2,1E1,4E0,1.2E1,2.1E1,1.1E1,3E0,2E0,6.8E1,1.7E1,9E0],"tree_param":{"num_deleted":"0","num_feature":"5","num_nodes":"37","size_leaf_vector":"1"}},{"base_weights":[6.770819E-2,2.5940724E-2,2.433988E1,-1.1729244E-3,7.0968213E0,1.2500782E-1,1.0827939E1,-1.01671375E-1,2.3683422E0,-3.2600713E-1,3.4041855E-1,4.616887E0,1.1947293E0,2.9715915E0,-3.4660187E-1,5.054079E-1,-6.496465E-1,7.425456E0,2.0803764E0,1.3114908E-1,5.7890053E0,2.212957E0,3.024047E-1,-5.8340114E-2,-1.878372E-1,1.3289073E-1,1.6217619E0,1.326557E-1,-7.005999E-1,-1.4709015E-1,2.7716973E0,-9.8281354E-1,1.6260514E0,-2.858539E-1,6.6370314E-1,-7.1514416E-1,2.1325755E0],"categories":[],"categories_nodes":[],"categories_segments":[],"categories_sizes":[],"default_left":[0,1,0,1,0,0,0,1,0,0,0,0,0,0,0,0,0,0,0,0,0,0,0,0,0,0,0,0,0,0,0,0,0,0,0,0,0],"id":5,"left_children":[1,3,5,7,-1,-1,-1,9,11,13,15,17,19,21,23,25,27,29,31,33,35,-1,-1,-1,-1,-1,-1,-1,-1,-1,-1,-1,-1,-1,-1,-1,-1],"loss_changes":[1.7704547E3,1.1180476E3,8.284855E2,4.1554404E2,0E0,0E0,0E0,1.6613257E2,1.8184741E2,7.648148E1,9.245785E1,1.555275E2,2.3378705E2,5.311027E1,4.6868423E1,1.4569933E2,1.5011206E2,1.6244043E2,2.682076E2,9.2348236E1,1.1400766E2,0E0,0E0,0E0,0E0,0E0,0E0,0E0,0E0,0E0,0E0,0E0,0E0,0E0,0E0,0E0,0E0],"parents":[2147483647,0,0,1,1,2,2,3,3,7,7,8,8,9,9,10,10,11,11,12,12,13,13,14,14,15,15,16,16,17,17,18,18,19,19,20,20],"right_children":[2,4,6,8,-1,-1,-1,10,12,14,16,18,20,22,24,26,28,30,32,34,36,-1,-1,-1,-1,-1,-1,-1,-1,-1,-1,-1,-1,-1,-1,-1,-1],"split_conditions":[4E1,1.6758E2,4.19E0,1.472E1,7.0968213E0,1.2500782E-1,1.0827939E1,4.33E0,1.7610588E1,1.1019764E1,2.563074E2,1.2716667E1,3.9000003E0,1.77E0,2.3131732E2,4.0321606E1,2.1758419E1,1.0999999E1,1.4077085E1,2.9055367E1,1.8532133E1,2.212957E0,3.024047E-1,-5.8340114E-2,-1.878372E-1,1.3289073E-1,1.6217619E0,1.326557E-1,-7.005999E-1,-1.4709015E-1,2.7716973E0,-9.8281354E-1,1.6260514E0,-2.858539E-1,6.6370314E-1,-7.1514416E-1,2.1325755E0],"split_indices":[2,0,0,0,0,0,0,0,3,3,4,1,2,0,4,3,3,1,1,3,3,0,0,0,0,0,0,0,0,0,0,0,0,0,0,0,0],"split_type":[0,0,0,0,0,0,0,0,0,0,0,0,0,0,0,0,0,0,0,0,0,0,0,0,0,0,0,0,0,0,0,0,0,0,0,0,0],"sum_hessian":[1.746E3,1.744E3,2E0,1.743E3,1E0,1E0,1E0,1.673E3,7E1,1.11E3,5.63E2,2.3E1,4.7E1,6E0,1.104E3,4.83E2,8E1,1E1,1.3E1,3.9E1,8E0,1E0,5E0,7.16E2,3.88E2,4.78E2,5E0,4.9E1,3.1E1,2E0,8E0,5E0,8E0,2.6E1,1.3E1,1E0,7E0],"tree_param":{"num_deleted":"0","num_feature":"5","num_nodes":"37","size_leaf_vector":"1"}},{"base_weights":[6.260394E-2,2.7107393E-2,2.0688898E1,4.0636957E-3,6.0322976E0,1.0625668E-1,9.203748E0,-1.5207313E-1,8.838763E-1,-1.8125874E-1,1.5561143E0,-1.7822254E0,1.0753639E0,1.8903081E0,-2.0555511E-1,-5.020486E-1,2.9616928E0,-2.2223148E0,3.4769794E-1,2.1961675E0,5.517069E-1,1.4482188E0,-4.5178223E-2,-2.505224E-2,-1.45538E-1,1.5894449E-1,-4.3507123E-1,1.784761E0,9.269904E-2,-2.7530774E-1,-1.0236677E0,8.8620675E-1,-4.479392E-2,2.3876384E-1,-5.4988056E-1],"categories":[],"categories_nodes":[],"categories_segments":[],"categories_sizes":[],"default_left":[0,1,0,1,0,0,0,0,0,0,0,0,0,0,0,0,0,0,0,0,0,0,0,0,0,0,0,0,0,0,0,0,0,0,0],"id":6,"left_children":[1,3,5,7,-1,-1,-1,9,11,13,15,17,19,21,23,25,27,29,-1,31,33,-1,-1,-1,-1,-1,-1,-1,-1,-1,-1,-1,-1,-1,-1],"loss_changes":[1.2785267E3,8.0738245E2,5.985808E2,2.397097E2,0E0,0E0,0E0,7.416641E1,1.3618474E2,7.3771996E1,7.380966E1,2.5874832E1,1.4316986E2,1.0263023E2,4.9162037E1,1.1530774E1,1.1703606E2,2.1706772E1,0E0,1.3908868E2,9.986142E1,0E0,0E0,0E0,0E0,0E0,0E0,0E0,0E0,0E0,0E0,0E0,0E0,0E0,0E0],"parents":[2147483647,0,0,1,1,2,2,3,3,7,7,8,8,9,9,10,10,11,11,12,12,13,13,14,14,15,15,16,16,17,17,19,19,20,20],"right_children":[2,4,6,8,-1,-1,-1,10,12,14,16,18,20,22,24,26,28,30,-1,32,34,-1,-1,-1,-1,-1,-1,-1,-1,-1,-1,-1,-1,-1,-1],"split_conditions":[4E1,1.6758E2,4.19E0,7.6E0,6.0322976E0,1.0625668E-1,9.203748E0,1.0400002E1,3.1859625E1,1.1659777E1,1.3883334E1,1.786875E1,1.7673029E1,1.3935416E1,2.3579758E2,3.65E0,6.0599777E1,1.5741227E1,3.4769794E-1,1E-1,2.661822E2,1.4482188E0,-4.5178223E-2,-2.505224E-2,-1.45538E-1,1.5894449E-1,-4.3507123E-1,1.784761E0,9.269904E-2,-2.7530774E-1,-1.0236677E0,8.8620675E-1,-4.479392E-2,2.3876384E-1,-5.4988056E-1],"split_indices":[2,0,0,0,0,0,0,2,4,3,1,1,3,1,4,0,4,4,0,2,4,0,0,0,0,0,0,0,0,0,0,0,0,0,0],"split_type":[0,0,0,0,0,0,0,0,0,0,0,0,0,0,0,0,0,0,0,0,0,0,0,0,0,0,0,0,0,0,0,0,0,0,0],"sum_hessian":[1.746E3,1.744E3,2E0,1.743E3,1E0,1E0,1E0,1.481E3,2.62E2,1.457E3,2.4E1,1.7E1,2.45E2,1.6E1,1.441E3,1E1,1.4E1,1.5E1,2E0,7.7E1,1.68E2,6E0,1E1,1.004E3,4.37E2,5E0,5E0,6E0,8E0,8E0,7E0,5.8E1,1.9E1,1.53E2,1.5E1],"tree_param":{"num_deleted":"0","num_feature":"5","num_nodes":"35","size_leaf_vector":"1"}},{"base_weights":[5.398594E-2,2.3814756E-2,1.7585562E1,4.228056E-3,5.1274533E0,9.03182E-2,7.823185E0,-5.4613933E-2,1.5751486E0,-1.5559617E-1,2.673086E-1,-2.0589472E-1,2.6764545E0,1.6888694E0,-1.7290166E-1,4.6027502E-1,-5.030927E-1,-2.4301195E0,1.7152903E0,3.123361E0,1.9769762E0,1.1172765E0,6.1693396E-2,-5.803752E-2,2.3419027E-1,9.374E-2,1.2757858E0,9.85279E-2,-4.5024076E-1,2.6615748E-1,-1.4779106E0,2.3919068E-1,1.4446439E0,1.1683584E0,-2.3496556E-1],"categories":[],"categories_nodes":[],"categories_segments":[],"categories_sizes":[],"default_left":[0,1,0,1,0,0,0,1,0,0,0,0,0,0,0,0,0,0,0,0,0,0,0,0,0,0,0,0,0,0,0,0,0,0,0],"id":7,"left_children":[1,3,5,7,-1,-1,-1,9,11,13,15,17,19,21,23,25,27,29,31,-1,33,-1,-1,-1,-1,-1,-1,-1,-1,-1,-1,-1,-1,-1,-1],"loss_changes":[9.23654E2,5.83281E2,4.3247467E2,1.6129457E2,0E0,0E0,0E0,5.472081E1,1.2412393E2,4.118077E1,5.999352E1,1.1099704E2,1.9041858E2,3.5461338E1,2.5045025E1,1.7916516E2,6.769169E1,1.0374067E2,3.6003716E1,0E0,1.9888449E2,0E0,0E0,0E0,0E0,0E0,0E0,0E0,0E0,0E0,0E0,0E0,0E0,0E0,0E0],"parents":[2147483647,0,0,1,1,2,2,3,3,7,7,8,8,9,9,10,10,11,11,12,12,13,13,14,14,15,15,16,16,17,17,18,18,20,20],"right_children":[2,4,6,8,-1,-1,-1,10,12,14,16,18,20,22,24,26,28,30,32,-1,34,-1,-1,-1,-1,-1,-1,-1,-1,-1,-1,-1,-1,-1,-1],"split_conditions":[4E1,1.6758E2,4.19E0,1.542E1,5.1274533E0,9.03182E-2,7.823185E0,5.27E0,6.514841E1,1.14862E1,2.5053735E2,2.9055367E1,7.0116425E1,1.3935416E1,8.700001E0,2.3974358E2,2.1758419E1,1.753E1,4.4E0,3.123361E0,1.4529166E1,1.1172765E0,6.1693396E-2,-5.803752E-2,2.3419027E-1,9.374E-2,1.2757858E0,9.85279E-2,-4.5024076E-1,2.6615748E-1,-1.4779106E0,2.3919068E-1,1.4446439E0,1.1683584E0,-2.3496556E-1],"split_indices":[2,0,0,0,0,0,0,0,4,3,4,3,4,1,2,4,3,0,2,0,1,0,0,0,0,0,0,0,0,0,0,0,0,0,0],"split_type":[0,0,0,0,0,0,0,0,0,0,0,0,0,0,0,0,0,0,0,0,0,0,0,0,0,0,0,0,0,0,0,0,0,0,0],"sum_hessian":[1.746E3,1.744E3,2E0,1.743E3,1E0,1E0,1E0,1.681E3,6.2E1,1.28E3,4.01E2,2.4E1,3.8E1,1.1E1,1.269E3,3.21E2,8E1,1.1E1,1.3E1,2E0,3.6E1,4E0,7E0,1.243E3,2.6E1,3.1E2,1.1E1,4.4E1,3.6E1,5E0,6E0,1.1E1,2E0,2.1E1,1.5E1],"tree_param":{"num_deleted":"0","num_feature":"5","num_nodes":"35","size_leaf_vector":"1"}},{"base_weights":[4.920556E-2,2.3563858E-2,1.4947726E1,6.9170687E-3,4.358335E0,7.677048E-2,6.6497064E0,-4.3450173E-2,1.0978994E0,6.34754E-2,-2.224466E-1,7.5391614E-1,3.9705157E0,3.195994E-2,2.5628595E0,6.7956614E-1,-4.1044453E-1,2.0689223E0,-7.8317934E-1,5.8263764E0,-1.0647103E0,-6.5597825E-2,8.024184E-2,8.913055E-2,3.0049057E0,8.510083E-2,1.1469303E0,-8.92417E-2,-3.1861994E-1,3.9812487E-1,1.7412657E0,-1.6316153E0,-9.2213884E-2,-6.577482E-1,2.3605947E0,-6.93406E-1,2.1428634E-1],"categories":[],"categories_nodes":[],"categories_segments":[],"categories_sizes":[],"default_left":[0,1,0,1,0,0,0,0,0,0,0,0,0,0,0,0,1,0,0,0,0,0,0,0,0,0,0,0,0,0,0,0,0,0,0,0,0],"id":8,"left_children":[1,3,5,7,-1,-1,-1,9,11,13,15,17,19,21,23,25,27,29,31,33,35,-1,-1,-1,-1,-1,-1,-1,-1,-1,-1,-1,-1,-1,-1,-1,-1],"loss_changes":[6.6704266E2,4.2122742E2,3.124629E2,9.588011E1,0E0,0E0,0E0,3.1938467E1,7.3092735E1,8.223196E1,1.0609468E2,1.4311064E2,8.096082E1,6.1030354E1,2.1656564E2,1.3332314E2,3.7743095E1,9.7594955E1,7.142667E1,1.1551228E2,8.304298E0,0E0,0E0,0E0,0E0,0E0,0E0,0E0,0E0,0E0,0E0,0E0,0E0,0E0,0E0,0E0,0E0],"parents":[2147483647,0,0,1,1,2,2,3,3,7,7,8,8,9,9,10,10,11,11,12,12,13,13,14,14,15,15,16,16,17,17,18,18,19,19,20,20],"right_children":[2,4,6,8,-1,-1,-1,10,12,14,16,18,20,22,24,26,28,30,32,34,36,-1,-1,-1,-1,-1,-1,-1,-1,-1,-1,-1,-1,-1,-1,-1,-1],"split_conditions":[4E1,1.6758E2,4.19E0,1.44E1,4.358335E0,7.677048E-2,6.6497064E0,2.4122683E1,4.4E0,2.3893261E1,6.0599777E1,2.2380884E1,1.76E1,1.2479611E2,2.3430983E2,3.9081146E1,6.2E0,1.933639E1,2.3042812E1,1.8532133E1,1.542E1,-6.5597825E-2,8.024184E-2,8.913055E-2,3.0049057E0,8.510083E-2,1.1469303E0,-8.92417E-2,-3.1861994E-1,3.9812487E-1,1.7412657E0,-1.6316153E0,-9.2213884E-2,-6.577482E-1,2.3605947E0,-6.93406E-1,2.1428634E-1],"split_indices":[2,0,0,0,0,0,0,3,2,3,4,3,2,4,4,3,0,3,3,3,0,0,0,0,0,0,0,0,0,0,0,0,0,0,0,0,0],"split_type":[0,0,0,0,0,0,0,0,0,0,0,0,0,0,0,0,0,0,0,0,0,0,0,0,0,0,0,0,0,0,0,0,0,0,0,0,0],"sum_hessian":[1.746E3,1.744E3,2E0,1.743E3,1E0,1E0,1E0,1.667E3,7.6E1,1.044E3,6.23E2,6.9E1,7E0,1.032E3,1.2E1,1.07E2,5.16E2,3.7E1,3.2E1,5E0,2E0,5E2,5.32E2,1E1,2E0,9.6E1,1.1E1,4.41E2,7.5E1,3.2E1,5E0,2E0,3E1,1E0,4E0,1E0,1E0],"tree_param":{"num_deleted":"0","num_feature":"5","num_nodes":"37","size_leaf_vector":"1"}},{"base_weights":[4.3978497E-2,2.2185517E-2,1.2705568E1,8.036984E-3,3.7045844E0,6.525493E-2,5.652251E0,-2.0467276E-2,1.3609743E0,6.724667E-2,-3.1533083E-1,2.7509315E0,-1.309791E0,4.4935003E-1,-7.626163E-2,2.9588038E-1,-5.284862E-1,-1.3416626E0,3.6365335E0,-1.2779696E0,1.0665137E0,-8.253385E-2,2.2827776E-1,-4.3873176E-2,2.2516383E-1,-4.6512645E-2,6.1276084E-1,-1.0788727E-1,-2.9793617E-1,-1.2187277E0,1.4312084E0,1.4554778E0,-2.9368848E-1,8.8834673E-1,-9.2348254E-1],"categories":[],"categories_nodes":[],"categories_segments":[],"categories_sizes":[],"default_left":[0,1,0,1,0,0,0,0,0,0,0,0,0,0,0,0,1,0,0,0,0,0,0,0,0,0,0,0,0,0,0,0,0,0,0],"id":9,"left_children":[1,3,5,7,-1,-1,-1,9,11,13,15,17,19,21,23,25,27,29,31,-1,33,-1,-1,-1,-1,-1,-1,-1,-1,-1,-1,-1,-1,-1,-1],"loss_changes":[4.817744E2,3.042303E2,2.2575436E2,6.728431E1,0E0,0E0,0E0,4.4222176E1,1.3724414E2,7.23068E1,5.1227287E1,9.186484E1,9.567785E1,8.147038E1,5.559932E1,8.065253E1,2.2474442E1,1.0253197E2,1.169115E2,0E0,7.1938385E1,0E0,0E0,0E0,0E0,0E0,0E0,0E0,0E0,0E0,0E0,0E0,0E0,0E0,0E0],"parents":[2147483647,0,0,1,1,2,2,3,3,7,7,8,8,9,9,10,10,11,11,12,12,13,13,14,14,15,15,16,16,17,17,18,18,20,20],"right_children":[2,4,6,8,-1,-1,-1,10,12,14,16,18,20,22,24,26,28,30,32,-1,34,-1,-1,-1,-1,-1,-1,-1,-1,-1,-1,-1,-1,-1,-1],"split_conditions":[4E1,1.6758E2,4.19E0,1.877E1,3.7045844E0,6.525493E-2,5.652251E0,2.563074E2,1E-1,1.6491667E1,1.656E1,6.514841E1,1.4000001E0,4.9521538E1,8.74E0,1.5941944E1,3.13E0,1.5808333E1,2.661822E2,-1.2779696E0,1.4810416E1,-8.253385E-2,2.2827776E-1,-4.3873176E-2,2.2516383E-1,-4.6512645E-2,6.1276084E-1,-1.0788727E-1,-2.9793617E-1,-1.2187277E0,1.4312084E0,1.4554778E0,-2.9368848E-1,8.8834673E-1,-9.2348254E-1],"split_indices":[2,0,0,0,0,0,0,4,2,1,3,4,2,4,0,3,0,1,4,0,1,0,0,0,0,0,0,0,0,0,0,0,0,0,0],"split_type":[0,0,0,0,0,0,0,0,0,0,0,0,0,0,0,0,0,0,0,0,0,0,0,0,0,0,0,0,0,0,0,0,0,0,0],"sum_hessian":[1.746E3,1.744E3,2E0,1.743E3,1E0,1E0,1E0,1.708E3,3.5E1,1.317E3,3.91E2,2.3E1,1.2E1,3.59E2,9.58E2,1.01E2,2.9E2,4E0,1.9E1,5E0,7E0,1.08E2,2.51E2,8.84E2,7.4E1,8.1E1,2E1,2.14E2,7.6E1,3E0,1E0,1.5E1,4E0,5E0,2E0],"tree_param":{"num_deleted":"0","num_feature":"5","num_nodes":"35","size_leaf_vector":"1"}},{"base_weights":[3.6492266E-2,1.7967217E-2,1.0799732E1,5.940451E-3,3.148897E0,5.5466726E-2,4.804413E0,8.20538E-1,-2.107163E-2,3.397353E-1,2.7565732E0,-3.1082757E-2,2.3888996E0,7.024877E-1,-1.4711496E0,1.9072576E0,1.7607255E0,-1.7908996E-2,-3.7101638E0,4.974174E0,-8.148574E-1,1.178575E-1,8.188188E-1,-5.787111E-1,2.6010934E-1,7.392936E-1,1.6928302E-1,-1.0928981E-2,4.1336054E-1,-1.6529385E0,-4.2986992E-1,2.032485E0,4.5460227E-1],"categories":[],"categories_nodes":[],"categories_segments":[],"categories_sizes":[],"default_left":[0,1,0,0,0,0,0,0,1,0,0,1,0,0,0,0,0,1,0,0,0,0,0,0,0,0,0,0,0,0,0,0,0],"id":10,"left_children":[1,3,5,7,-1,-1,-1,9,11,13,15,17,19,21,23,-1,25,27,29,31,-1,-1,-1,-1,-1,-1,-1,-1,-1,-1,-1,-1,-1],"loss_changes":[3.4813956E2,2.198438E2,1.6310751E2,3.8392223E1,0E0,0E0,0E0,5.1191147E1,4.0823956E1,3.1250996E1,2.8252136E1,8.1504074E1,1.0589724E2,2.3403755E1,1.0237522E1,0E0,7.0274963E0,4.3428352E1,1.6694427E1,2.0876556E1,0E0,0E0,0E0,0E0,0E0,0E0,0E0,0E0,0E0,0E0,0E0,0E0,0E0],"parents":[2147483647,0,0,1,1,2,2,3,3,7,7,8,8,9,9,10,10,11,11,12,12,13,13,14,14,16,16,17,17,18,18,19,19],"right_children":[2,4,6,8,-1,-1,-1,10,12,14,16,18,20,22,24,-1,26,28,30,32,-1,-1,-1,-1,-1,-1,-1,-1,-1,-1,-1,-1,-1],"split_conditions":[4E1,1.6758E2,4.19E0,1.2879752E1,3.148897E0,5.5466726E-2,4.804413E0,1.05E1,3.907E1,7.77E0,1.13E1,3.272E1,1E-1,5.57E0,3.511836E2,1.9072576E0,1.2716667E1,1.877E1,1.642247E1,3.0141266E1,-8.148574E-1,1.178575E-1,8.188188E-1,-5.787111E-1,2.6010934E-1,7.392936E-1,1.6928302E-1,-1.0928981E-2,4.1336054E-1,-1.6529385E0,-4.2986992E-1,2.032485E0,4.5460227E-1],"split_indices":[2,0,0,3,0,0,0,0,0,0,0,0,2,0,4,0,1,0,3,3,0,0,0,0,0,0,0,0,0,0,0,0,0],"split_type":[0,0,0,0,0,0,0,0,0,0,0,0,0,0,0,0,0,0,0,0,0,0,0,0,0,0,0,0,0,0,0,0,0],"sum_hessian":[1.746E3,1.744E3,2E0,1.743E3,1E0,1E0,1E0,5.5E1,1.688E3,4.5E1,1E1,1.682E3,6E0,3.8E1,7E0,1E0,9E0,1.677E3,5E0,4E0,2E0,3.4E1,4E0,6E0,1E0,5E0,4E0,1.656E3,2.1E1,2E0,3E0,2E0,2E0],"tree_param":{"num_deleted":"0","num_feature":"5","num_nodes":"33","size_leaf_vector":"1"}},{"base_weights":[3.2089833E-2,1.6344767E-2,9.179772E0,6.1226315E-3,2.6765625E0,4.7146726E-2,4.083751E0,-1.549329E-1,1.2951627E-1,3.4260228E0,-1.6895667E-1,2.0828536E-1,-4.3660834E-1,1.4322324E0,1.0947783E-1,-5.3727794E-1,-1.3696207E-1,6.6176534E-1,5.142109E-2,-6.949478E-1,3.7018618E-1,-2.6849052E-1,-1.0880199E-1,-5.7580657E-3,-6.752769E-2,1.2930474E-1,1.0297658E0,-3.3748382E-1,2.7824081E-2,-2.4794647E-1,5.277459E-1,6.204974E-1,-7.0969716E-2],"categories":[],"categories_nodes":[],"categories_segments":[],"categories_sizes":[],"default_left":[0,1,0,1,0,0,0,0,0,0,0,0,0,0,0,0,0,0,0,0,0,0,0,0,0,0,0,0,0,0,0,0,0],"id":11,"left_children":[1,3,5,7,-1,-1,-1,9,11,13,15,17,19,-1,-1,21,23,25,27,29,31,-1,-1,-1,-1,-1,-1,-1,-1,-1,-1,-1,-1],"loss_changes":[2.5147188E2,1.587989E2,1.178452E2,3.4678978E1,0E0,0E0,0E0,3.8594208E1,4.414894E1,1.0637661E1,8.823551E0,6.1710976E1,2.547691E1,0E0,0E0,3.4226837E0,7.2194386E0,1.4109734E2,3.1509216E1,3.1152756E1,3.1399757E1,0E0,0E0,0E0,0E0,0E0,0E0,0E0,0E0,0E0,0E0,0E0,0E0],"parents":[2147483647,0,0,1,1,2,2,3,3,7,7,8,8,9,9,10,10,11,11,12,12,15,15,16,16,17,17,18,18,19,19,20,20],"right_children":[2,4,6,8,-1,-1,-1,10,12,14,16,18,20,-1,-1,22,24,26,28,30,32,-1,-1,-1,-1,-1,-1,-1,-1,-1,-1,-1,-1],"split_conditions":[4E1,1.6758E2,4.19E0,2.92E0,2.6765625E0,4.7146726E-2,4.083751E0,1.01887E1,2.661822E2,1.77E0,1.07E0,1.5339585E1,3.3796753E2,1.4322324E0,1.0947783E-1,2.3318887E2,1.7449999E1,1.4885417E1,1.3891522E1,8.6E0,3.4655142E2,-2.6849052E-1,-1.0880199E-1,-5.7580657E-3,-6.752769E-2,1.2930474E-1,1.0297658E0,-3.3748382E-1,2.7824081E-2,-2.4794647E-1,5.277459E-1,6.204974E-1,-7.0969716E-2],"split_indices":[2,0,0,0,0,0,0,3,4,0,0,1,4,0,0,4,1,1,3,2,4,0,0,0,0,0,0,0,0,0,0,0,0],"split_type":[0,0,0,0,0,0,0,0,0,0,0,0,0,0,0,0,0,0,0,0,0,0,0,0,0,0,0,0,0,0,0,0,0],"sum_hessian":[1.746E3,1.744E3,2E0,1.743E3,1E0,1E0,1E0,7.56E2,9.87E2,2E0,7.54E2,8.67E2,1.2E2,1E0,1E0,5.9E1,6.95E2,2.22E2,6.45E2,9.1E1,2.9E1,1.8E1,4.1E1,2.98E2,3.97E2,2.06E2,1.6E1,2.1E1,6.24E2,8.7E1,4E0,7E0,2.2E1],"tree_param":{"num_deleted":"0","num_feature":"5","num_nodes":"33","size_leaf_vector":"1"}},{"base_weights":[2.794505E-2,1.4562514E-2,7.802805E0,5.87408E-3,2.2750788E0,4.0074706E-2,3.4711878E0,-6.096144E-1,3.93412E-2,-3.4736142E-1,-1.4547616E0,7.9038566E-1,1.1569776E-2,-9.7729325E-1,-1.7242679E-1,-2.094692E0,4.9417987E-1,1.2540798E0,-5.3417224E-1,2.82976E-1,-5.7729986E-2,-5.8950365E-2,-4.4279635E-1,4.4071086E-2,-2.0178448E-1,-2.2161123E-1,-8.503244E-1,5.5732024E-1,-4.5023322E-2,5.9120226E-1,-1.8189368E-1,-6.537355E-2,-5.4959905E-1,5.3913955E-2,8.24238E-1,-2.056219E-2,1.3624876E0],"categories":[],"categories_nodes":[],"categories_segments":[],"categories_sizes":[],"default_left":[0,1,0,0,0,0,0,0,0,0,0,0,0,0,0,0,0,0,0,0,1,0,0,0,0,0,0,0,0,0,0,0,0,0,0,0,0],"id":12,"left_children":[1,3,5,7,-1,-1,-1,9,11,13,15,17,19,21,23,25,27,29,31,33,35,-1,-1,-1,-1,-1,-1,-1,-1,-1,-1,-1,-1,-1,-1,-1,-1],"loss_changes":[1.8165709E2,1.1471195E2,8.51431E1,3.5947987E1,0E0,0E0,0E0,1.9442486E1,3.4510147E1,7.545271E0,2.7226086E1,3.690709E1,3.0053331E1,5.550618E0,9.043424E0,1.3955078E1,5.549685E0,5.985328E1,6.1679935E0,8.221536E1,6.3607407E1,0E0,0E0,0E0,0E0,0E0,0E0,0E0,0E0,0E0,0E0,0E0,0E0,0E0,0E0,0E0,0E0],"parents":[2147483647,0,0,1,1,2,2,3,3,7,7,8,8,9,9,10,10,11,11,12,12,13,13,14,14,15,15,16,16,17,17,18,18,19,19,20,20],"right_children":[2,4,6,8,-1,-1,-1,10,12,14,16,18,20,22,24,26,28,30,32,34,36,-1,-1,-1,-1,-1,-1,-1,-1,-1,-1,-1,-1,-1,-1,-1,-1],"split_conditions":[4E1,1.6758E2,4.19E0,2.9420347E1,2.2750788E0,4.0074706E-2,3.4711878E0,2.437475E1,1.3207634E1,3.667748E0,7E-1,3.2647342E2,7.125045E1,3.65E0,1.6935415E1,3.3E0,1.2000002E0,1.7449999E1,1.24811535E1,3.9081146E1,3.907E1,-5.8950365E-2,-4.4279635E-1,4.4071086E-2,-2.0178448E-1,-2.2161123E-1,-8.503244E-1,5.5732024E-1,-4.5023322E-2,5.9120226E-1,-1.8189368E-1,-6.537355E-2,-5.4959905E-1,5.3913955E-2,8.24238E-1,-2.056219E-2,1.3624876E0],"split_indices":[2,0,0,4,0,0,0,4,3,4,2,4,4,0,1,0,2,1,3,3,0,0,0,0,0,0,0,0,0,0,0,0,0,0,0,0,0],"split_type":[0,0,0,0,0,0,0,0,0,0,0,0,0,0,0,0,0,0,0,0,0,0,0,0,0,0,0,0,0,0,0,0,0,0,0,0,0],"sum_hessian":[1.746E3,1.744E3,2E0,1.743E3,1E0,1E0,1E0,8.9E1,1.654E3,6.9E1,2E1,5.8E1,1.596E3,1.4E1,5.5E1,1.5E1,5E0,4.3E1,1.5E1,3.24E2,1.272E3,6E0,8E0,3.4E1,2.1E1,6E0,9E0,1E0,4E0,3.1E1,1.2E1,1.3E1,2E0,3.12E2,1.2E1,1.27E3,2E0],"tree_param":{"num_deleted":"0","num_feature":"5","num_nodes":"37","size_leaf_vector":"1"}},{"base_weights":[2.3328912E-2,1.1953272E-2,6.632383E0,4.5678597E-3,1.933817E0,3.4063485E-2,2.950509E0,-6.152064E-3,1.1627041E0,9.0753056E-2,-1.3011612E-1,1.0607825E-1,1.7860719E0,5.5463247E-2,1.3712687E0,5.1978153E-1,-2.0745279E-1,-7.739501E-2,1.12952285E-1,2.3185775E0,-2.2930074E-1,-3.87688E-2,7.283657E-2,-4.5511362E-1,8.968843E-1,-2.1473233E-1,3.781842E-1,-3.5950772E-2,-1.9219296E-1,3.6203627E-2,-7.4901134E-2,-7.495287E-2,8.16356E-1,5.494373E-2,-1.5812907E-1],"categories":[],"categories_nodes":[],"categories_segments":[],"categories_sizes":[],"default_left":[0,1,0,0,0,0,0,0,0,0,0,0,0,0,0,0,1,0,0,0,0,0,0,0,0,0,0,0,0,0,0,0,0,0,0],"id":13,"left_children":[1,3,5,7,-1,-1,-1,9,11,13,15,17,19,21,23,25,27,29,-1,31,33,-1,-1,-1,-1,-1,-1,-1,-1,-1,-1,-1,-1,-1,-1],"loss_changes":[1.3126405E2,8.289035E1,6.1515884E1,2.1659145E1,0E0,0E0,0E0,2.0781858E1,1.0349201E1,4.3802612E1,3.8255863E1,3.764557E-1,1.1263626E1,3.2760704E1,1.26066925E2,7.504485E1,2.5694532E1,2.0074609E-1,0E0,8.952423E0,4.6501046E-1,0E0,0E0,0E0,0E0,0E0,0E0,0E0,0E0,0E0,0E0,0E0,0E0,0E0,0E0],"parents":[2147483647,0,0,1,1,2,2,3,3,7,7,8,8,9,9,10,10,11,11,12,12,13,13,14,14,15,15,16,16,17,17,19,19,20,20],"right_children":[2,4,6,8,-1,-1,-1,10,12,14,16,18,20,22,24,26,28,30,-1,32,34,-1,-1,-1,-1,-1,-1,-1,-1,-1,-1,-1,-1,-1,-1],"split_conditions":[4E1,1.6758E2,4.19E0,2.93125E1,1.933817E0,3.4063485E-2,2.950509E0,2.2380884E1,7.892068E1,1.679E1,5.2549374E1,3.0676142E1,1E-1,1.2768956E2,1.4255272E1,1.3495833E1,6.97E0,4.05E0,1.12952285E-1,2.31E0,4.5E0,-3.87688E-2,7.283657E-2,-4.5511362E-1,8.968843E-1,-2.1473233E-1,3.781842E-1,-3.5950772E-2,-1.9219296E-1,3.6203627E-2,-7.4901134E-2,-7.495287E-2,8.16356E-1,5.494373E-2,-1.5812907E-1],"split_indices":[2,0,0,1,0,0,0,3,4,0,4,3,2,4,3,1,0,0,0,0,0,0,0,0,0,0,0,0,0,0,0,0,0,0,0],"split_type":[0,0,0,0,0,0,0,0,0,0,0,0,0,0,0,0,0,0,0,0,0,0,0,0,0,0,0,0,0,0,0,0,0,0,0],"sum_hessian":[1.746E3,1.744E3,2E0,1.743E3,1E0,1E0,1E0,1.728E3,1.5E1,9.7E2,7.58E2,6E0,9E0,9.45E2,2.5E1,8E1,6.78E2,4E0,2E0,7E0,2E0,4.76E2,4.69E2,9E0,1.6E1,3E1,5E1,5.65E2,1.13E2,2E0,2E0,1E0,6E0,1E0,1E0],"tree_param":{"num_deleted":"0","num_feature":"5","num_nodes":"35","size_leaf_vector":"1"}},{"base_weights":[1.978871E-2,1.0119374E-2,5.637523E0,3.8417487E-3,1.6437447E0,2.8953983E-2,2.5079317E0,-4.8316884E-1,3.0323388E-2,-1.822631E-1,-9.5081323E-1,1.0543638E-1,-1.786217E-1,-3.3267748E-1,7.618078E-1,-1.2860966E0,1.6068274E-1,5.4235435E-1,1.533587E-3,-1.3128303E-1,-1.1123805E0,6.620947E-2,-1.7499149E-1,-1.1555027E-1,4.5810798E-1,-4.828226E-1,-3.972966E-2,3.094275E-1,-2.2265883E-1,1.0639375E-1,7.288102E-1,-1.8371304E-2,1.0064974E-1,7.035786E-2,-7.978213E-2,-5.018754E-1,5.0644004E-1],"categories":[],"categories_nodes":[],"categories_segments":[],"categories_sizes":[],"default_left":[0,1,0,0,0,0,0,0,0,0,0,0,1,0,0,0,0,0,0,0,0,0,0,0,0,0,0,0,0,0,0,0,0,0,0,0,0],"id":14,"left_children":[1,3,5,7,-1,-1,-1,9,11,13,15,17,19,21,23,25,27,29,31,33,35,-1,-1,-1,-1,-1,-1,-1,-1,-1,-1,-1,-1,-1,-1,-1,-1],"loss_changes":[9.4839584E1,5.9889194E1,4.4445183E1,2.2506739E1,0E0,0E0,0E0,1.2491219E1,2.5993214E1,8.205539E0,1.32499695E1,5.529271E1,1.9214825E1,6.924602E0,7.609658E0,9.857689E0,7.841092E0,8.2023224E1,2.0669533E1,2.0652596E1,3.5789764E1,0E0,0E0,0E0,0E0,0E0,0E0,0E0,0E0,0E0,0E0,0E0,0E0,0E0,0E0,0E0,0E0],"parents":[2147483647,0,0,1,1,2,2,3,3,7,7,8,8,9,9,10,10,11,11,12,12,13,13,14,14,15,15,16,16,17,17,18,18,19,19,20,20],"right_children":[2,4,6,8,-1,-1,-1,10,12,14,16,18,20,22,24,26,28,30,32,34,36,-1,-1,-1,-1,-1,-1,-1,-1,-1,-1,-1,-1,-1,-1,-1,-1],"split_conditions":[4E1,1.6758E2,4.19E0,2.9420347E1,1.6437447E0,2.8953983E-2,2.5079317E0,1.8550264E1,2.5053735E2,1.5741227E1,1.8754164E1,1.5270832E1,1.39E1,1.1099999E1,1.73E0,9.0000004E-1,1.5256526E1,1.4885417E1,2.7318748E1,1.7462782E1,3.272E1,6.620947E-2,-1.7499149E-1,-1.1555027E-1,4.5810798E-1,-4.828226E-1,-3.972966E-2,3.094275E-1,-2.2265883E-1,1.0639375E-1,7.288102E-1,-1.8371304E-2,1.0064974E-1,7.035786E-2,-7.978213E-2,-5.018754E-1,5.0644004E-1],"split_indices":[2,0,0,4,0,0,0,4,4,4,1,1,0,1,0,2,3,1,1,3,0,0,0,0,0,0,0,0,0,0,0,0,0,0,0,0,0],"split_type":[0,0,0,0,0,0,0,0,0,0,0,0,0,0,0,0,0,0,0,0,0,0,0,0,0,0,0,0,0,0,0,0,0,0,0,0,0],"sum_hessian":[1.746E3,1.744E3,2E0,1.743E3,1E0,1E0,1E0,8.9E1,1.654E3,5.5E1,3.4E1,1.217E3,4.37E2,4.8E1,7E0,2.6E1,8E0,2.33E2,9.84E2,4.17E2,2E1,1.5E1,3.3E1,3E0,4E0,2E1,6E0,4E0,4E0,2.13E2,2E1,8.29E2,1.55E2,1.12E2,3.05E2,1.7E1,3E0],"tree_param":{"num_deleted":"0","num_feature":"5","num_nodes":"37","size_leaf_vector":"1"}},{"base_weights":[1.6651865E-2,8.4327385E-3,4.791894E0,3.0966604E-3,1.397183E0,2.4610879E-2,2.1317415E0,1.222736E-2,-1.1260704E0,3.6642984E-3,3.7084134E0,3.986937E-1,-1.4171495E0,-1.4890392E-2,4.78608E-1,-4.3013334E-2,1.512041E0,-1.702573E0,3.0118984E-1,-3.1797477E-4,-3.6367884E-1,2.6425585E-1,-4.7283772E-1,-1.810912E-1,-6.5297586E-1],"categories":[],"categories_nodes":[],"categories_segments":[],"categories_sizes":[],"default_left":[0,1,0,0,0,0,0,0,0,0,0,0,0,0,0,0,0,0,0,0,0,0,0,0,0],"id":15,"left_children":[1,3,5,7,-1,-1,-1,9,11,13,15,-1,17,19,21,-1,-1,23,-1,-1,-1,-1,-1,-1,-1],"loss_changes":[6.852642E1,4.327308E1,3.2111633E1,1.7994558E1,0E0,0E0,0E0,5.477372E1,1.1887951E1,1.5235011E1,2.1240719E1,0E0,1.0692888E1,2.7554935E1,5.5111206E1,0E0,0E0,4.9370537E0,0E0,0E0,0E0,0E0,0E0,0E0,0E0],"parents":[2147483647,0,0,1,1,2,2,3,3,7,7,8,8,9,9,10,10,12,12,13,13,14,14,17,17],"right_children":[2,4,6,8,-1,-1,-1,10,12,14,16,-1,18,20,22,-1,-1,24,-1,-1,-1,-1,-1,-1,-1],"split_conditions":[4E1,1.6758E2,4.19E0,1.76E1,1.397183E0,2.4610879E-2,2.1317415E0,1.6900002E1,2.0929594E1,5.1E0,1.63E0,3.986937E-1,3.6199997E1,3.8000002E0,2.2762503E1,-4.3013334E-2,1.512041E0,5.1632435E1,3.0118984E-1,-3.1797477E-4,-3.6367884E-1,2.6425585E-1,-4.7283772E-1,-1.810912E-1,-6.5297586E-1],"split_indices":[2,0,0,2,0,0,0,2,3,2,0,0,2,2,1,0,0,4,0,0,0,0,0,0,0],"split_type":[0,0,0,0,0,0,0,0,0,0,0,0,0,0,0,0,0,0,0,0,0,0,0,0,0],"sum_hessian":[1.746E3,1.744E3,2E0,1.743E3,1E0,1E0,1E0,1.73E3,1.3E1,1.727E3,3E0,1E0,1.2E1,1.663E3,6.4E1,1E0,2E0,1.1E1,1E0,1.645E3,1.8E1,5.4E1,1E1,4E0,7E0],"tree_param":{"num_deleted":"0","num_feature":"5","num_nodes":"25","size_leaf_vector":"1"}},{"base_weights":[1.4126733E-2,7.140445E-3,4.0731087E0,2.6047654E-3,1.1876049E0,2.0919228E-2,1.8119798E0,-8.7774046E-2,9.454782E-2,2.4775002E0,-9.643925E-2,9.665925E-1,5.3309266E-2,1.1018807E0,1.299448E-2,-7.98448E-2,-7.698486E-1,1.5333427E0,-1.0929464E0,-1.8785616E0,9.131003E-2,-2.5499731E-2,6.50608E-1,-6.0746574E-1,-1.8175574E-1,7.4326664E-2,5.909195E-1,-3.7974295E-1,4.3493986E-2,-3.1631362E-1,-1.2262547E0,4.9308095E-2,-1.3465434E-1],"categories":[],"categories_nodes":[],"categories_segments":[],"categories_sizes":[],"default_left":[0,1,0,1,0,0,0,0,0,0,0,0,0,0,0,0,0,0,0,0,0,0,0,0,0,0,0,0,0,0,0,0,0],"id":16,"left_children":[1,3,5,7,-1,-1,-1,9,11,13,15,17,19,-1,-1,21,23,25,27,29,31,-1,-1,-1,-1,-1,-1,-1,-1,-1,-1,-1,-1],"loss_changes":[4.9510975E1,3.1265205E1,2.3200645E1,1.45004225E1,0E0,0E0,0E0,1.980012E1,3.1055485E1,8.570639E0,9.750054E0,4.7198383E1,6.088374E1,0E0,0E0,1.0128241E1,3.0954647E0,1.690348E1,2.1094446E0,2.4819515E1,3.2114223E1,0E0,0E0,0E0,0E0,0E0,0E0,0E0,0E0,0E0,0E0,0E0,0E0],"parents":[2147483647,0,0,1,1,2,2,3,3,7,7,8,8,9,9,10,10,11,11,12,12,15,15,16,16,17,17,18,18,19,19,20,20],"right_children":[2,4,6,8,-1,-1,-1,10,12,14,16,18,20,-1,-1,22,24,26,28,30,32,-1,-1,-1,-1,-1,-1,-1,-1,-1,-1,-1,-1],"split_conditions":[4E1,1.6758E2,4.19E0,3.4E0,1.1876049E0,2.0919228E-2,1.8119798E0,1.01887E1,1.3276144E1,1.77E0,5.9999995E0,3E-1,1.3891522E1,1.1018807E0,1.299448E-2,5.7000003E0,6E0,1.1019764E1,1.05E1,1.44E1,2.619644E2,-2.5499731E-2,6.50608E-1,-6.0746574E-1,-1.8175574E-1,7.4326664E-2,5.909195E-1,-3.7974295E-1,4.3493986E-2,-3.1631362E-1,-1.2262547E0,4.9308095E-2,-1.3465434E-1],"split_indices":[2,0,0,0,0,0,0,3,3,0,2,2,3,0,0,2,2,3,0,0,4,0,0,0,0,0,0,0,0,0,0,0,0],"split_type":[0,0,0,0,0,0,0,0,0,0,0,0,0,0,0,0,0,0,0,0,0,0,0,0,0,0,0,0,0,0,0,0,0],"sum_hessian":[1.746E3,1.744E3,2E0,1.743E3,1E0,1E0,1E0,8.79E2,8.64E2,2E0,8.77E2,3.8E1,8.26E2,1E0,1E0,8.57E2,2E1,3E1,8E0,1.5E1,8.11E2,8.56E2,1E0,1E0,1.9E1,8E0,2.2E1,7E0,1E0,1.2E1,3E0,7.15E2,9.6E1],"tree_param":{"num_deleted":"0","num_feature":"5","num_nodes":"33","size_leaf_vector":"1"}},{"base_weights":[1.1418376E-2,4.532135E-3,3.0109649E0,6.737143E-4,1.0094639E0,5.919921E-1,1.5401826E0,5.3587905E-3,-6.112509E-1,1.778133E-2,2.486151E-1,-1.3532213E-2,4.249195E-1,1.3731229E-2,-3.9193508E-1,1.9067377E-1,2.6732104E0,2.1488746E-3,7.676413E-1,-2.3677716E-1,6.515174E-2,1.661235E-1,-3.139826E-1,-6.763494E-1,1.1610734E0],"categories":[],"categories_nodes":[],"categories_segments":[],"categories_sizes":[],"default_left":[0,1,0,0,0,0,0,0,0,0,0,0,0,0,0,0,0,0,0,0,0,0,0,0,0],"id":17,"left_children":[1,3,5,7,-1,9,-1,11,-1,-1,-1,13,15,17,19,21,23,-1,-1,-1,-1,-1,-1,-1,-1],"loss_changes":[3.607169E1,2.2609798E1,1.7502441E1,1.6654848E1,0E0,3.29206E-1,0E0,1.3796856E1,0E0,0E0,0E0,1.719278E1,3.8989227E1,2.5976358E1,2.727674E1,3.1575848E1,5.001591E1,0E0,0E0,0E0,0E0,0E0,0E0,0E0,0E0],"parents":[2147483647,0,0,1,1,2,2,3,3,5,5,7,7,11,11,12,12,13,13,14,14,15,15,16,16],"right_children":[2,4,6,8,-1,10,-1,12,-1,-1,-1,14,16,18,20,22,24,-1,-1,-1,-1,-1,-1,-1,-1],"split_conditions":[3.6199997E1,1.6758E2,4.69E0,2.91E1,1.0094639E0,4.19E0,1.5401826E0,5.2999997E0,-6.112509E-1,1.778133E-2,2.486151E-1,1.5E0,1.39E1,1.4000001E0,2.8337282E1,2.1312498E1,1.8532133E1,2.1488746E-3,7.676413E-1,-2.3677716E-1,6.515174E-2,1.661235E-1,-3.139826E-1,-6.763494E-1,1.1610734E0],"split_indices":[2,0,0,2,0,0,0,2,0,0,0,2,0,2,3,1,3,0,0,0,0,0,0,0,0],"split_type":[0,0,0,0,0,0,0,0,0,0,0,0,0,0,0,0,0,0,0,0,0,0,0,0,0],"sum_hessian":[1.746E3,1.743E3,3E0,1.742E3,1E0,2E0,1E0,1.739E3,3E0,1E0,1E0,1.665E3,7.4E1,1.554E3,1.11E2,6.8E1,6E0,1.551E3,3E0,6.7E1,4.4E1,5.3E1,1.5E1,1E0,5E0],"tree_param":{"num_deleted":"0","num_feature":"5","num_nodes":"25","size_leaf_vector":"1"}},{"base_weights":[9.790083E-3,3.9369203E-3,2.5593216E0,-3.3877452E-3,1.4163461E0,5.031932E-1,1.3091561E0,3.1171169E-3,-1.4088275E0,-8.117732E-2,3.3085446E0,1.5114141E-2,2.1132281E-1,1.0709214E-2,-9.998635E-1,6.5244144E-1,-2.9658391E0,-1.2414725E0,8.5804486E-1,1.3220977E0,1.9804002E-3,4.8530297E-4,1.4633162E0,1.8346825E-1,-1.546174E0,-1.2996739E0,-1.199574E0,-6.176587E-1,3.0421287E-1,1.6016852E-3,-6.19823E-1,1.0700153E0,-3.703614E-1,-1.8913814E-1,2.8087226E-1,-5.480448E-1,-2.2160034E-1,1.8144765E-1,-6.0079473E-1],"categories":[],"categories_nodes":[],"categories_segments":[],"categories_sizes":[],"default_left":[0,1,0,1,0,0,0,0,0,0,0,0,0,0,0,0,0,0,0,0,0,0,0,0,0,0,0,0,0,0,0,0,0,0,0,0,0,0,0],"id":18,"left_children":[1,3,5,7,9,11,-1,13,15,17,19,-1,-1,21,23,-1,25,27,-1,-1,-1,29,31,33,35,-1,37,-1,-1,-1,-1,-1,-1,-1,-1,-1,-1,-1,-1],"loss_changes":[2.6060097E1,1.804722E1,1.26455345E1,1.5875237E1,2.5771082E1,2.3785126E-1,0E0,1.3176569E1,5.1088177E1,2.402764E1,1.4478954E1,0E0,0E0,2.5499016E1,8.68774E0,0E0,9.2837715E0,1.1305948E1,0E0,0E0,0E0,1.712283E1,7.2499275E1,3.653779E0,6.901703E-1,0E0,7.0075264E0,0E0,0E0,0E0,0E0,0E0,0E0,0E0,0E0,0E0,0E0,0E0,0E0],"parents":[2147483647,0,0,1,1,2,2,3,3,4,4,5,5,7,7,8,8,9,9,10,10,13,13,14,14,16,16,17,17,21,21,22,22,23,23,24,24,26,26],"right_children":[2,4,6,8,10,12,-1,14,16,18,20,-1,-1,22,24,-1,26,28,-1,-1,-1,30,32,34,36,-1,38,-1,-1,-1,-1,-1,-1,-1,-1,-1,-1,-1,-1],"split_conditions":[3.6199997E1,3.907E1,4.69E0,3.272E1,1.4112502E1,4.19E0,1.3091561E0,1.76E1,1.260625E1,1.6758E2,3.0141266E1,1.5114141E-2,2.1132281E-1,1.43E1,5.0389313E1,6.5244144E-1,1.642247E1,2.9055367E1,8.5804486E-1,1.3220977E0,1.9804002E-3,1.34E1,6.0599777E1,2.92E0,1.5270832E1,-1.2996739E0,1.3204166E1,-6.176587E-1,3.0421287E-1,1.6016852E-3,-6.19823E-1,1.0700153E0,-3.703614E-1,-1.8913814E-1,2.8087226E-1,-5.480448E-1,-2.2160034E-1,1.8144765E-1,-6.0079473E-1],"split_indices":[2,0,0,0,1,0,0,2,1,0,3,0,0,2,4,0,3,3,0,0,0,2,4,0,1,0,1,0,0,0,0,0,0,0,0,0,0,0,0],"split_type":[0,0,0,0,0,0,0,0,0,0,0,0,0,0,0,0,0,0,0,0,0,0,0,0,0,0,0,0,0,0,0,0,0,0,0,0,0,0,0],"sum_hessian":[1.746E3,1.743E3,3E0,1.735E3,8E0,2E0,1E0,1.728E3,7E0,5E0,3E0,1E0,1E0,1.716E3,1.2E1,2E0,5E0,4E0,1E0,2E0,1E0,1.705E3,1.1E1,4E0,8E0,2E0,3E0,3E0,1E0,1.702E3,3E0,6E0,5E0,2E0,2E0,5E0,3E0,1E0,2E0],"tree_param":{"num_deleted":"0","num_feature":"5","num_nodes":"39","size_leaf_vector":"1"}},{"base_weights":[7.849763E-3,2.8737648E-3,2.1754227E0,-3.329384E-3,1.1990728E0,4.277142E-1,1.1127824E0,-2.4383703E-1,2.2764828E-2,3.39423E-2,2.6470006E0,1.2846995E-2,1.796244E-1,-1.6800576E-1,-1.0046499E0,1.0069435E-1,-9.998915E-2,-9.317195E-1,7.293377E-1,1.0576781E0,1.6832829E-3,-2.1738847E-1,1.8986859E0,7.95237E-2,2.6074154E0,-1.6831067E-1,5.912551E-1,-1.5956177E0,2.5858098E-1,-3.1145591E-2,-2.9574037E-1,-8.237493E-2,1.262774E0,1.4318159E-1,-5.110573E-3,-4.0002576E-1,2.8859837E0,-2.3652442E-2,-1.9862859E-1,-1.1685435E-1,4.6527255E-1,-1.2027169E-1,-5.5806595E-1],"categories":[],"categories_nodes":[],"categories_segments":[],"categories_sizes":[],"default_left":[0,1,0,0,0,0,0,0,0,0,0,0,0,0,0,0,0,0,0,0,0,0,0,0,0,1,0,0,0,0,0,0,0,0,0,0,0,0,0,0,0,0,0],"id":19,"left_children":[1,3,5,7,9,11,-1,13,15,17,19,-1,-1,21,-1,23,25,27,-1,-1,-1,29,31,33,35,37,39,41,-1,-1,-1,-1,-1,-1,-1,-1,-1,-1,-1,-1,-1,-1,-1],"loss_changes":[1.883661E1,1.2944823E1,9.136393E0,1.0900438E1,1.5093377E1,1.7184764E-1,0E0,3.946485E1,1.500024E1,1.6154337E1,9.263042E0,0E0,0E0,1.7456573E1,0E0,5.0685745E1,2.8860672E1,7.329346E0,0E0,0E0,0E0,1.4209688E1,2.124167E1,3.6570786E1,2.3390918E2,2.4466873E1,5.2370026E1,5.187206E-1,0E0,0E0,0E0,0E0,0E0,0E0,0E0,0E0,0E0,0E0,0E0,0E0,0E0,0E0,0E0],"parents":[2147483647,0,0,1,1,2,2,3,3,4,4,5,5,7,7,8,8,9,9,10,10,13,13,15,15,16,16,17,17,21,21,22,22,23,23,24,24,25,25,26,26,27,27],"right_children":[2,4,6,8,10,12,-1,14,16,18,20,-1,-1,22,-1,24,26,28,-1,-1,-1,30,32,34,36,38,40,42,-1,-1,-1,-1,-1,-1,-1,-1,-1,-1,-1,-1,-1,-1,-1],"split_conditions":[3.6199997E1,3.907E1,4.69E0,4.6688362E1,1.4112502E1,4.19E0,1.1127824E0,1.877E1,2.3950148E1,1.6758E2,3.0141266E1,1.2846995E-2,1.796244E-1,3.816679E1,-1.0046499E0,2.3893261E1,3.1999998E0,2.9055367E1,7.293377E-1,1.0576781E0,1.6832829E-3,8.47E0,2.69E0,1.3935416E1,2E-1,7.05E0,4.25E0,1.1885418E1,2.5858098E-1,-3.1145591E-2,-2.9574037E-1,-8.237493E-2,1.262774E0,1.4318159E-1,-5.110573E-3,-4.0002576E-1,2.8859837E0,-2.3652442E-2,-1.9862859E-1,-1.1685435E-1,4.6527255E-1,-1.2027169E-1,-5.5806595E-1],"split_indices":[2,0,0,4,1,0,0,0,3,0,3,0,0,3,0,3,2,3,0,0,0,0,0,1,2,0,0,1,0,0,0,0,0,0,0,0,0,0,0,0,0,0,0],"split_type":[0,0,0,0,0,0,0,0,0,0,0,0,0,0,0,0,0,0,0,0,0,0,0,0,0,0,0,0,0,0,0,0,0,0,0,0,0,0,0,0,0,0,0],"sum_hessian":[1.746E3,1.743E3,3E0,1.735E3,8E0,2E0,1E0,1.69E2,1.566E3,5E0,3E0,1E0,1E0,1.66E2,3E0,9.58E2,6.08E2,4E0,1E0,2E0,1E0,1.63E2,3E0,9.51E2,7E0,5.54E2,5.4E1,3E0,1E0,1.43E2,2E1,2E0,1E0,1.85E2,7.66E2,5E0,2E0,4.7E2,8.4E1,2.7E1,2.7E1,1E0,2E0],"tree_param":{"num_deleted":"0","num_feature":"5","num_nodes":"43","size_leaf_vector":"1"}},{"base_weights":[8.513304E-3,-4.530962E-2,1.5656583E-1,-2.8301328E-2,-4.171644E-1,2.9733617E0,1.0713025E-1,-4.030118E-2,5.0651807E-1,1.0138876E0,-6.767957E-1,3.9100316E0,-3.2571176E-1,-1.5985936E-1,4.216956E-1,-2.114815E-2,-5.956892E-1,1.552229E0,-9.2997307E-1,-1.061342E0,1.1619781E0,-1.343888E0,-3.0125305E-1,2.3121662E-1,-1.1453551E0,-3.69644E-1,7.7396506E-1,9.3808764E-1,-2.4359852E-1,-3.805092E-2,7.491117E-1,-9.20621E-1,4.7116828E-1,3.7585344E0,2.0767802E-1,-1.5138215E0,6.161792E-1,-6.2216365E-1,-3.660381E-2,-9.928103E-1,-5.963738E-1,-5.480847E-1,3.9043725E-1,-4.9401632E-1,2.6381323E-1,1.7200936E-2,-5.326108E-1,2.1215314E-1,-6.621025E-1,-1.0720122E0,1.6150805E0,3.5882463E0,4.9157515E-1,-7.323875E-1,8.603629E-1,1.6907329E-3,-8.5032105E-2,6.433481E-1,-9.723272E-2,-1.7234413E-1,-6.0759604E-1,-1.0088149E-1,2.1451867E-1,1.3613513E0,-2.0697214E-2,-3.0529666E-1,1.1443357E0,-5.479275E-1,-2.6953614E-1,6.913971E-1,-2.1445966E-1,-1.7777926E-1,1.03877984E-1,-3.7444344E-1,8.230581E-2,-3.0663902E-1,6.533752E-2,-3.890025E-2,4.421608E-1,-3.1556156E-2,-1.9075121E-1,1.8050726E-1,-3.3473888E-1,-2.6738244E-1,2.4060383E-2,-4.7969902E-1,9.458657E-1,1.4464624E0,1.5732294E-1,-3.893604E-2,1.5444728E0,1.8536378E-1,-8.3667666E-1,-9.597655E-1,-1.5545456E-1,4.8888505E-1,-1.6396897E-1],"categories":[],"categories_nodes":[],"categories_segments":[],"categories_sizes":[],"default_left":[1,1,0,1,0,0,0,1,0,0,0,0,0,0,0,1,0,0,0,0,0,0,0,0,0,0,0,0,0,0,0,0,0,0,0,0,0,0,0,0,0,0,0,0,0,0,0,0,0,0,0,0,0,0,0,0,0,0,0,0,0,0,0,0,0,0,0,0,0,0,0,0,0,0,0,0,0,0,0,0,0,0,0,0,0,0,0,0,0,0,0,0,0,0,0,0,0],"id":20,"left_children":[1,3,5,7,9,11,13,15,17,19,21,-1,23,25,27,29,31,33,35,37,-1,39,41,43,45,47,49,51,53,55,57,59,61,63,65,67,69,-1,71,73,-1,75,77,79,-1,-1,-1,81,83,85,87,89,91,93,95,-1,-1,-1,-1,-1,-1,-1,-1,-1,-1,-1,-1,-1,-1,-1,-1,-1,-1,-1,-1,-1,-1,-1,-1,-1,-1,-1,-1,-1,-1,-1,-1,-1,-1,-1,-1,-1,-1,-1,-1,-1,-1],"loss_changes":[1.3928273E1,8.09635E0,6.457193E1,7.8949976E0,2.149277E1,2.697566E2,3.8616837E1,1.27628765E1,4.2001705E1,5.7515545E1,1.1620186E1,0E0,3.4602036E0,4.906569E1,7.271811E1,1.5157189E1,1.4300001E1,4.6683285E1,1.1765409E1,6.149599E0,0E0,1.8701267E0,5.6773863E0,2.7847645E0,2.374931E0,3.485138E1,7.3154655E1,1.3905228E2,5.0813305E1,1.2201246E1,3.8133865E1,1.0690311E1,2.209752E0,1.8209885E1,5.249632E1,9.0335846E-2,1.0637277E1,0E0,1.056672E0,4.548587E0,0E0,8.936054E0,5.2625957E0,9.855044E-2,0E0,0E0,0E0,3.6364124E1,2.3207191E1,3.8438286E1,1.093817E2,9.927019E1,4.4400276E1,3.2688805E1,3.227691E1,0E0,0E0,0E0,0E0,0E0,0E0,0E0,0E0,0E0,0E0,0E0,0E0,0E0,0E0,0E0,0E0,0E0,0E0,0E0,0E0,0E0,0E0,0E0,0E0,0E0,0E0,0E0,0E0,0E0,0E0,0E0,0E0,0E0,0E0,0E0,0E0,0E0,0E0,0E0,0E0,0E0,0E0],"parents":[2147483647,0,0,1,1,2,2,3,3,4,4,5,5,6,6,7,7,8,8,9,9,10,10,12,12,13,13,14,14,15,15,16,16,17,17,18,18,19,19,21,21,22,22,23,23,24,24,25,25,26,26,27,27,28,28,29,29,30,30,31,31,32,32,33,33,34,34,35,35,36,36,38,38,39,39,41,41,42,42,43,43,47,47,48,48,49,49,50,50,51,51,52,52,53,53,54,54],"right_children":[2,4,6,8,10,12,14,16,18,20,22,-1,24,26,28,30,32,34,36,38,-1,40,42,44,46,48,50,52,54,56,58,60,62,64,66,68,70,-1,72,74,-1,76,78,80,-1,-1,-1,82,84,86,88,90,92,94,96,-1,-1,-1,-1,-1,-1,-1,-1,-1,-1,-1,-1,-1,-1,-1,-1,-1,-1,-1,-1,-1,-1,-1,-1,-1,-1,-1,-1,-1,-1,-1,-1,-1,-1,-1,-1,-1,-1,-1,-1,-1,-1],"split_conditions":[5.27E0,4.9E0,5.35E0,4.76E0,1.6039202E1,6.3807846E1,1.2768956E2,4.59E0,1.01954124E2,1.59134655E1,8.7393265E1,3.9100316E0,2.1288757E1,3.1796375E1,2.5053735E2,4.48E0,2.5135416E1,4.8E0,2.3850288E2,5.13E0,1.1619781E0,3.2777798E1,1E-1,1.70763E1,1.5808333E1,1.8448023E1,1.4487498E1,1.3697919E1,1.5568749E1,3E-1,2.1518751E1,2.3545835E1,1.757744E1,2.4597918E1,8.772246E1,1E-1,1.54800005E1,-6.2216365E-1,2.0177084E1,2.8337282E1,-5.963738E-1,2.5800003E1,5.17E0,1.1685417E1,2.6381323E-1,1.7200936E-2,-5.326108E-1,5E-1,2.5800003E1,3.5E1,1.5270832E1,1.1885418E1,2.4444008E2,2.5302304E2,2.1518751E1,1.6907329E-3,-8.5032105E-2,6.433481E-1,-9.723272E-2,-1.7234413E-1,-6.0759604E-1,-1.0088149E-1,2.1451867E-1,1.3613513E0,-2.0697214E-2,-3.0529666E-1,1.1443357E0,-5.479275E-1,-2.6953614E-1,6.913971E-1,-2.1445966E-1,-1.7777926E-1,1.03877984E-1,-3.7444344E-1,8.230581E-2,-3.0663902E-1,6.533752E-2,-3.890025E-2,4.421608E-1,-3.1556156E-2,-1.9075121E-1,1.8050726E-1,-3.3473888E-1,-2.6738244E-1,2.4060383E-2,-4.7969902E-1,9.458657E-1,1.4464624E0,1.5732294E-1,-3.893604E-2,1.5444728E0,1.8536378E-1,-8.3667666E-1,-9.597655E-1,-1.5545456E-1,4.8888505E-1,-1.6396897E-1],"split_indices":[0,0,0,0,3,4,4,0,4,3,4,0,3,3,4,0,1,0,4,0,0,3,2,3,1,3,1,1,1,2,1,1,3,1,4,2,3,0,1,3,0,1,0,1,0,0,0,2,1,2,1,1,4,4,1,0,0,0,0,0,0,0,0,0,0,0,0,0,0,0,0,0,0,0,0,0,0,0,0,0,0,0,0,0,0,0,0,0,0,0,0,0,0,0,0,0,0],"split_type":[0,0,0,0,0,0,0,0,0,0,0,0,0,0,0,0,0,0,0,0,0,0,0,0,0,0,0,0,0,0,0,0,0,0,0,0,0,0,0,0,0,0,0,0,0,0,0,0,0,0,0,0,0,0,0,0,0,0,0,0,0,0,0,0,0,0,0,0,0,0,0,0,0,0,0,0,0,0,0,0,0,0,0,0,0,0,0,0,0,0,0,0,0,0,0,0,0],"sum_hessian":[1.746E3,1.281E3,4.65E2,1.226E3,5.5E1,7E0,4.58E2,1.2E3,2.6E1,8E0,4.7E1,1E0,6E0,2.48E2,2.1E2,1.161E3,3.9E1,1.5E1,1.1E1,5E0,3E0,1.6E1,3.1E1,4E0,2E0,2.03E2,4.5E1,1.18E2,9.2E1,1.137E3,2.4E1,3E1,9E0,5E0,1E1,8E0,3E0,2E0,3E0,1.2E1,4E0,2.3E1,8E0,2E0,2E0,1E0,1E0,6.8E1,1.35E2,1.4E1,3.1E1,1.6E1,1.02E2,6.4E1,2.8E1,9.66E2,1.71E2,1E1,1.4E1,2.4E1,6E0,2E0,7E0,4E0,1E0,8E0,2E0,4E0,4E0,1E0,2E0,1E0,2E0,1E1,2E0,1.4E1,9E0,6E0,2E0,1E0,1E0,5.3E1,1.5E1,1.03E2,3.2E1,1.3E1,1E0,7E0,2.4E1,5E0,1.1E1,9.9E1,3E0,4E0,6E1,1.8E1,1E1],"tree_param":{"num_deleted":"0","num_feature":"5","num_nodes":"97","size_leaf_vector":"1"}},{"base_weights":[9.707163E-3,3.8466793E-3,1.1410042E0,1.1778753E-2,-9.0859824E-1,2.2071304E0,2.40086E-1,5.669158E-3,1.3223419E0,5.127556E-1,-1.4428099E0,-9.639016E-2,9.4711226E-1,1.3425696E0,-3.9297625E-1,1.76773E-3,1.6769891E0,1.8320327E0,-1.290265E0,-1.0177099E0,-1.9941105E-1,6.3255596E-1,5.208916E-1,1.1948698E-2,-8.2006603E-1,4.4934908E-1,8.039864E-1,3.5677874E-1,-2.024023E0,9.359228E-1,-1.8525591E0,2.43112E-1,4.1538194E-2,1.3293747E-3,1.9119762E0,7.399502E-2,-4.113126E-1,2.367475E-2,1.7853235E-1,-8.589745E-1,1.9993173E-1,-4.4938073E-1,5.1668453E-1,-6.5549105E-1,-1.2829886E-1],"categories":[],"categories_nodes":[],"categories_segments":[],"categories_sizes":[],"default_left":[1,1,0,1,0,0,0,0,0,0,0,0,0,0,0,0,0,0,0,0,0,0,0,0,0,0,0,0,0,0,0,0,0,0,0,0,0,0,0,0,0,0,0,0,0],"id":21,"left_children":[1,3,5,7,9,11,13,15,17,-1,19,-1,-1,21,-1,23,25,-1,27,-1,29,31,-1,33,35,37,-1,-1,39,41,43,-1,-1,-1,-1,-1,-1,-1,-1,-1,-1,-1,-1,-1,-1],"loss_changes":[1.1578128E1,1.2596854E1,8.114532E0,1.3804598E1,2.3442787E1,1.06214905E1,1.2011802E1,1.1199312E1,1.07878105E2,0E0,3.083651E1,0E0,0E0,1.9920826E-2,0E0,1.4359314E1,3.7208862E0,0E0,1.3323332E1,0E0,1.8625727E1,1.5137136E-1,0E0,8.102799E1,1.2680601E1,1.1501813E-1,0E0,0E0,1.31977005E1,1.4063185E1,9.601755E-1,0E0,0E0,0E0,0E0,0E0,0E0,0E0,0E0,0E0,0E0,0E0,0E0,0E0,0E0],"parents":[2147483647,0,0,1,1,2,2,3,3,4,4,5,5,6,6,7,7,8,8,10,10,13,13,15,15,16,16,18,18,20,20,21,21,23,23,24,24,25,25,28,28,29,29,30,30],"right_children":[2,4,6,8,10,12,14,16,18,-1,20,-1,-1,22,-1,24,26,-1,28,-1,30,32,-1,34,36,38,-1,-1,40,42,44,-1,-1,-1,-1,-1,-1,-1,-1,-1,-1,-1,-1,-1,-1],"split_conditions":[3.907E1,2.517E1,2.2380884E1,2.073E1,1.2287555E1,1.1019764E1,1E-1,3.6199997E1,1.7610588E1,5.127556E-1,1.642247E1,-9.639016E-2,9.4711226E-1,1.5808333E1,-3.9297625E-1,1.46E1,4.69E0,1.8320327E0,1.4408333E1,-1.0177099E0,1.4529166E1,1.3385415E1,5.208916E-1,1.4400001E1,5.0389313E1,4.19E0,8.039864E-1,3.5677874E-1,1.940625E1,1.2883332E1,1.770625E1,2.43112E-1,4.1538194E-2,1.3293747E-3,1.9119762E0,7.399502E-2,-4.113126E-1,2.367475E-2,1.7853235E-1,-8.589745E-1,1.9993173E-1,-4.4938073E-1,5.1668453E-1,-6.5549105E-1,-1.2829886E-1],"split_indices":[0,0,3,0,3,3,2,2,3,0,3,0,0,1,0,2,0,0,1,0,1,1,0,2,4,0,0,0,1,1,1,0,0,0,0,0,0,0,0,0,0,0,0,0,0],"split_type":[0,0,0,0,0,0,0,0,0,0,0,0,0,0,0,0,0,0,0,0,0,0,0,0,0,0,0,0,0,0,0,0,0,0,0,0,0,0,0,0,0,0,0,0,0],"sum_hessian":[1.746E3,1.738E3,8E0,1.724E3,1.4E1,3E0,5E0,1.717E3,7E0,2E0,1.2E1,1E0,2E0,3E0,2E0,1.714E3,3E0,2E0,5E0,4E0,8E0,2E0,1E0,1.694E3,2E1,2E0,1E0,1E0,4E0,5E0,3E0,1E0,1E0,1.693E3,1E0,7E0,1.3E1,1E0,1E0,3E0,1E0,1E0,4E0,2E0,1E0],"tree_param":{"num_deleted":"0","num_feature":"5","num_nodes":"45","size_leaf_vector":"1"}},{"base_weights":[9.172644E-3,3.2551266E-2,-2.2452423E-1,-1.8689062E-2,1.6982846E-1,-1.5603097E-1,-1.9450972E0,1.2766665E0,-2.4285326E-2,2.8939705E0,1.2466691E-1,-2.087202E-1,1.1858132E0,-6.5661335E-1,-1.09054044E-1,9.14106E-1,7.23232E-2,1.3556553E-1,-5.2997753E-2,3.3233273E0,-3.1628668E-1,-1.1679861E-1,4.6174693E-1,-4.236062E-1,2.70168E-1,3.267978E-1,-1.0366509E-1,7.5600344E-1,-7.697439E-2,-3.3339345E-1,1.0587498E-2,-9.7443813E-1,2.5639856E-1,3.4519115E-1,-4.3440777E-1,7.421549E-1,-4.6391112E-1,-3.2172793E-1,-1.6313988E0,8.8610065E-1,-2.4170925E-1,1.0796357E-2,1.3626266E-1,4.448383E-2,5.544707E-1,-4.856496E-2,5.1992726E-1,-7.517036E-2,-3.5156152E-1,-1.4191633E-2,7.1556084E-2,1.442138E-2,-4.5291856E-1,2.1078473E-1,-1.6233796E-1,3.0319276E-1,-5.3117674E-2,-1.639712E-1,4.7902924E-1,-2.7139597E-3,3.223081E-1,-3.4172648E-1,1.24008164E-1,-2.198953E-1,-4.7197934E-2,-7.212796E-1,1.3744022E-1,5.176811E-1,-3.308264E-2,-1.5631601E-2,-2.0565163E-1],"categories":[],"categories_nodes":[],"categories_segments":[],"categories_sizes":[],"default_left":[0,0,1,0,0,1,0,0,0,0,0,0,0,0,0,0,0,0,0,0,0,0,0,1,0,0,0,0,0,0,0,0,0,0,0,0,0,0,0,0,0,0,0,0,0,0,0,0,0,0,0,0,0,0,0,0,0,0,0,0,0,0,0,0,0,0,0,0,0,0,0],"id":22,"left_children":[1,3,5,7,9,11,13,15,17,19,21,23,-1,-1,-1,-1,25,27,29,-1,31,33,35,37,39,41,-1,43,45,47,49,51,53,55,57,59,61,63,65,67,69,-1,-1,-1,-1,-1,-1,-1,-1,-1,-1,-1,-1,-1,-1,-1,-1,-1,-1,-1,-1,-1,-1,-1,-1,-1,-1,-1,-1,-1,-1],"loss_changes":[9.552063E0,1.1180405E1,1.843428E1,8.425523E0,5.278666E1,3.4163918E1,1.5161514E0,1.0440195E1,5.303706E0,1.8740816E2,3.4727432E1,1.5859117E1,0E0,0E0,0E0,0E0,5.382778E-1,2.3266932E1,1.7458149E1,0E0,2.5113263E0,3.6686268E1,4.6546314E1,1.2518202E1,1.5347711E1,9.48112E-2,0E0,2.9595854E1,2.05677E1,1.2276354E1,1.05546465E1,1.7145925E0,1.8036814E0,3.562721E1,3.4590416E1,3.4198494E1,2.5348034E1,6.578189E0,1.4020918E1,1.8592424E1,2.2362094E0,0E0,0E0,0E0,0E0,0E0,0E0,0E0,0E0,0E0,0E0,0E0,0E0,0E0,0E0,0E0,0E0,0E0,0E0,0E0,0E0,0E0,0E0,0E0,0E0,0E0,0E0,0E0,0E0,0E0,0E0],"parents":[2147483647,0,0,1,1,2,2,3,3,4,4,5,5,6,6,7,7,8,8,9,9,10,10,11,11,16,16,17,17,18,18,20,20,21,21,22,22,23,23,24,24,25,25,27,27,28,28,29,29,30,30,31,31,32,32,33,33,34,34,35,35,36,36,37,37,38,38,39,39,40,40],"right_children":[2,4,6,8,10,12,14,16,18,20,22,24,-1,-1,-1,-1,26,28,30,-1,32,34,36,38,40,42,-1,44,46,48,50,52,54,56,58,60,62,64,66,68,70,-1,-1,-1,-1,-1,-1,-1,-1,-1,-1,-1,-1,-1,-1,-1,-1,-1,-1,-1,-1,-1,-1,-1,-1,-1,-1,-1,-1,-1,-1],"split_conditions":[2.997775E2,5.27E0,1.679E1,1.01887E1,5.35E0,1.44E1,2.073E1,1.77E0,1.6075521E1,1.3883334E1,1.2768956E2,1.5454166E1,1.1858132E0,-6.5661335E-1,-1.09054044E-1,9.14106E-1,1.7379168E1,1.5062501E1,1.8448023E1,3.3233273E0,1.7241667E1,6.137491E1,2.5294964E1,7.6E0,1.7241667E1,2.25E0,-1.0366509E-1,3.4E0,1.5978486E1,4.76E0,2.542083E1,1.5808333E1,2.6070831E1,8.47E0,2.073E1,6.7E0,1E-1,1.4869351E1,3.511836E2,2.1575987E1,2.69E0,1.0796357E-2,1.3626266E-1,4.448383E-2,5.544707E-1,-4.856496E-2,5.1992726E-1,-7.517036E-2,-3.5156152E-1,-1.4191633E-2,7.1556084E-2,1.442138E-2,-4.5291856E-1,2.1078473E-1,-1.6233796E-1,3.0319276E-1,-5.3117674E-2,-1.639712E-1,4.7902924E-1,-2.7139597E-3,3.223081E-1,-3.4172648E-1,1.24008164E-1,-2.198953E-1,-4.7197934E-2,-7.212796E-1,1.3744022E-1,5.176811E-1,-3.308264E-2,-1.5631601E-2,-2.0565163E-1],"split_indices":[4,0,0,3,0,0,0,0,3,1,4,1,0,0,0,0,1,1,3,0,1,4,3,0,1,0,0,0,3,0,1,1,1,0,0,0,2,3,4,3,0,0,0,0,0,0,0,0,0,0,0,0,0,0,0,0,0,0,0,0,0,0,0,0,0,0,0,0,0,0,0],"split_type":[0,0,0,0,0,0,0,0,0,0,0,0,0,0,0,0,0,0,0,0,0,0,0,0,0,0,0,0,0,0,0,0,0,0,0,0,0,0,0,0,0,0,0,0,0,0,0,0,0,0,0,0,0,0,0,0,0,0,0,0,0,0,0,0,0,0,0,0,0,0,0],"sum_hessian":[1.746E3,1.588E3,1.58E2,1.157E3,4.31E2,1.53E2,5E0,4E0,1.153E3,6E0,4.25E2,1.52E2,1E0,4E0,1E0,1E0,3E0,1.75E2,9.78E2,1E0,5E0,2.48E2,1.77E2,1.05E2,4.7E1,2E0,1E0,4.4E1,1.31E2,1.8E2,7.98E2,2E0,3E0,1.01E2,1.47E2,1.36E2,4.1E1,9.8E1,7E0,2.1E1,2.6E1,1E0,1E0,2.9E1,1.5E1,1.26E2,5E0,1.65E2,1.5E1,6.37E2,1.61E2,1E0,1E0,2E0,1E0,4.4E1,5.7E1,1.4E2,7E0,4.2E1,9.4E1,2.3E1,1.8E1,2.7E1,7.1E1,5E0,2E0,1.1E1,1E1,1.9E1,7E0],"tree_param":{"num_deleted":"0","num_feature":"5","num_nodes":"71","size_leaf_vector":"1"}},{"base_weights":[9.335136E-3,6.239408E-3,1.3567387E0,-2.3277487E-1,2.309855E-2,3.9140782E-1,6.379097E-1,-4.345686E-1,-7.637393E-2,-2.3566344E-1,4.0888138E-2,2.225225E-2,1.5388127E-1,-5.7032967E-1,-2.97797E-1,-5.1298237E-1,-2.4163377E-2,1.9250523E-1,-6.284078E-1,1.9560711E-1,3.0262133E-3,-7.7062196E-1,-3.7221935E-1,-2.2551699E-1,-1.3230741E-1,-6.816582E-1,7.486092E-2,-1.3953343E-1,1.674986E-1,-1.499992E-1,6.1598885E-1,-4.305275E-1,-1.7371385E0,-3.9313045E-1,3.6986265E-1,-5.8836687E-1,2.3966756E-2,-2.6348212E-1,-1.0879886E-1,7.012499E-3,-1.320299E-1,3.54073E-1,-9.977662E-2,-5.937433E-2,-2.2164723E-1,8.274976E-2,-5.1081404E-2,1.12079315E-1,9.8017715E-3,-1.8400483E-2,-2.6939335E-1,7.567702E-1,6.116211E-2,-1.7984483E-1,3.427152E-1,-1.0562411E-1,-5.6541204E-1,2.1078754E-2,-2.2541647E-1,-2.390585E-2,2.7149513E-1,-1.2982963E-1,-1.0452042E0,1.5896633E-2,-8.354502E-2],"categories":[],"categories_nodes":[],"categories_segments":[],"categories_sizes":[],"default_left":[0,0,0,0,0,0,0,0,0,0,0,0,0,0,0,0,0,0,0,0,0,0,0,0,0,0,0,0,0,0,0,0,0,0,0,0,0,0,0,0,0,0,0,0,0,0,0,0,0,0,0,0,0,0,0,0,0,0,0,0,0,0,0,0,0],"id":23,"left_children":[1,3,5,7,9,11,-1,13,15,17,19,-1,-1,21,23,25,27,29,31,33,35,37,39,-1,41,43,-1,45,47,49,51,53,55,57,59,61,63,-1,-1,-1,-1,-1,-1,-1,-1,-1,-1,-1,-1,-1,-1,-1,-1,-1,-1,-1,-1,-1,-1,-1,-1,-1,-1,-1,-1],"loss_changes":[7.278612E0,7.032957E0,2.139503E0,3.5962934E0,7.5129647E0,7.7613235E-2,0E0,7.585707E-1,1.4921119E0,1.7777855E1,8.938653E0,0E0,0E0,6.654792E-1,1.9287837E0,1.0704279E0,1.3500949E0,7.489694E0,1.1318892E1,3.092264E1,1.5209381E1,1.6457558E-1,3.8623023E-1,0E0,5.9130015E0,1.9697905E-2,0E0,5.3213054E-1,6.2690663E-1,1.8681724E0,1.7557499E1,1.3440915E1,9.715576E-1,1.1507771E1,5.5882736E1,1.7416048E1,1.0425125E1,0E0,0E0,0E0,0E0,0E0,0E0,0E0,0E0,0E0,0E0,0E0,0E0,0E0,0E0,0E0,0E0,0E0,0E0,0E0,0E0,0E0,0E0,0E0,0E0,0E0,0E0,0E0,0E0],"parents":[2147483647,0,0,1,1,2,2,3,3,4,4,5,5,7,7,8,8,9,9,10,10,13,13,14,14,15,15,16,16,17,17,18,18,19,19,20,20,21,21,22,22,24,24,25,25,27,27,28,28,29,29,30,30,31,31,32,32,33,33,34,34,35,35,36,36],"right_children":[2,4,6,8,10,12,-1,14,16,18,20,-1,-1,22,24,26,28,30,32,34,36,38,40,-1,42,44,-1,46,48,50,52,54,56,58,60,62,64,-1,-1,-1,-1,-1,-1,-1,-1,-1,-1,-1,-1,-1,-1,-1,-1,-1,-1,-1,-1,-1,-1,-1,-1,-1,-1,-1,-1],"split_conditions":[3.6199997E1,1.23E0,4.69E0,2.27057E1,3.4056774E1,4.19E0,6.379097E-1,2.6096277E2,5.916089E1,3.72E0,7.125045E1,2.225225E-2,1.5388127E-1,1.7097918E1,1.54800005E1,1E-1,1.675625E1,2.41E0,3.0431734E1,1.3495833E1,7.37018E1,2.4748407E2,1.5072783E1,-2.2551699E-1,1.59134655E1,1.0508333E1,7.486092E-2,2.3795427E1,1.8833334E1,3.0431734E1,2.74E0,2.9420347E1,4.19E0,4E0,4.33E0,1.31E1,1E0,-2.6348212E-1,-1.0879886E-1,7.012499E-3,-1.320299E-1,3.54073E-1,-9.977662E-2,-5.937433E-2,-2.2164723E-1,8.274976E-2,-5.1081404E-2,1.12079315E-1,9.8017715E-3,-1.8400483E-2,-2.6939335E-1,7.567702E-1,6.116211E-2,-1.7984483E-1,3.427152E-1,-1.0562411E-1,-5.6541204E-1,2.1078754E-2,-2.2541647E-1,-2.390585E-2,2.7149513E-1,-1.2982963E-1,-1.0452042E0,1.5896633E-2,-8.354502E-2],"split_indices":[2,0,0,3,4,0,0,4,4,0,4,0,0,1,3,2,1,0,4,1,4,4,3,0,3,1,0,3,1,4,0,4,0,0,0,0,2,0,0,0,0,0,0,0,0,0,0,0,0,0,0,0,0,0,0,0,0,0,0,0,0,0,0,0,0],"split_type":[0,0,0,0,0,0,0,0,0,0,0,0,0,0,0,0,0,0,0,0,0,0,0,0,0,0,0,0,0,0,0,0,0,0,0,0,0,0,0,0,0,0,0,0,0,0,0,0,0,0,0,0,0,0,0,0,0,0,0,0,0,0,0,0,0],"sum_hessian":[1.746E3,1.743E3,3E0,1.14E2,1.629E3,2E0,1E0,4.9E1,6.5E1,1.04E2,1.525E3,1E0,1E0,2.3E1,2.6E1,6E0,5.9E1,5E1,5.4E1,2.99E2,1.226E3,1E1,1.3E1,6E0,2E1,5E0,1E0,3.7E1,2.2E1,2.8E1,2.2E1,4.7E1,7E0,6.8E1,2.31E2,4.1E1,1.185E3,7E0,3E0,2E0,1.1E1,2E0,1.8E1,1E0,4E0,2E0,3.5E1,8E0,1.4E1,2.6E1,2E0,3E0,1.9E1,4.3E1,4E0,1E0,6E0,3E1,3.8E1,1.26E2,1.05E2,4E1,1E0,1.082E3,1.03E2],"tree_param":{"num_deleted":"0","num_feature":"5","num_nodes":"65","size_leaf_vector":"1"}},{"base_weights":[6.028253E-3,3.8944134E-3,5.597569E-1,-1.8905131E-3,6.295078E-1,-4.563305E-3,1.1532282E0,3.116416E-1,8.09625E-1,9.0548274E-4,-7.260923E-1,3.3269677E-1,5.422234E-1,-2.9237157E-1,1.5781423E0,-3.207371E-3,1.7620088E0,-3.578891E-1,-5.5024195E-1,1.8914439E-2,1.3079911E-1,-5.0910985E-1,6.9536306E-2,5.6401646E-1,5.55738E-2,3.646436E-4,-5.6795216E-1,1.1637247E-1,6.272219E-1,1.22919135E-1,-1.4268723E-1,-2.9339148E-2,-1.6840874E-1,-1.298089E-2,7.811401E-2],"categories":[],"categories_nodes":[],"categories_segments":[],"categories_sizes":[],"default_left":[1,0,0,0,0,0,0,0,0,0,0,0,0,0,0,0,0,0,0,0,0,0,0,0,0,0,0,0,0,0,0,0,0,0,0],"id":24,"left_children":[1,3,-1,5,7,9,11,13,-1,15,17,19,-1,21,23,25,27,29,-1,-1,-1,31,33,-1,-1,-1,-1,-1,-1,-1,-1,-1,-1,-1,-1],"loss_changes":[6.9258337E0,6.320186E0,0E0,5.349538E0,9.682831E0,6.819153E0,1.5457911E0,1.1936151E1,0E0,1.2434916E1,4.6474085E0,5.6075543E-2,0E0,8.9823383E-1,1.7543917E0,1.4321332E1,9.95821E-1,1.1890101E0,0E0,0E0,0E0,9.554529E-2,1.1890806E-1,0E0,0E0,0E0,0E0,0E0,0E0,0E0,0E0,0E0,0E0,0E0,0E0],"parents":[2147483647,0,0,1,1,3,3,4,4,5,5,6,6,7,7,9,9,10,10,11,11,13,13,14,14,15,15,16,16,17,17,21,21,22,22],"right_children":[2,4,-1,6,8,10,12,14,-1,16,18,20,-1,22,24,26,28,30,-1,-1,-1,32,34,-1,-1,-1,-1,-1,-1,-1,-1,-1,-1,-1,-1],"split_conditions":[1.6758E2,2.93125E1,5.597569E-1,3.6199997E1,9.65E0,1.76E1,4.69E0,1.765774E2,8.09625E-1,1.6900002E1,1.31E1,4.19E0,5.422234E-1,2.6987997E1,1E-1,1.5500003E1,1.63E0,2.0929594E1,-5.5024195E-1,1.8914439E-2,1.3079911E-1,6.82192E1,4.09E0,5.6401646E-1,5.55738E-2,3.646436E-4,-5.6795216E-1,1.1637247E-1,6.272219E-1,1.22919135E-1,-1.4268723E-1,-2.9339148E-2,-1.6840874E-1,-1.298089E-2,7.811401E-2],"split_indices":[0,1,0,2,0,2,0,4,0,2,0,0,0,3,2,2,0,3,0,0,0,4,0,0,0,0,0,0,0,0,0,0,0,0,0],"split_type":[0,0,0,0,0,0,0,0,0,0,0,0,0,0,0,0,0,0,0,0,0,0,0,0,0,0,0,0,0,0,0,0,0,0,0],"sum_hessian":[1.746E3,1.745E3,1E0,1.73E3,1.5E1,1.727E3,3E0,1.4E1,1E0,1.715E3,1.2E1,2E0,1E0,1E1,4E0,1.712E3,3E0,1E1,2E0,1E0,1E0,6E0,4E0,3E0,1E0,1.709E3,3E0,1E0,2E0,1E0,9E0,1E0,5E0,3E0,1E0],"tree_param":{"num_deleted":"0","num_feature":"5","num_nodes":"35","size_leaf_vector":"1"}},{"base_weights":[5.4529402E-3,3.2919966E-2,-1.0427379E-1,-3.3722345E-2,2.2373532E-1,-1.2844211E-1,1.5890287E0,1.3220754E-2,-7.1354365E-1,1.083004E-1,2.423808E0,-2.688714E-2,-4.9503556E-1,9.009232E-1,-3.5469604E-1,-2.0578545E-2,1.2930094E0,-1.6829617E-2,-2.2388778E0,8.3737844E-1,1.2642163E-2,-8.9207095E-1,4.156087E0,-5.952662E-2,1.2172542E0,-8.885108E-1,1.2479433E-1,-1.7231977E-1,1.27065545E-2,-8.0149665E-2,4.0270504E-1,-1.3149061E0,1.8523698E0,-3.700807E-1,3.0244956E0,-2.8660893E0,3.414175E-1,-5.373022E-1,1.0957721E0,8.539568E-1,-1.0269593E-1,6.3503075E-1,-6.5884656E-1,2.370075E0,7.1355915E0,-2.9549835E-2,-9.12247E-1,8.2499653E-1,5.4162763E-2,5.7597977E-1,-1.2603053E0,-1.0066816E-1,1.6154675E0,-8.685092E-3,-1.0387402E-1,-1.7608754E-1,1.7304525E-1,-5.131866E-1,-1.4426652E-1,6.881404E-1,-1.7914939E-1,7.392534E-2,-7.287503E-1,1.4506416E0,6.1606217E-2,-4.6497682E-1,-1.1591406E0,4.3899652E-1,-6.219299E-1,3.7351646E-2,-4.3836427E-1,1.9395275E-1,1.0716587E0,1.04608774E-1,1.0219067E0,-3.7241264E-3,-6.128185E-1,3.4249038E-1,-1.3271713E-1,-2.4785732E-1,1.0203964E0,2.4757218E0,5.677723E-1,-1.5537364E-2,8.529727E-1,-3.8600308E-1,-1.531758E-1,-2.8077444E-1,1.6069826E-1,-7.1765296E-2,2.8785723E-1,-1.5836114E-1,-4.3324617E-1,-1.8593751E-1,1.5181927E-1,-2.4147607E-2,1.005502E0],"categories":[],"categories_nodes":[],"categories_segments":[],"categories_sizes":[],"default_left":[0,0,0,0,0,1,0,0,0,0,0,1,0,0,0,0,0,0,0,0,0,0,0,1,0,0,0,0,0,0,0,0,0,0,0,0,0,0,0,0,0,0,0,0,0,1,0,0,0,0,0,0,0,0,0,0,0,0,0,0,0,0,0,0,0,0,0,0,0,0,0,0,0,0,0,0,0,0,0,0,0,0,0,0,0,0,0,0,0,0,0,0,0,0,0,0,0],"id":25,"left_children":[1,3,5,7,9,11,13,15,17,19,21,23,25,-1,27,29,31,33,35,37,39,41,43,45,47,49,51,-1,-1,53,55,57,59,61,63,65,67,69,71,73,75,77,-1,79,81,83,85,-1,87,89,91,93,95,-1,-1,-1,-1,-1,-1,-1,-1,-1,-1,-1,-1,-1,-1,-1,-1,-1,-1,-1,-1,-1,-1,-1,-1,-1,-1,-1,-1,-1,-1,-1,-1,-1,-1,-1,-1,-1,-1,-1,-1,-1,-1,-1,-1],"loss_changes":[5.268658E0,1.7785038E1,1.4527595E1,3.310313E1,9.1672905E1,1.2868059E1,1.4807785E1,4.202814E1,7.116467E1,2.4050516E1,1.0710001E2,1.111787E1,1.8402462E1,0E0,2.8602904E-1,2.3911337E1,3.8904808E1,5.1613827E1,3.4964745E1,1.4797115E1,2.97806E1,1.5334909E1,4.6945282E1,6.772486E0,1.2330023E1,2.5772427E1,1.0245353E1,0E0,0E0,1.1311522E1,2.0499147E1,8.2755184E-1,2.4077118E1,5.5183815E1,2.4534008E1,1.6335052E1,1.6577894E1,4.462094E0,3.5517765E1,4.6528427E1,4.7265232E1,2.6883512E0,0E0,3.247538E1,7.803604E0,1.6632128E1,6.9658566E-1,0E0,2.884935E0,3.3561785E0,4.219982E0,8.81782E0,1.2047922E1,0E0,0E0,0E0,0E0,0E0,0E0,0E0,0E0,0E0,0E0,0E0,0E0,0E0,0E0,0E0,0E0,0E0,0E0,0E0,0E0,0E0,0E0,0E0,0E0,0E0,0E0,0E0,0E0,0E0,0E0,0E0,0E0,0E0,0E0,0E0,0E0,0E0,0E0,0E0,0E0,0E0,0E0,0E0,0E0],"parents":[2147483647,0,0,1,1,2,2,3,3,4,4,5,5,6,6,7,7,8,8,9,9,10,10,11,11,12,12,14,14,15,15,16,16,17,17,18,18,19,19,20,20,21,21,22,22,23,23,24,24,25,25,26,26,29,29,30,30,31,31,32,32,33,33,34,34,35,35,36,36,37,37,38,38,39,39,40,40,41,41,43,43,44,44,45,45,46,46,48,48,49,49,50,50,51,51,52,52],"right_children":[2,4,6,8,10,12,14,16,18,20,22,24,26,-1,28,30,32,34,36,38,40,42,44,46,48,50,52,-1,-1,54,56,58,60,62,64,66,68,70,72,74,76,78,-1,80,82,84,86,-1,88,90,92,94,96,-1,-1,-1,-1,-1,-1,-1,-1,-1,-1,-1,-1,-1,-1,-1,-1,-1,-1,-1,-1,-1,-1,-1,-1,-1,-1,-1,-1,-1,-1,-1,-1,-1,-1,-1,-1,-1,-1,-1,-1,-1,-1,-1,-1],"split_conditions":[2.6446732E2,1.7752124E2,8.700001E0,1.207E1,1.31E1,4.69E0,1.2900001E1,1.042E1,7.175596E1,1.895988E2,1.3891522E1,4.38E0,2.0833395E1,9.009232E-1,5.63E0,3.1487139E1,4.3928158E1,6.894404E1,2.6785418E1,1.54800005E1,1.3002082E1,1.2287555E1,1.679E1,4.2E0,4.53E0,1.2287555E1,3.3479886E2,-1.7231977E-1,1.27065545E-2,5E-1,1.2506248E1,1.13E1,3.2777798E1,6.0599777E1,7.0116425E1,1.8754164E1,2.3166216E1,3.13E0,4.95E0,5.63E0,1.042E1,3.907E1,-6.5884656E-1,1.5483335E1,2.073E1,4.13E0,4.23E0,8.2499653E-1,1.158125E1,1.1019764E1,5.8E0,2.7691935E1,1E-1,-8.685092E-3,-1.0387402E-1,-1.7608754E-1,1.7304525E-1,-5.131866E-1,-1.4426652E-1,6.881404E-1,-1.7914939E-1,7.392534E-2,-7.287503E-1,1.4506416E0,6.1606217E-2,-4.6497682E-1,-1.1591406E0,4.3899652E-1,-6.219299E-1,3.7351646E-2,-4.3836427E-1,1.9395275E-1,1.0716587E0,1.04608774E-1,1.0219067E0,-3.7241264E-3,-6.128185E-1,3.4249038E-1,-1.3271713E-1,-2.4785732E-1,1.0203964E0,2.4757218E0,5.677723E-1,-1.5537364E-2,8.529727E-1,-3.8600308E-1,-1.531758E-1,-2.8077444E-1,1.6069826E-1,-7.1765296E-2,2.8785723E-1,-1.5836114E-1,-4.3324617E-1,-1.8593751E-1,1.5181927E-1,-2.4147607E-2,1.005502E0],"split_indices":[4,4,2,0,0,0,2,0,4,4,3,0,3,0,0,3,4,4,1,3,1,3,0,0,0,3,4,0,0,2,1,0,3,4,4,1,3,0,0,0,0,0,0,1,0,0,0,0,1,3,0,3,2,0,0,0,0,0,0,0,0,0,0,0,0,0,0,0,0,0,0,0,0,0,0,0,0,0,0,0,0,0,0,0,0,0,0,0,0,0,0,0,0,0,0,0,0],"split_type":[0,0,0,0,0,0,0,0,0,0,0,0,0,0,0,0,0,0,0,0,0,0,0,0,0,0,0,0,0,0,0,0,0,0,0,0,0,0,0,0,0,0,0,0,0,0,0,0,0,0,0,0,0,0,0,0,0,0,0,0,0,0,0,0,0,0,0,0,0,0,0,0,0,0,0,0,0,0,0,0,0,0,0,0,0,0,0,0,0,0,0,0,0,0,0,0,0],"sum_hessian":[1.746E3,1.397E3,3.49E2,1.036E3,3.61E2,3.45E2,4E0,9.7E2,6.6E1,3.44E2,1.7E1,2.71E2,7.4E1,2E0,2E0,9.46E2,2.4E1,4.6E1,2E1,3.9E1,3.05E2,6E0,1.1E1,2.65E2,6E0,4.5E1,2.9E1,1E0,1E0,8.3E2,1.16E2,4E0,2E1,4.2E1,4E0,1.6E1,4E0,6E0,3.3E1,3.6E1,2.69E2,3E0,3E0,8E0,3E0,2.57E2,8E0,2E0,4E0,9E0,3.6E1,2.6E1,3E0,6.97E2,1.33E2,1.7E1,9.9E1,2E0,2E0,1.7E1,3E0,3.3E1,9E0,2E0,2E0,8E0,8E0,3E0,1E0,4E0,2E0,2.9E1,4E0,3.1E1,5E0,2.58E2,1.1E1,2E0,1E0,2E0,6E0,2E0,1E0,2.56E2,1E0,3E0,5E0,1E0,3E0,3E0,6E0,8E0,2.8E1,1.4E1,1.2E1,2E0,1E0],"tree_param":{"num_deleted":"0","num_feature":"5","num_nodes":"97","size_leaf_vector":"1"}},{"base_weights":[7.162258E-3,6.438362E-2,-4.915793E-2,1.880469E-2,1.3808092E0,-2.9785278E-1,2.2813047E-3,1.4629504E-1,-1.3191457E-1,3.6776105E-1,4.5121374E0,-2.5365107E-2,-1.234785E0,3.1715706E-1,-6.131804E-2,1.05566084E-1,1.257198E0,-2.8945026E-1,4.360341E-1,-1.7827836E-1,1.9445857E0,-1.3821702E0,7.1462946E0,2.9425362E-1,-2.1938507E-1,2.9796744E-2,-1.6912261E0,-6.415671E-3,7.446383E-1,-2.0843413E-2,-1.2522537E0,-3.045482E-1,1.8931748E-1,5.1260114E0,-4.595742E-1,-3.5862703E-2,-7.014938E-1,-1.9064782E-2,1.451988E0,-7.5895536E-1,2.6023933E-1,1.1675899E-1,1.0110729E0,-3.627162E-2,-5.85705E-1,3.2899895E0,1.0348659E0,8.5037604E-2,1.4178494E0,-7.8655444E-2,-8.7368137E-1,-5.135868E-1,4.1354215E-1,-2.096279E0,-5.9179187E-2,-3.4682074E-1,3.5362443E-1,-3.2333583E-1,1.3031204E0,-7.431533E-2,1.0550685E0,1.0367241E0,-1.5641803E0,1.020283E-1,-1.588018E-1,1.3824709E-1,-3.024719E-3,2.794733E-2,2.5350585E0,-3.6927447E-1,4.1725075E-1,3.399101E-1,-2.619855E-2,-2.6054683E-1,1.3175683E-2,-5.1534835E-2,6.37126E-1,6.3593395E-2,1.264654E0,-1.3388918E-1,-4.4213435E-1,1.9831282E-1,-5.5181164E-2,8.446571E-2,-1.8038857E-1,7.994731E-1,2.2975628E-1,-1.8068083E-1,1.7717188E-2,-4.813722E-1,-6.489052E-2,-1.2998414E-2,2.9863858E-1,-3.195482E-1,-9.714551E-1,-1.3651505E-1,2.8802633E-1,-1.2835205E-1,1.2856479E-1,3.050684E-2,2.6821688E-1,4.1822128E-2,-4.04754E-1,6.911595E-1,1.3121065E-1,-1.0144542E-2,-1.5863016E-1,1.0965933E0,1.4081705E-1,-1.4042902E-1,6.069549E-1,-1.2568423E-1,-7.315416E-1],"categories":[],"categories_nodes":[],"categories_segments":[],"categories_sizes":[],"default_left":[0,0,0,0,0,0,0,0,0,0,0,0,0,0,0,0,0,1,0,0,0,0,0,0,0,0,0,0,0,0,0,0,0,0,0,0,0,0,0,0,0,0,0,0,0,0,0,0,0,0,0,0,0,0,0,0,0,0,0,0,0,0,0,0,0,0,0,0,0,0,0,0,0,0,0,0,0,0,0,0,0,0,0,0,0,0,0,0,0,0,0,0,0,0,0,0,0,0,0,0,0,0,0,0,0,0,0,0,0,0,0,0,0],"id":26,"left_children":[1,3,5,7,9,11,13,15,17,19,21,23,25,27,29,31,33,35,37,39,41,43,45,47,49,51,53,55,57,59,61,63,65,67,69,71,73,75,77,79,81,-1,-1,-1,-1,-1,-1,83,85,87,89,-1,91,93,95,97,99,101,103,105,107,109,111,-1,-1,-1,-1,-1,-1,-1,-1,-1,-1,-1,-1,-1,-1,-1,-1,-1,-1,-1,-1,-1,-1,-1,-1,-1,-1,-1,-1,-1,-1,-1,-1,-1,-1,-1,-1,-1,-1,-1,-1,-1,-1,-1,-1,-1,-1,-1,-1,-1,-1],"loss_changes":[5.633253E0,5.1995136E1,1.1271025E1,1.6140894E1,9.0334E1,3.851935E1,1.4658375E1,2.0454174E1,3.4573E1,2.0149872E1,1.1856311E2,7.3820195E0,1.9675442E1,1.7018297E1,2.9329329E1,1.5170619E1,1.0862573E2,3.1530554E1,3.886588E1,4.780979E0,1.1993017E1,1.9213929E0,3.278401E1,1.045777E1,6.7451167E0,7.391863E0,1.6402573E1,8.824368E0,3.2032898E1,3.402174E1,1.5901487E1,1.1048268E1,1.9819258E1,8.286342E1,1.8839556E1,1.1408683E1,1.435342E1,1.9672388E1,8.820318E1,1.1302238E0,2.0798922E0,0E0,0E0,0E0,0E0,0E0,0E0,5.4294033E0,3.650611E0,4.506284E0,5.899089E0,0E0,2.4358878E0,2.0099594E1,2.857877E0,2.5076914E0,4.674462E0,9.207425E0,2.931622E1,1.0344353E1,4.092559E1,5.4003763E0,1.7001217E1,0E0,0E0,0E0,0E0,0E0,0E0,0E0,0E0,0E0,0E0,0E0,0E0,0E0,0E0,0E0,0E0,0E0,0E0,0E0,0E0,0E0,0E0,0E0,0E0,0E0,0E0,0E0,0E0,0E0,0E0,0E0,0E0,0E0,0E0,0E0,0E0,0E0,0E0,0E0,0E0,0E0,0E0,0E0,0E0,0E0,0E0,0E0,0E0,0E0,0E0],"parents":[2147483647,0,0,1,1,2,2,3,3,4,4,5,5,6,6,7,7,8,8,9,9,10,10,11,11,12,12,13,13,14,14,15,15,16,16,17,17,18,18,19,19,20,20,21,21,22,22,23,23,24,24,25,25,26,26,27,27,28,28,29,29,30,30,31,31,32,32,33,33,34,34,35,35,36,36,37,37,38,38,39,39,40,40,47,47,48,48,49,49,50,50,52,52,53,53,54,54,55,55,56,56,57,57,58,58,59,59,60,60,61,61,62,62],"right_children":[2,4,6,8,10,12,14,16,18,20,22,24,26,28,30,32,34,36,38,40,42,44,46,48,50,52,54,56,58,60,62,64,66,68,70,72,74,76,78,80,82,-1,-1,-1,-1,-1,-1,84,86,88,90,-1,92,94,96,98,100,102,104,106,108,110,112,-1,-1,-1,-1,-1,-1,-1,-1,-1,-1,-1,-1,-1,-1,-1,-1,-1,-1,-1,-1,-1,-1,-1,-1,-1,-1,-1,-1,-1,-1,-1,-1,-1,-1,-1,-1,-1,-1,-1,-1,-1,-1,-1,-1,-1,-1,-1,-1,-1,-1],"split_conditions":[1.9122915E1,1.8754164E1,2.0922916E1,2.2505037E1,1E-1,4.44E0,2.2545835E1,1.877E1,1.3E0,3.3353954E1,2.2226902E1,9.761071E1,7.0640915E1,3.43E0,1.13E1,4.256865E1,2.517E1,3.47E0,6E0,1.944E1,2.52E0,3.2E0,3E-1,8.772246E1,3.43E0,4.57E0,2.3318887E2,2.1708334E1,1.6870138E1,8.74E0,1.678156E1,1.13E1,2.3579758E2,1.1885418E1,3.907E1,3.1859625E1,2.5859238E2,1.835E1,1.4945835E1,3.23E0,2.5183534E2,1.1675899E-1,1.0110729E0,-3.627162E-2,-5.85705E-1,3.2899895E0,1.0348659E0,3.0827856E1,2.04E0,1.692383E1,2.1819385E2,-5.135868E-1,2.4122683E1,6.85E0,1.9983335E1,1.2E0,2.25E0,7.95E0,2.1518751E1,7.0000005E-1,8.98E0,1.183E1,2.5135416E1,1.020283E-1,-1.588018E-1,1.3824709E-1,-3.024719E-3,2.794733E-2,2.5350585E0,-3.6927447E-1,4.1725075E-1,3.399101E-1,-2.619855E-2,-2.6054683E-1,1.3175683E-2,-5.1534835E-2,6.37126E-1,6.3593395E-2,1.264654E0,-1.3388918E-1,-4.4213435E-1,1.9831282E-1,-5.5181164E-2,8.446571E-2,-1.8038857E-1,7.994731E-1,2.2975628E-1,-1.8068083E-1,1.7717188E-2,-4.813722E-1,-6.489052E-2,-1.2998414E-2,2.9863858E-1,-3.195482E-1,-9.714551E-1,-1.3651505E-1,2.8802633E-1,-1.2835205E-1,1.2856479E-1,3.050684E-2,2.6821688E-1,4.1822128E-2,-4.04754E-1,6.911595E-1,1.3121065E-1,-1.0144542E-2,-1.5863016E-1,1.0965933E0,1.4081705E-1,-1.4042902E-1,6.069549E-1,-1.2568423E-1,-7.315416E-1],"split_indices":[1,1,1,3,2,0,1,0,2,3,3,4,4,0,0,4,0,0,0,3,0,0,2,4,0,0,4,1,3,0,3,1,4,1,0,4,4,1,1,0,4,0,0,0,0,0,0,3,0,3,4,0,3,0,1,2,0,0,1,2,0,0,1,0,0,0,0,0,0,0,0,0,0,0,0,0,0,0,0,0,0,0,0,0,0,0,0,0,0,0,0,0,0,0,0,0,0,0,0,0,0,0,0,0,0,0,0,0,0,0,0,0,0],"split_type":[0,0,0,0,0,0,0,0,0,0,0,0,0,0,0,0,0,0,0,0,0,0,0,0,0,0,0,0,0,0,0,0,0,0,0,0,0,0,0,0,0,0,0,0,0,0,0,0,0,0,0,0,0,0,0,0,0,0,0,0,0,0,0,0,0,0,0,0,0,0,0,0,0,0,0,0,0,0,0,0,0,0,0,0,0,0,0,0,0,0,0,0,0,0,0,0,0,0,0,0,0,0,0,0,0,0,0,0,0,0,0,0,0],"sum_hessian":[1.746E3,8.66E2,8.8E2,8.38E2,2.8E1,1.5E2,7.3E2,4.54E2,3.84E2,2.2E1,6E0,1.17E2,3.3E1,1.22E2,6.08E2,4.39E2,1.5E1,3.01E2,8.3E1,1.7E1,5E0,2E0,4E0,4.4E1,7.3E1,9E0,2.4E1,7E1,5.2E1,5.89E2,1.9E1,7.4E1,3.65E2,4E0,1.1E1,1.87E2,1.14E2,5.8E1,2.5E1,7E0,1E1,3E0,2E0,1E0,1E0,1E0,3E0,3.8E1,6E0,6.1E1,1.2E1,1E0,8E0,1.9E1,5E0,3.6E1,3.4E1,1.8E1,3.4E1,5.62E2,2.7E1,2E0,1.7E1,1.9E1,5.5E1,1.54E2,2.11E2,2E0,2E0,8E0,3E0,7E0,1.8E2,9.3E1,2.1E1,5.5E1,3E0,1.8E1,7E0,6E0,1E0,5E0,5E0,3E1,8E0,1E0,5E0,1.2E1,4.9E1,5E0,7E0,5E0,3E0,1.1E1,8E0,4E0,1E0,3.3E1,3E0,2.4E1,1E1,1.3E1,5E0,1.5E1,1.9E1,5.17E2,4.5E1,4E0,2.3E1,1E0,1E0,8E0,9E0],"tree_param":{"num_deleted":"0","num_feature":"5","num_nodes":"113","size_leaf_vector":"1"}},{"base_weights":[1.0371552E-2,8.057191E-3,1.0168401E0,1.251433E-2,-5.8639073E-1,5.0220612E-2,3.7325564E-1,9.407686E-3,1.3522329E0,-2.6782784E-1,-4.6769735E-1,1.2170427E-2,-7.1469104E-1,5.556167E-1,1.7048205E-1,1.438827E-1,-3.9053243E-1,7.428196E-3,1.0308214E0,-1.9406223E-1,-1.1182568E-1,3.1469811E-3,-3.9283398E-1,1.0524559E0,-1.1389935E-1,-1.5435897E-1,6.5447666E-2],"categories":[],"categories_nodes":[],"categories_segments":[],"categories_sizes":[],"default_left":[0,0,0,0,0,0,0,0,0,0,0,0,0,0,0,0,0,0,0,0,0,0,0,0,0,0,0],"id":27,"left_children":[1,3,5,7,9,-1,-1,11,13,15,-1,17,-1,-1,-1,-1,19,21,23,-1,25,-1,-1,-1,-1,-1,-1],"loss_changes":[4.061149E0,4.628132E0,5.641842E-1,7.1959133E0,3.6103058E0,0E0,0E0,1.1453665E1,5.1488876E-1,1.196156E0,0E0,8.339754E0,0E0,0E0,0E0,0E0,6.421044E-1,6.952686E0,2.928624E1,0E0,9.0956616E-1,0E0,0E0,0E0,0E0,0E0,0E0],"parents":[2147483647,0,0,1,1,2,2,3,3,4,4,7,7,8,8,9,9,11,11,16,16,17,17,18,18,20,20],"right_children":[2,4,6,8,10,-1,-1,12,14,16,-1,18,-1,-1,-1,-1,20,22,24,-1,26,-1,-1,-1,-1,-1,-1],"split_conditions":[3.6199997E1,1.76E1,4.19E0,1.6900002E1,1.31E1,5.0220612E-2,3.7325564E-1,1.6800001E1,1.3549999E1,2.0929594E1,-4.6769735E-1,1.43E1,-7.1469104E-1,5.556167E-1,1.7048205E-1,1.438827E-1,3.1353088E1,1.34E1,1.46E1,-1.9406223E-1,1.1685417E1,3.1469811E-3,-3.9283398E-1,1.0524559E0,-1.1389935E-1,-1.5435897E-1,6.5447666E-2],"split_indices":[2,2,0,2,0,0,0,2,1,3,0,2,0,0,0,0,3,2,2,0,1,0,0,0,0,0,0],"split_type":[0,0,0,0,0,0,0,0,0,0,0,0,0,0,0,0,0,0,0,0,0,0,0,0,0,0,0],"sum_hessian":[1.746E3,1.743E3,3E0,1.731E3,1.2E1,1E0,2E0,1.728E3,3E0,1E1,2E0,1.727E3,1E0,1E0,2E0,1E0,9E0,1.72E3,7E0,4E0,5E0,1.717E3,3E0,2E0,5E0,2E0,3E0],"tree_param":{"num_deleted":"0","num_feature":"5","num_nodes":"27","size_leaf_vector":"1"}},{"base_weights":[7.475835E-3,7.007274E-1,4.284175E-3,7.3765016E-1,9.830741E-2,-5.520473E-1,8.791619E-3,-2.118082E-1,2.6471528E-1,-8.505164E-1,4.067545E-1,4.9160467E-3,8.409408E-1,-1.3168717E-2,-8.2144976E-2,4.6141744E-1,-7.8314E-2,-1.1513765E0,-3.6167026E-2,2.7994806E-1,-1.7586938E-1,9.506493E-3,-1.1197897E0,5.4746133E-1,2.0881884E-1,1.6556445E-1,2.85038E-2,-1.2573055E0,-6.1480954E-2,-2.5150466E-1,1.5320298E-1,-1.7090004E-2,1.21945016E-1,3.8640407E-1,-1.7357593E0,2.774864E-1,-8.156352E-1,-7.760697E-2,-4.14188E-1,-1.0415463E-3,-2.189448E-1,1.2204576E-1,-1.462252E-2,-7.3386115E-1,-2.3069583E-1,-7.62193E-2,-2.9081655E-1],"categories":[],"categories_nodes":[],"categories_segments":[],"categories_sizes":[],"default_left":[0,0,0,0,0,0,1,0,0,0,0,1,0,0,0,0,0,0,0,0,0,0,0,0,0,0,0,0,0,0,0,0,0,0,0,0,0,0,0,0,0,0,0,0,0,0,0],"id":28,"left_children":[1,3,5,-1,7,9,11,13,15,17,19,21,23,-1,-1,25,-1,27,29,-1,-1,31,33,-1,35,-1,-1,37,-1,-1,-1,39,41,-1,43,-1,45,-1,-1,-1,-1,-1,-1,-1,-1,-1,-1],"loss_changes":[3.8624508E0,8.231226E0,4.368135E0,0E0,4.1730863E-1,4.352369E0,5.565535E0,1.9216567E-2,6.37544E-1,2.6534157E0,2.6379008E0,8.890836E0,4.594644E0,0E0,0E0,8.015007E-2,0E0,5.443754E-1,2.182797E0,0E0,0E0,5.127751E0,1.2617613E1,0E0,5.156315E0,0E0,0E0,5.048981E-1,0E0,0E0,0E0,1.3459733E1,1.5968584E1,0E0,2.2399368E0,0E0,1.2742996E-2,0E0,0E0,0E0,0E0,0E0,0E0,0E0,0E0,0E0,0E0],"parents":[2147483647,0,0,1,1,2,2,4,4,5,5,6,6,7,7,8,8,9,9,10,10,11,11,12,12,15,15,17,17,18,18,21,21,22,22,24,24,27,27,31,31,32,32,34,34,36,36],"right_children":[2,4,6,-1,8,10,12,14,16,18,20,22,24,-1,-1,26,-1,28,30,-1,-1,32,34,-1,36,-1,-1,38,-1,-1,-1,40,42,-1,44,-1,46,-1,-1,-1,-1,-1,-1,-1,-1,-1,-1],"split_conditions":[1.01887E1,1.77E0,1.14862E1,7.3765016E-1,4.19E0,1.39E1,3.907E1,2.25E0,2.7665906E2,2.745065E2,1.472E1,3.272E1,2.2380884E1,-1.3168717E-2,-8.2144976E-2,2.4297577E2,-7.8314E-2,1.05E1,8.979167E0,2.7994806E-1,-1.7586938E-1,4E-1,1.260625E1,5.4746133E-1,1E-1,1.6556445E-1,2.85038E-2,1.2343751E1,-6.1480954E-2,-2.5150466E-1,1.5320298E-1,3E-1,6.3807846E1,3.8640407E-1,1.642247E1,2.774864E-1,1.2012501E1,-7.760697E-2,-4.14188E-1,-1.0415463E-3,-2.189448E-1,1.2204576E-1,-1.462252E-2,-7.3386115E-1,-2.3069583E-1,-7.62193E-2,-2.9081655E-1],"split_indices":[3,0,3,0,0,0,0,0,4,4,0,0,3,0,0,4,0,0,1,0,0,2,1,0,2,0,0,1,0,0,0,2,4,0,3,0,1,0,0,0,0,0,0,0,0,0,0],"split_type":[0,0,0,0,0,0,0,0,0,0,0,0,0,0,0,0,0,0,0,0,0,0,0,0,0,0,0,0,0,0,0,0,0,0,0,0,0,0,0,0,0,0,0,0,0,0,0],"sum_hessian":[1.746E3,7E0,1.739E3,1E0,6E0,1.3E1,1.726E3,2E0,4E0,1E1,3E0,1.719E3,7E0,1E0,1E0,3E0,1E0,7E0,3E0,2E0,1E0,1.713E3,6E0,2E0,5E0,2E0,1E0,6E0,1E0,1E0,2E0,1.386E3,3.27E2,1E0,5E0,3E0,2E0,1E0,5E0,1.361E3,2.5E1,1.22E2,2.05E2,2E0,3E0,1E0,1E0],"tree_param":{"num_deleted":"0","num_feature":"5","num_nodes":"47","size_leaf_vector":"1"}},{"base_weights":[5.220365E-3,-3.659671E-2,6.3391015E-2,-1.210311E-2,-4.2706797E-1,3.2658932E-1,-3.431808E-2,-3.2716826E-2,6.266384E-1,-1.98129E0,-1.1394466E-1,2.3616497E-1,1.7084864E0,-1.210252E0,-3.309095E-4,-7.0844024E-2,2.3249796E-1,1.813381E-1,2.3776166E0,-1.0756665E0,-1.1320294E0,2.2897707E-1,-9.5222193E-1,1.6195379E-1,1.2169951E0,3.6785629E0,-8.746838E-1,6.703552E-2,-1.4119143E0,-5.3038225E-2,3.5079768E-1,1.2664427E-1,-1.3045114E-1,3.72354E-2,9.4957477E-1,7.8816974E-1,-1.8716571E0,5.7388085E-1,9.4080436E-1,9.07136E-2,-1.3801419E0,-1.21186234E-1,1.7469893E0,-5.994334E-1,-5.242403E-1,5.269738E-1,-1.8835297E-2,1.1364698E0,4.051125E-1,1.7170619E0,7.139454E-1,-4.8757687E-1,4.176407E-1,-7.94215E-2,1.0958748E-1,-8.405137E-1,-2.1580527E0,2.4995856E-1,-1.2989642E-1,2.546793E0,-1.1767148E-1,-5.0477147E-2,1.5158777E-1,-2.0331527E-1,-2.004295E-2,4.4964746E-2,-4.8633835E-1,-5.1810943E-2,5.127821E-1,-3.9609775E-1,5.358359E-1,-6.933792E-1,-1.9848868E-1,3.4454656E-1,-8.630019E-2,-6.601124E-2,-5.400529E-1,-9.795943E-2,4.03958E-1,-6.4786434E-2,6.3304174E-1,-7.9414565E-3,-6.026169E-1,-2.040704E-1,1.8869808E-1,-3.3419073E-1,1.8078888E-2,-1.648262E-1,2.0348333E-1,5.8472514E-1,-1.04238614E-1,-1.4948903E-1,3.3742735E-1,-2.9460445E-1,4.37243E-2,-1.1596728E-1,-7.5128615E-1,-2.073866E-2,3.9962095E-1,-3.6892283E-3,-1.4399211E-1,1.5594194E0,-2.9124668E-1,-1.7608537E-1,2.5553405E-1],"categories":[],"categories_nodes":[],"categories_segments":[],"categories_sizes":[],"default_left":[0,0,0,0,0,0,0,0,0,0,0,0,0,0,1,0,0,0,0,0,0,0,0,0,0,0,0,0,0,0,0,0,0,0,0,0,0,0,0,0,0,0,0,0,0,0,0,0,0,0,0,0,0,0,0,0,0,0,1,0,0,0,0,0,0,0,0,0,0,0,0,0,0,0,0,0,0,0,0,0,0,0,0,0,0,0,0,0,0,0,0,0,0,0,0,0,0,0,0,0,0,0,0,0,0],"id":29,"left_children":[1,3,5,7,9,11,13,15,17,19,21,23,25,27,29,31,33,35,37,-1,39,41,43,45,47,49,51,53,55,57,59,61,63,65,67,69,71,73,-1,-1,75,77,79,-1,81,83,85,-1,87,-1,89,-1,91,-1,-1,93,95,97,99,101,103,-1,-1,-1,-1,-1,-1,-1,-1,-1,-1,-1,-1,-1,-1,-1,-1,-1,-1,-1,-1,-1,-1,-1,-1,-1,-1,-1,-1,-1,-1,-1,-1,-1,-1,-1,-1,-1,-1,-1,-1,-1,-1,-1,-1],"loss_changes":[4.251944E0,9.721467E0,1.8810238E1,1.2634332E1,2.897403E1,2.4338034E1,2.1341797E1,9.410423E0,2.2960184E1,9.5654335E0,1.4878675E1,1.3414364E1,6.428609E1,3.9583607E0,9.642269E0,9.586918E0,1.6346779E1,3.2620747E1,6.407997E0,0E0,3.2644815E0,1.987914E1,5.666829E0,1.155846E1,2.5603401E1,3.8351738E1,6.4986715E0,3.9356735E-1,3.7285976E0,1.0581836E1,7.0255104E1,2.1189497E1,2.172269E1,1.7616287E1,2.1610025E1,4.4441715E1,1.6624222E0,1.8155391E0,0E0,0E0,3.0148783E0,9.782704E0,5.445593E0,0E0,8.813976E0,7.5710945E0,1.0288666E1,0E0,3.240858E0,0E0,5.921173E0,0E0,2.5034878E0,0E0,0E0,1.3991404E0,2.098711E0,3.1858587E1,1.4897179E1,1.1696022E2,2.643176E1,0E0,0E0,0E0,0E0,0E0,0E0,0E0,0E0,0E0,0E0,0E0,0E0,0E0,0E0,0E0,0E0,0E0,0E0,0E0,0E0,0E0,0E0,0E0,0E0,0E0,0E0,0E0,0E0,0E0,0E0,0E0,0E0,0E0,0E0,0E0,0E0,0E0,0E0,0E0,0E0,0E0,0E0,0E0,0E0],"parents":[2147483647,0,0,1,1,2,2,3,3,4,4,5,5,6,6,7,7,8,8,9,9,10,10,11,11,12,12,13,13,14,14,15,15,16,16,17,17,18,18,20,20,21,21,22,22,23,23,24,24,25,25,26,26,27,27,28,28,29,29,30,30,31,31,32,32,33,33,34,34,35,35,36,36,37,37,40,40,41,41,42,42,44,44,45,45,46,46,48,48,50,50,52,52,55,55,56,56,57,57,58,58,59,59,60,60],"right_children":[2,4,6,8,10,12,14,16,18,20,22,24,26,28,30,32,34,36,38,-1,40,42,44,46,48,50,52,54,56,58,60,62,64,66,68,70,72,74,-1,-1,76,78,80,-1,82,84,86,-1,88,-1,90,-1,92,-1,-1,94,96,98,100,102,104,-1,-1,-1,-1,-1,-1,-1,-1,-1,-1,-1,-1,-1,-1,-1,-1,-1,-1,-1,-1,-1,-1,-1,-1,-1,-1,-1,-1,-1,-1,-1,-1,-1,-1,-1,-1,-1,-1,-1,-1,-1,-1,-1,-1],"split_conditions":[1.7225635E2,1.265E1,2.3131732E2,1.042E1,1.39E1,1.31E1,2.3430983E2,3.1487139E1,1.3286026E2,1.52E1,3.0141266E1,2.2772633E2,2.073E1,1.2343751E1,7.3E0,1.6354166E1,2.2E0,8.4040726E1,1.073E1,-1.0756665E0,1.5454166E1,2.6574244E1,1.679E1,1.895988E2,1.7227419E1,2.2370834E1,3.907E1,2.87E0,4.8E0,1.6595179E1,2.4980553E2,1.3764584E1,1.886875E1,1.5E0,1.3085416E1,1.4466667E1,9.9792046E1,1.05E1,9.4080436E-1,9.07136E-2,5.570331E1,2.6785418E1,1.2012501E1,-5.994334E-1,1.6935415E1,1.33E0,1.9122763E2,1.1364698E0,1.4945835E1,1.7170619E0,1.593E1,-4.8757687E-1,1.1885418E1,-7.94215E-2,1.0958748E-1,2.2762503E1,1.6297916E1,1.5941944E1,3.05E0,2.3950148E1,1.5568749E1,-5.0477147E-2,1.5158777E-1,-2.0331527E-1,-2.004295E-2,4.4964746E-2,-4.8633835E-1,-5.1810943E-2,5.127821E-1,-3.9609775E-1,5.358359E-1,-6.933792E-1,-1.9848868E-1,3.4454656E-1,-8.630019E-2,-6.601124E-2,-5.400529E-1,-9.795943E-2,4.03958E-1,-6.4786434E-2,6.3304174E-1,-7.9414565E-3,-6.026169E-1,-2.040704E-1,1.8869808E-1,-3.3419073E-1,1.8078888E-2,-1.648262E-1,2.0348333E-1,5.8472514E-1,-1.04238614E-1,-1.4948903E-1,3.3742735E-1,-2.9460445E-1,4.37243E-2,-1.1596728E-1,-7.5128615E-1,-2.073866E-2,3.9962095E-1,-3.6892283E-3,-1.4399211E-1,1.5594194E0,-2.9124668E-1,-1.7608537E-1,2.5553405E-1],"split_indices":[4,0,4,0,0,0,4,3,4,1,3,4,0,1,0,1,2,4,0,0,1,3,0,4,3,1,0,0,0,3,4,1,1,2,1,1,4,0,0,0,4,1,1,0,1,0,4,0,1,0,0,0,1,0,0,1,1,3,0,3,1,0,0,0,0,0,0,0,0,0,0,0,0,0,0,0,0,0,0,0,0,0,0,0,0,0,0,0,0,0,0,0,0,0,0,0,0,0,0,0,0,0,0,0,0],"split_type":[0,0,0,0,0,0,0,0,0,0,0,0,0,0,0,0,0,0,0,0,0,0,0,0,0,0,0,0,0,0,0,0,0,0,0,0,0,0,0,0,0,0,0,0,0,0,0,0,0,0,0,0,0,0,0,0,0,0,0,0,0,0,0,0,0,0,0,0,0,0,0,0,0,0,0,0,0,0,0,0,0,0,0,0,0,0,0,0,0,0,0,0,0,0,0,0,0,0,0,0,0,0,0,0,0],"sum_hessian":[1.746E3,1.016E3,7.3E2,9.57E2,5.9E1,1.97E2,5.33E2,9.28E2,2.9E1,9E0,5E1,1.86E2,1.1E1,1.4E1,5.19E2,8.12E2,1.16E2,2.4E1,5E0,2E0,7E0,3.6E1,1.4E1,1.74E2,1.2E1,6E0,5E0,2E0,1.2E1,4.52E2,6.7E1,1.88E2,6.24E2,9.2E1,2.4E1,1.9E1,5E0,2E0,3E0,1E0,6E0,3E1,6E0,3E0,1.1E1,5.7E1,1.17E2,2E0,1E1,3E0,3E0,3E0,2E0,1E0,1E0,8E0,4E0,9.1E1,3.61E2,1.1E1,5.6E1,1.06E2,8.2E1,6.4E1,5.6E2,8.7E1,5E0,1E1,1.4E1,6E0,1.3E1,3E0,2E0,1E0,1E0,2E0,4E0,2.7E1,3E0,1E0,5E0,9E0,2E0,4E0,5.3E1,7E0,1.1E2,2E0,8E0,1E0,2E0,1E0,1E0,7E0,1E0,1E0,3E0,7.1E1,2E1,2.71E2,9E1,6E0,5E0,3.8E1,1.8E1],"tree_param":{"num_deleted":"0","num_feature":"5","num_nodes":"105","size_leaf_vector":"1"}},{"base_weights":[4.5986604E-3,2.2127623E-2,-1.310985E-1,5.5892713E-4,4.0282136E-1,-2.5338793E-2,-9.438867E-1,1.664858E-2,-5.453533E-1,1.00774705E-1,1.3492296E0,-6.5426044E-2,7.0046794E-1,-1.7926488E0,1.4500365E-1,-3.6846638E-2,1.0517856E-1,-1.4939642E-1,-1.7974756E0,3.2695657E-1,-2.4237405E-1,3.1668503E0,6.968962E-1,-1.0009219E-1,4.1668552E-1,3.3582687E-2,-1.9606932E0,9.298872E-1,-4.3634227E-1,1.1631982E-2,-2.70127E-1,4.7115755E-1,-1.2690135E-3,1.1606716E-1,-3.7706426E-1,-6.609099E-1,-1.1683059E-1,-2.8192872E-1,4.462063E-1,-9.9478227E-1,2.9005498E-1,6.0653E-1,1.4014663E0,-8.585792E-1,9.8043406E-1,-1.2894341E-1,4.8223123E-1,8.418423E-1,-5.5641413E-2,-2.1913905E0,-1.6144152E-1,4.0063342E-1,-1.03851415E-1,-7.479921E-1,2.1503349E-1,-8.3119325E-2,2.1829598E-2,3.8704453E-3,-1.4549597E-1,9.880443E-2,7.299143E-1,-7.903251E-3,3.8519737E-1,-1.3684618E-2,3.8119584E-1,-2.0134126E-1,-2.2407563E-2,9.341959E-2,-1.4599335E-1,-1.3575499E-1,1.112398E-1,3.6532032E-1,5.7495378E-2,1.1730066E-1,-3.5173827E-1,-7.5044474E-3,2.4580215E-1,-4.0540695E-2,3.1347921E-1,9.988082E-3,-3.9634874E-1,4.040935E-2,4.793697E-1,-2.5513122E-2,-3.1913197E-1,5.1919115E-1,-1.8388192E-1,-1.914327E-1,1.6082993E-1,-1.9283496E-1,-6.876113E-1,6.078315E-3,-2.717085E-1],"categories":[],"categories_nodes":[],"categories_segments":[],"categories_sizes":[],"default_left":[0,0,0,0,0,0,0,0,0,0,0,0,0,0,0,0,0,0,0,0,0,0,0,0,0,0,0,0,0,0,0,0,0,0,0,0,0,0,0,0,0,0,0,0,0,0,0,0,0,0,0,0,0,0,0,0,0,0,0,0,0,0,0,0,0,0,0,0,0,0,0,0,0,0,0,0,0,0,0,0,0,0,0,0,0,0,0,0,0,0,0,0,0],"id":30,"left_children":[1,3,5,7,9,11,13,15,17,19,21,23,-1,25,27,29,31,33,35,37,39,41,43,45,47,-1,49,51,53,55,57,59,61,63,65,-1,67,69,71,73,75,77,-1,79,81,83,85,-1,87,89,-1,-1,-1,91,-1,-1,-1,-1,-1,-1,-1,-1,-1,-1,-1,-1,-1,-1,-1,-1,-1,-1,-1,-1,-1,-1,-1,-1,-1,-1,-1,-1,-1,-1,-1,-1,-1,-1,-1,-1,-1,-1,-1],"loss_changes":[4.158368E0,1.2710506E1,1.7168133E1,1.2885745E1,2.3590366E1,1.699427E1,2.1516745E1,6.752576E0,2.0554495E1,5.0465436E0,2.1506927E1,2.9831853E0,0E0,4.380211E0,5.4249263E0,1.005694E1,2.0920816E1,2.0382028E0,6.5585976E0,2.9575648E0,1.0704245E1,1.6429184E1,7.8983583E0,2.8343043E0,1.3699388E1,0E0,2.7588806E0,3.0498686E0,3.0517333E0,1.3027455E1,9.310397E0,3.286264E1,1.3472942E1,3.0447829E0,1.5504255E0,0E0,6.266358E-1,9.472254E-1,6.2476997E0,3.1669016E0,2.6886854E0,1.1166477E0,0E0,1.2816825E0,7.0957403E0,6.393652E0,1.1998519E1,0E0,4.13346E0,8.534622E-2,0E0,0E0,0E0,7.452848E-1,0E0,0E0,0E0,0E0,0E0,0E0,0E0,0E0,0E0,0E0,0E0,0E0,0E0,0E0,0E0,0E0,0E0,0E0,0E0,0E0,0E0,0E0,0E0,0E0,0E0,0E0,0E0,0E0,0E0,0E0,0E0,0E0,0E0,0E0,0E0,0E0,0E0,0E0,0E0],"parents":[2147483647,0,0,1,1,2,2,3,3,4,4,5,5,6,6,7,7,8,8,9,9,10,10,11,11,13,13,14,14,15,15,16,16,17,17,18,18,19,19,20,20,21,21,22,22,23,23,24,24,26,26,27,27,28,28,29,29,30,30,31,31,32,32,33,33,34,34,36,36,37,37,38,38,39,39,40,40,41,41,43,43,44,44,45,45,46,46,48,48,49,49,53,53],"right_children":[2,4,6,8,10,12,14,16,18,20,22,24,-1,26,28,30,32,34,36,38,40,42,44,46,48,-1,50,52,54,56,58,60,62,64,66,-1,68,70,72,74,76,78,-1,80,82,84,86,-1,88,90,-1,-1,-1,92,-1,-1,-1,-1,-1,-1,-1,-1,-1,-1,-1,-1,-1,-1,-1,-1,-1,-1,-1,-1,-1,-1,-1,-1,-1,-1,-1,-1,-1,-1,-1,-1,-1,-1,-1,-1,-1,-1,-1],"split_conditions":[3.3574707E1,3.1487139E1,7.5E0,3.0676142E1,1.1E0,7.3E0,3.5589054E1,1.796669E2,5.47E0,2.14E1,1.6000001E0,1.02E1,7.0046794E-1,1.5741227E1,5.6309914E1,5E-1,2.2107516E2,2.43E0,2.4408335E1,5.916089E1,3.233794E1,1.2000002E0,2.1999998E0,2.7964584E1,1.05E1,3.3582687E-2,2.0808332E1,1.5010417E1,1.542E1,1.97E0,5.876087E1,1.31E1,8.6E0,2.35E0,3.8E0,-6.609099E-1,7.5E0,3.2777798E1,9.9792046E1,3.168E1,2.6620829E1,1.83E0,1.4014663E0,1E0,4.23E0,2.681875E1,3.1E0,8.418423E-1,1.1685417E1,1.3697919E1,-1.6144152E-1,4.0063342E-1,-1.03851415E-1,1.2506248E1,2.1503349E-1,-8.3119325E-2,2.1829598E-2,3.8704453E-3,-1.4549597E-1,9.880443E-2,7.299143E-1,-7.903251E-3,3.8519737E-1,-1.3684618E-2,3.8119584E-1,-2.0134126E-1,-2.2407563E-2,9.341959E-2,-1.4599335E-1,-1.3575499E-1,1.112398E-1,3.6532032E-1,5.7495378E-2,1.1730066E-1,-3.5173827E-1,-7.5044474E-3,2.4580215E-1,-4.0540695E-2,3.1347921E-1,9.988082E-3,-3.9634874E-1,4.040935E-2,4.793697E-1,-2.5513122E-2,-3.1913197E-1,5.1919115E-1,-1.8388192E-1,-1.914327E-1,1.6082993E-1,-1.9283496E-1,-6.876113E-1,6.078315E-3,-2.717085E-1],"split_indices":[3,3,0,3,2,0,3,4,0,1,2,2,0,4,4,2,4,0,1,4,3,2,2,1,2,0,1,1,0,0,4,0,2,0,0,0,0,3,4,3,1,0,0,0,0,1,0,0,1,1,0,0,0,1,0,0,0,0,0,0,0,0,0,0,0,0,0,0,0,0,0,0,0,0,0,0,0,0,0,0,0,0,0,0,0,0,0,0,0,0,0,0,0],"split_type":[0,0,0,0,0,0,0,0,0,0,0,0,0,0,0,0,0,0,0,0,0,0,0,0,0,0,0,0,0,0,0,0,0,0,0,0,0,0,0,0,0,0,0,0,0,0,0,0,0,0,0,0,0,0,0,0,0,0,0,0,0,0,0,0,0,0,0,0,0,0,0,0,0,0,0,0,0,0,0,0,0,0,0,0,0,0,0,0,0,0,0,0,0],"sum_hessian":[1.746E3,1.547E3,1.99E2,1.465E3,8.2E1,1.77E2,2.2E1,1.424E3,4.1E1,6.3E1,1.9E1,1.75E2,2E0,1.2E1,1E1,8.88E2,5.36E2,3.2E1,9E0,3.8E1,2.5E1,4E0,1.5E1,1.64E2,1.1E1,1E0,1.1E1,4E0,6E0,7.36E2,1.52E2,1.2E2,4.16E2,1.5E1,1.7E1,7E0,2E0,6E0,3.2E1,1E1,1.5E1,2E0,2E0,2E0,1.3E1,1.57E2,7E0,1E0,1E1,9E0,2E0,3E0,1E0,5E0,1E0,1.28E2,6.08E2,6.6E1,8.6E1,1.13E2,7E0,4.09E2,7E0,1.4E1,1E0,8E0,9E0,1E0,1E0,5E0,1E0,7E0,2.5E1,1E0,9E0,1E1,5E0,1E0,1E0,1E0,1E0,6E0,7E0,1.51E2,6E0,3E0,4E0,5E0,5E0,1E0,8E0,1E0,4E0],"tree_param":{"num_deleted":"0","num_feature":"5","num_nodes":"93","size_leaf_vector":"1"}},{"base_weights":[5.1558763E-3,4.737374E-2,-3.6396954E-2,1.5232587E-2,9.756169E-1,-2.3378924E-2,-7.38723E-1,2.8324025E-2,-4.9605885E-1,-6.78077E-1,2.0238786E0,-1.8361524E-1,9.90602E-3,-1.0008159E0,3.8044594E-2,5.9547763E-2,-1.6728222E-1,4.623606E-1,-6.8148214E-1,-1.9321086E-1,-6.204815E-1,8.737286E-1,5.8309712E0,-1.1265012E-2,-7.89111E-1,-5.222814E-1,2.6689688E-2,-2.7385107E-1,-1.1188238E0,7.8357376E-2,-1.2818131E-1,2.247582E-2,6.4598507E-1,-7.4369806E-1,-7.825678E-2,2.4665821E-2,2.4041763E-1,-6.7904755E-2,-8.519396E-1,-3.3370093E-1,1.0094945E-1,4.6283174E-1,7.0891166E-1,2.5634477E0,6.2342334E-1,2.2998813E-1,-1.598284E-1,7.49609E-2,-1.1162614E0,-8.46219E-2,-1.6752697E0,7.045994E-1,1.4676487E-3,-2.4038589E-1,1.1715291E-1,-3.526492E-1,-9.131427E-2,2.7592482E-2,-3.6230985E-2,3.9411068E-2,3.9745197E-1,-8.767672E-2,-4.1164568E-1,-3.0371876E-2,2.0728189E-1,-1.2653397E-1,3.7802696E-2,-2.997028E-1,6.095696E-3,-2.3980595E-2,-1.512124E-1,-4.7750194E-2,1.3219497E-1,6.0859386E-2,3.785302E-1,2.0182448E-2,3.3110347E-1,1.3029165E-2,-1.18276715E-1,-4.3713263E-1,1.22127555E-1,-3.811287E-1,1.1591625E-1,2.8689504E-2,-1.6090705E-1,-9.02558E-2,-5.669948E-1,7.118267E-1,1.5879419E-2,-1.8148117E-2,4.642997E-2],"categories":[],"categories_nodes":[],"categories_segments":[],"categories_sizes":[],"default_left":[0,0,0,0,0,0,0,0,0,0,0,0,0,0,0,0,0,0,0,0,0,0,0,0,0,0,0,0,0,0,0,0,0,0,0,0,0,0,0,0,0,0,0,0,0,0,0,0,0,0,0,0,0,0,0,0,0,0,0,0,0,0,0,0,0,0,0,0,0,0,0,0,0,0,0,0,0,0,0,0,0,0,0,0,0,0,0,0,0,0,0],"id":31,"left_children":[1,3,5,7,9,11,13,15,17,19,21,23,25,27,29,31,33,35,37,39,-1,41,43,45,47,49,51,53,55,-1,-1,57,59,61,63,-1,-1,65,67,69,71,73,-1,-1,-1,75,77,79,81,83,85,87,89,-1,-1,-1,-1,-1,-1,-1,-1,-1,-1,-1,-1,-1,-1,-1,-1,-1,-1,-1,-1,-1,-1,-1,-1,-1,-1,-1,-1,-1,-1,-1,-1,-1,-1,-1,-1,-1,-1],"loss_changes":[3.0664368E0,2.5851913E1,8.037625E0,5.6299305E0,5.1643967E1,4.620592E0,3.2954397E0,5.012052E0,4.047069E0,7.6890874E0,7.37224E1,1.5540354E1,6.427156E0,7.2305965E-1,6.307676E-1,1.5355923E1,5.740472E0,4.4962937E-1,1.824748E0,4.4695288E-1,0E0,8.085604E0,2.2982407E1,4.2302003E0,9.412161E0,1.0959793E1,1.1916456E1,1.3641317E0,1.03775024E-1,0E0,0E0,6.6414404E0,1.4498598E1,3.854642E0,1.8201013E0,0E0,0E0,3.962543E-1,1.8162584E0,2.6229495E-1,4.2358413E-1,2.4440923E0,0E0,0E0,0E0,6.3229947E0,3.4955325E0,5.681654E0,6.050709E0,1.4355488E0,1.2020245E0,2.705151E1,6.401927E0,0E0,0E0,0E0,0E0,0E0,0E0,0E0,0E0,0E0,0E0,0E0,0E0,0E0,0E0,0E0,0E0,0E0,0E0,0E0,0E0,0E0,0E0,0E0,0E0,0E0,0E0,0E0,0E0,0E0,0E0,0E0,0E0,0E0,0E0,0E0,0E0,0E0,0E0],"parents":[2147483647,0,0,1,1,2,2,3,3,4,4,5,5,6,6,7,7,8,8,9,9,10,10,11,11,12,12,13,13,14,14,15,15,16,16,17,17,18,18,19,19,21,21,22,22,23,23,24,24,25,25,26,26,27,27,28,28,31,31,32,32,33,33,34,34,37,37,38,38,39,39,40,40,41,41,45,45,46,46,47,47,48,48,49,49,50,50,51,51,52,52],"right_children":[2,4,6,8,10,12,14,16,18,20,22,24,26,28,30,32,34,36,38,40,-1,42,44,46,48,50,52,54,56,-1,-1,58,60,62,64,-1,-1,66,68,70,72,74,-1,-1,-1,76,78,80,82,84,86,88,90,-1,-1,-1,-1,-1,-1,-1,-1,-1,-1,-1,-1,-1,-1,-1,-1,-1,-1,-1,-1,-1,-1,-1,-1,-1,-1,-1,-1,-1,-1,-1,-1,-1,-1,-1,-1,-1,-1],"split_conditions":[1.9122915E1,1.8754164E1,8.000001E0,1.8493752E1,2.27057E1,2.0922916E1,1.43E1,3.3574707E1,1.93E0,3.23E0,6.85E0,4.44E0,1.4255272E1,2.02E0,2.5714582E1,3.1487139E1,3.4349354E1,1.42E0,1.776081E1,1.944E1,-6.204815E-1,1E-1,2.3950148E1,9.761071E1,7.0640915E1,1.8141685E2,1.4869351E1,1.51E0,2.5918753E1,7.8357376E-2,-1.2818131E-1,2.2505037E1,4.38E0,3.8E0,3.6199997E1,2.4665821E-2,2.4041763E-1,1.8543749E1,3.1487139E1,1.886875E1,1.8964582E1,5.13E0,7.0891166E-1,2.5634477E0,6.2342334E-1,8.772246E1,2.2E0,4.57E0,3.8E0,2.3289587E1,1.2879752E1,7.8586174E1,1.5499068E2,-2.4038589E-1,1.1715291E-1,-3.526492E-1,-9.131427E-2,2.7592482E-2,-3.6230985E-2,3.9411068E-2,3.9745197E-1,-8.767672E-2,-4.1164568E-1,-3.0371876E-2,2.0728189E-1,-1.2653397E-1,3.7802696E-2,-2.997028E-1,6.095696E-3,-2.3980595E-2,-1.512124E-1,-4.7750194E-2,1.3219497E-1,6.0859386E-2,3.785302E-1,2.0182448E-2,3.3110347E-1,1.3029165E-2,-1.18276715E-1,-4.3713263E-1,1.22127555E-1,-3.811287E-1,1.1591625E-1,2.8689504E-2,-1.6090705E-1,-9.02558E-2,-5.669948E-1,7.118267E-1,1.5879419E-2,-1.8148117E-2,4.642997E-2],"split_indices":[1,1,2,1,3,1,2,3,0,0,0,0,3,0,1,3,3,0,3,3,0,2,3,4,4,4,3,0,1,0,0,3,0,0,2,0,0,1,3,1,1,0,0,0,0,4,0,0,2,1,3,4,4,0,0,0,0,0,0,0,0,0,0,0,0,0,0,0,0,0,0,0,0,0,0,0,0,0,0,0,0,0,0,0,0,0,0,0,0,0,0],"split_type":[0,0,0,0,0,0,0,0,0,0,0,0,0,0,0,0,0,0,0,0,0,0,0,0,0,0,0,0,0,0,0,0,0,0,0,0,0,0,0,0,0,0,0,0,0,0,0,0,0,0,0,0,0,0,0,0,0,0,0,0,0,0,0,0,0,0,0,0,0,0,0,0,0,0,0,0,0,0,0,0,0,0,0,0,0,0,0,0,0,0,0],"sum_hessian":[1.746E3,8.66E2,8.8E2,8.38E2,2.8E1,8.65E2,1.5E1,8.18E2,2E1,1.1E1,1.7E1,1.48E2,7.17E2,1.1E1,4E0,7.06E2,1.12E2,3E0,1.7E1,9E0,2E0,1.4E1,3E0,1.16E2,3.2E1,2.1E1,6.96E2,2E0,9E0,3E0,1E0,6.65E2,4.1E1,1.4E1,9.8E1,2E0,1E0,4E0,1.3E1,6E0,3E0,1.2E1,2E0,1E0,2E0,4.4E1,7.2E1,9E0,2.3E1,1.6E1,5E0,2.4E1,6.72E2,1E0,1E0,8E0,1E0,4.48E2,2.17E2,2.4E1,1.7E1,9E0,5E0,9.6E1,2E0,1E0,3E0,1.1E1,2E0,3E0,3E0,2E0,1E0,1E1,2E0,3.8E1,6E0,3.9E1,3.3E1,1E0,8E0,2.1E1,2E0,1.2E1,4E0,1E0,4E0,6E0,1.8E1,4.79E2,1.93E2],"tree_param":{"num_deleted":"0","num_feature":"5","num_nodes":"91","size_leaf_vector":"1"}},{"base_weights":[5.1132943E-3,-4.6411373E-2,4.2056214E-2,2.8021315E-1,-1.1112475E-1,3.8020113E-1,-4.839904E-3,6.443319E-1,-1.2640426E-1,-8.9866334E-1,-8.0130674E-2,5.9110906E-2,1.1053234E0,5.054905E-2,-1.2604761E-1,2.625156E-1,1.8740972E0,-2.880024E-1,1.0920968E0,1.2999901E-1,-1.5692319E0,-5.7856422E-2,-9.8924243E-1,-6.786852E-2,1.3215163E0,2.174419E-1,2.7960618E0,3.7356507E-2,9.3469614E-1,1.8386187E-2,-6.472578E-1,6.414223E-1,-5.8275E-1,2.3355048E0,2.1350443E-2,-4.0520117E-1,6.780549E-1,-3.7825704E-2,1.9489951E0,4.535786E-1,-1.9154078E-1,-7.549925E-1,-6.2566125E-1,3.697517E-1,-9.138018E-2,-1.2925338E0,4.430317E-1,4.0346184E-1,-1.7396075E-1,-1.8273349E-1,1.8533884E0,-4.634465E-1,1.353208E0,2.716525E0,8.348685E-1,5.262779E-3,4.196379E-1,2.5012417E0,-2.6545027E-1,5.2832853E-2,-9.0536046E-1,-9.537201E-1,