{"learner":{"attributes":{"scikit_learn":"{\"_estimator_type\": \"regressor\"}"},"feature_names":["temperature_2m_mean","precipitation_sum","wind_speed_10m_max","wind_direction_10m_dominant"],"feature_types":["float","float","float","float"],"gradient_booster":{"model":{"gbtree_model_param":{"num_parallel_tree":"1","num_trees":"100"},"iteration_indptr":[0,1,2,3,4,5,6,7,8,9,10,11,12,13,14,15,16,17,18,19,20,21,22,23,24,25,26,27,28,29,30,31,32,33,34,35,36,37,38,39,40,41,42,43,44,45,46,47,48,49,50,51,52,53,54,55,56,57,58,59,60,61,62,63,64,65,66,67,68,69,70,71,72,73,74,75,76,77,78,79,80,81,82,83,84,85,86,87,88,89,90,91,92,93,94,95,96,97,98,99,100],"tree_info":[0,0,0,0,0,0,0,0,0,0,0,0,0,0,0,0,0,0,0,0,0,0,0,0,0,0,0,0,0,0,0,0,0,0,0,0,0,0,0,0,0,0,0,0,0,0,0,0,0,0,0,0,0,0,0,0,0,0,0,0,0,0,0,0,0,0,0,0,0,0,0,0,0,0,0,0,0,0,0,0,0,0,0,0,0,0,0,0,0,0,0,0,0,0,0,0,0,0,0,0],"trees":[{"base_weights":[-2.088039E-8,-9.411424E-2,5.47431E1,5.594478E0,-2.825563E-1,2.3094757E-1,2.4403448E1,1.0439293E1,1.0476623E0,3.014316E-1,-2.1362004E0,1.677634E1,2.324293E0,-1.6679937E-1,2.4475327E0,2.2037132E0,-3.4154445E-1,5.245959E-1,-2.8341177E0,3.3397088E0,2.3160685E1,5.8763757E0,-6.303057E-1,2.6731005E0,-7.2365934E-1,4.5396943E0,-2.9315662E-1,1.24115E0,5.1853514E0,-4.6896222E-1,2.6071594E0,2.191224E0,-4.727503E-1,-1.9966114E0,-3.0769472E0,1.6829214E0,-2.400699E-1,7.9221587E0,2.0349302E0,1.4694758E-1,2.0567162E0,-4.255874E-1,3.4693012E-1,-1.6355242E-1,1.3664477E0,-3.2784605E-1,1.6942143E-1,4.4991615E-1,2.1614213E0,-3.8308737E-1,8.4144765E-1,-9.899896E-2,6.202662E-1,3.1326904E0,1.0388806E0,-1.970799E-1,6.678966E-2,1.9599742E0,1.4245462E-1,3.991132E-1,1.9721162E0,-4.20738E-1,2.829909E-1,-6.468705E-1,7.6593024E-1,-7.5055546E-1,-9.897785E-1],"categories":[],"categories_nodes":[],"categories_segments":[],"categories_sizes":[],"default_left":[0,0,0,0,0,0,0,0,0,0,0,0,0,0,0,0,0,0,0,0,0,0,0,0,0,0,0,0,0,0,0,0,0,0,0,0,0,0,0,0,0,0,0,0,0,0,0,0,0,0,0,0,0,0,0,0,0,0,0,0,0,0,0,0,0,0,0],"id":0,"left_children":[1,3,5,7,9,-1,-1,11,13,15,17,19,21,23,25,27,29,31,33,35,37,39,41,43,45,47,49,51,53,55,57,59,61,63,65,-1,-1,-1,-1,-1,-1,-1,-1,-1,-1,-1,-1,-1,-1,-1,-1,-1,-1,-1,-1,-1,-1,-1,-1,-1,-1,-1,-1,-1,-1,-1,-1],"loss_changes":[9.005877E3,1.8721683E3,4.2447256E3,1.2226581E3,1.8300786E3,0E0,0E0,1.3494861E3,5.141092E1,1.5736869E3,7.5357825E2,1.2094111E3,1.4013864E2,2.8818663E1,8.160635E1,9.26319E2,3.626627E2,1.4232335E2,5.9138916E1,6.0875824E1,3.5257715E2,2.829364E1,1.2908709E1,2.06509E1,7.751547E0,5.400821E1,2.4916233E1,3.2138748E2,6.7915674E2,1.2013577E2,3.3176328E2,1.1197951E2,7.241495E1,5.9973175E1,2.3325195E1,0E0,0E0,0E0,0E0,0E0,0E0,0E0,0E0,0E0,0E0,0E0,0E0,0E0,0E0,0E0,0E0,0E0,0E0,0E0,0E0,0E0,0E0,0E0,0E0,0E0,0E0,0E0,0E0,0E0,0E0,0E0,0E0],"parents":[2147483647,0,0,1,1,2,2,3,3,4,4,7,7,8,8,9,9,10,10,11,11,12,12,13,13,14,14,15,15,16,16,17,17,18,18,19,19,20,20,21,21,22,22,23,23,24,24,25,25,26,26,27,27,28,28,29,29,30,30,31,31,32,32,33,33,34,34],"right_children":[2,4,6,8,10,-1,-1,12,14,16,18,20,22,24,26,28,30,32,34,36,38,40,42,44,46,48,50,52,54,56,58,60,62,64,66,-1,-1,-1,-1,-1,-1,-1,-1,-1,-1,-1,-1,-1,-1,-1,-1,-1,-1,-1,-1,-1,-1,-1,-1,-1,-1,-1,-1,-1,-1,-1,-1],"split_conditions":[4E1,1.2879752E1,1.0820832E1,1.3935416E1,2.5125856E2,2.3094757E-1,2.4403448E1,2.8455823E2,2.0685252E2,1.614375E1,1.692383E1,1.01954124E2,1.1966953E1,1.5062501E1,3.2647342E2,1.2000002E0,4.1000004E0,3.0563818E2,2.1758419E1,1.2343751E1,2.7665906E2,8.979167E0,1E-1,1.4112502E1,2.0716665E1,2.745065E2,1E-1,5.421008E1,2.1000001E0,2.6881247E1,1.8833334E1,4E-1,3.3796753E2,2.0497917E1,2.661822E2,1.6829214E0,-2.400699E-1,7.9221587E0,2.0349302E0,1.4694758E-1,2.0567162E0,-4.255874E-1,3.4693012E-1,-1.6355242E-1,1.3664477E0,-3.2784605E-1,1.6942143E-1,4.4991615E-1,2.1614213E0,-3.8308737E-1,8.4144765E-1,-9.899896E-2,6.202662E-1,3.1326904E0,1.0388806E0,-1.970799E-1,6.678966E-2,1.9599742E0,1.4245462E-1,3.991132E-1,1.9721162E0,-4.20738E-1,2.829909E-1,-6.468705E-1,7.6593024E-1,-7.5055546E-1,-9.897785E-1],"split_indices":[1,2,0,0,3,0,0,3,3,0,2,3,2,0,3,1,1,3,2,0,3,0,1,0,0,3,1,3,1,0,0,1,3,0,3,0,0,0,0,0,0,0,0,0,0,0,0,0,0,0,0,0,0,0,0,0,0,0,0,0,0,0,0,0,0,0,0],"split_type":[0,0,0,0,0,0,0,0,0,0,0,0,0,0,0,0,0,0,0,0,0,0,0,0,0,0,0,0,0,0,0,0,0,0,0,0,0,0,0,0,0,0,0,0,0,0,0,0,0,0,0,0,0,0,0,0,0,0,0,0,0,0,0,0,0,0,0],"sum_hessian":[1.746E3,1.744E3,2E0,5.5E1,1.689E3,1E0,1E0,2.6E1,2.9E1,1.285E3,4.04E2,1.4E1,1.2E1,1.6E1,1.3E1,3.24E2,9.61E2,8.4E1,3.2E2,5E0,9E0,5E0,7E0,2E0,1.4E1,7E0,6E0,2.46E2,7.8E1,9.22E2,3.9E1,3.1E1,5.3E1,7.4E1,2.46E2,3E0,2E0,7E0,2E0,1E0,4E0,5E0,2E0,1E0,1E0,1.1E1,3E0,4E0,3E0,5E0,1E0,8.5E1,1.61E2,1.8E1,6E1,7.25E2,1.97E2,1.3E1,2.6E1,2.7E1,4E0,3.2E1,2.1E1,7.2E1,2E0,7.2E1,1.74E2],"tree_param":{"num_deleted":"0","num_feature":"4","num_nodes":"67","size_leaf_vector":"1"}},{"base_weights":[2.8363252E-2,-5.1601324E-2,4.653164E1,4.231119E0,-1.9348341E-1,1.9630545E-1,2.0742931E1,8.088069E0,1.0856545E0,2.014592E-1,-1.5648226E0,1.2503434E1,1.3318366E0,-5.532008E-2,2.2300866E0,-5.5835575E-2,2.41047E0,3.7187797E-1,-2.061493E0,2.5782714E0,1.7208189E1,4.564643E0,-4.5104623E-1,2.2721353E0,-5.1712316E-1,3.6659493E0,-1.3972977E-1,1.0543113E0,-3.036297E-1,1.4325867E1,1.755369E0,2.3320684E0,-5.425042E-1,-2.1575274E0,-1.1554667E0,1.3042641E0,-1.9205593E-1,6.154927E0,2.13502E0,1.24905474E-1,1.742587E0,-4.610103E-1,1.5230605E-1,-1.3901958E-1,1.1614805E0,2.744994E-1,-2.4235018E-1,1.2856586E0,-2.8653985E-1,-2.8731558E-1,7.1523046E-1,9.898659E-1,1.5188916E-1,-5.079682E-1,-7.7139996E-2,1.5524544E1,-1.607944E-1,2.0678636E-1,1.397935E0,1.2183373E0,2.725868E-1,-2.1624206E-1,1.3361303E0,-6.563709E-1,3.855951E-1,8.418667E-2,-5.558045E-1],"categories":[],"categories_nodes":[],"categories_segments":[],"categories_sizes":[],"default_left":[0,0,0,0,0,0,0,0,0,0,0,0,0,0,0,0,0,0,0,0,0,0,0,0,0,0,0,0,0,0,0,0,0,0,0,0,0,0,0,0,0,0,0,0,0,0,0,0,0,0,0,0,0,0,0,0,0,0,0,0,0,0,0,0,0,0,0],"id":1,"left_children":[1,3,5,7,9,-1,-1,11,13,15,17,19,21,23,25,27,29,31,33,35,37,39,41,43,45,47,49,51,53,55,57,59,61,63,65,-1,-1,-1,-1,-1,-1,-1,-1,-1,-1,-1,-1,-1,-1,-1,-1,-1,-1,-1,-1,-1,-1,-1,-1,-1,-1,-1,-1,-1,-1,-1,-1],"loss_changes":[6.4988213E3,1.0611528E3,3.0668145E3,6.7060547E2,9.156197E2,0E0,0E0,7.291284E2,4.190794E1,7.4640045E2,3.643656E2,6.5606445E2,6.545973E1,1.9447018E1,5.495594E1,3.2409857E2,1.0442461E3,1.4106949E2,2.36969E1,3.694927E1,1.8783911E2,1.8223137E1,9.106988E0,1.4920277E1,6.984162E0,3.2724518E1,1.6734556E1,2.6287064E2,6.1785286E1,3.9209204E3,4.024088E2,5.7840424E1,5.131611E1,3.1152954E1,3.155904E1,0E0,0E0,0E0,0E0,0E0,0E0,0E0,0E0,0E0,0E0,0E0,0E0,0E0,0E0,0E0,0E0,0E0,0E0,0E0,0E0,0E0,0E0,0E0,0E0,0E0,0E0,0E0,0E0,0E0,0E0,0E0,0E0],"parents":[2147483647,0,0,1,1,2,2,3,3,4,4,7,7,8,8,9,9,10,10,11,11,12,12,13,13,14,14,15,15,16,16,17,17,18,18,19,19,20,20,21,21,22,22,23,23,24,24,25,25,26,26,27,27,28,28,29,29,30,30,31,31,32,32,33,33,34,34],"right_children":[2,4,6,8,10,-1,-1,12,14,16,18,20,22,24,26,28,30,32,34,36,38,40,42,44,46,48,50,52,54,56,58,60,62,64,66,-1,-1,-1,-1,-1,-1,-1,-1,-1,-1,-1,-1,-1,-1,-1,-1,-1,-1,-1,-1,-1,-1,-1,-1,-1,-1,-1,-1,-1,-1,-1,-1],"split_conditions":[4E1,1.2879752E1,1.0820832E1,1.3583335E1,2.550112E2,1.9630545E-1,2.0742931E1,2.8455823E2,2.0685252E2,2E0,1.656E1,1.01954124E2,1.1966953E1,1.5062501E1,3.2647342E2,1.5010417E1,2.1E0,1.1885418E1,3.3248807E2,1.2343751E1,2.5410466E2,8.979167E0,3.4655142E2,1.4112502E1,1.01887E1,1.1E0,1E-1,1.5978486E1,2.9420347E1,1.13E1,1.0400002E1,3.0563818E2,5.8999996E0,8.700001E0,3.4160086E2,1.3042641E0,-1.9205593E-1,6.154927E0,2.13502E0,1.24905474E-1,1.742587E0,-4.610103E-1,1.5230605E-1,-1.3901958E-1,1.1614805E0,2.744994E-1,-2.4235018E-1,1.2856586E0,-2.8653985E-1,-2.8731558E-1,7.1523046E-1,9.898659E-1,1.5188916E-1,-5.079682E-1,-7.7139996E-2,1.5524544E1,-1.607944E-1,2.0678636E-1,1.397935E0,1.2183373E0,2.725868E-1,-2.1624206E-1,1.3361303E0,-6.563709E-1,3.855951E-1,8.418667E-2,-5.558045E-1],"split_indices":[1,2,0,0,3,0,0,3,3,1,2,3,2,0,3,0,1,0,3,0,3,0,3,0,2,1,1,2,3,0,1,3,1,1,3,0,0,0,0,0,0,0,0,0,0,0,0,0,0,0,0,0,0,0,0,0,0,0,0,0,0,0,0,0,0,0,0],"split_type":[0,0,0,0,0,0,0,0,0,0,0,0,0,0,0,0,0,0,0,0,0,0,0,0,0,0,0,0,0,0,0,0,0,0,0,0,0,0,0,0,0,0,0,0,0,0,0,0,0,0,0,0,0,0,0,0,0,0,0,0,0,0,0,0,0,0,0],"sum_hessian":[1.746E3,1.744E3,2E0,5.5E1,1.689E3,1E0,1E0,2.4E1,3.1E1,1.312E3,3.77E2,1.4E1,1E1,1.6E1,1.5E1,1.176E3,1.36E2,7.7E1,3E2,5E0,9E0,3E0,7E0,2E0,1.4E1,9E0,6E0,2.14E2,9.62E2,6E0,1.3E2,2.4E1,5.3E1,2.7E2,3E1,3E0,2E0,6E0,3E0,1E0,2E0,3E0,4E0,1E0,1E0,2E0,1.2E1,8E0,1E0,5E0,1E0,4.1E1,1.73E2,3E1,9.32E2,1E0,5E0,9.6E1,3.4E1,1E1,1.4E1,5.2E1,1E0,2.68E2,2E0,1E1,2E1],"tree_param":{"num_deleted":"0","num_feature":"4","num_nodes":"67","size_leaf_vector":"1"}},{"base_weights":[5.0635744E-2,-1.730374E-2,3.955189E1,3.2018294E0,-1.23963006E-1,1.6685966E-1,1.7631493E1,6.1000857E0,8.375095E-1,2.3207569E-1,-9.622447E-1,9.379214E0,1.0739936E0,1.20228656E-1,2.0229588E0,-2.820026E-3,2.2100692E0,-1.9650655E-2,-1.619138E0,1.9901578E0,1.2874727E1,3.6621232E0,-3.5432035E-1,1.4344193E0,-2.7337027E-1,4.088711E0,-3.668029E-2,6.575771E-1,-2.4357736E-1,1.2222928E1,1.6075685E0,1.3203206E0,-3.9768147E-1,-9.5571E-1,-1.8082422E0,1.0108047E0,-1.5364479E-1,4.3776703E0,1.20094E0,1.0616963E-1,1.3940696E0,-2.9593542E-1,3.0841458E-1,6.801016E-1,-2.8438863E-1,1.7595717E-1,-2.801846E-1,-3.9561442E-1,1.6301818E0,-2.1548674E-1,6.0794586E-1,1.5927474E-1,2.285729E0,-2.6377642E-1,-2.9411735E-2,1.3195863E1,-1.2059585E-1,1.6360998E-1,1.3174179E0,8.696239E-1,3.0664688E-2,9.145105E-2,-3.0446386E-1,6.1696386E-1,-4.3501905E-1,-7.1457404E-1,-4.990773E-1],"categories":[],"categories_nodes":[],"categories_segments":[],"categories_sizes":[],"default_left":[0,0,0,0,0,0,0,0,0,0,0,0,0,0,0,0,0,0,0,0,0,0,0,0,0,0,0,0,0,0,0,0,0,0,0,0,0,0,0,0,0,0,0,0,0,0,0,0,0,0,0,0,0,0,0,0,0,0,0,0,0,0,0,0,0,0,0],"id":2,"left_children":[1,3,5,7,9,-1,-1,11,13,15,17,19,21,23,25,27,29,31,33,35,37,39,41,43,45,47,49,51,53,55,57,59,61,63,65,-1,-1,-1,-1,-1,-1,-1,-1,-1,-1,-1,-1,-1,-1,-1,-1,-1,-1,-1,-1,-1,-1,-1,-1,-1,-1,-1,-1,-1,-1,-1,-1],"loss_changes":[4.689099E3,5.9954333E2,2.215773E3,3.786258E2,5.0462192E2,0E0,0E0,4.0195685E2,2.6966381E1,5.515127E2,3.120368E2,3.6180542E2,4.196084E1,1.1254673E1,5.1206413E1,1.6901335E2,7.404778E2,1.0588756E2,3.553253E1,2.2432566E1,9.395557E1,1.1386898E1,8.004827E0,1.2066719E1,1.0204248E1,5.0811134E1,1.1299509E1,2.4637338E2,7.198328E1,2.8247427E3,3.5244305E2,8.814736E1,7.098502E1,1.042422E2,1.5123413E1,0E0,0E0,0E0,0E0,0E0,0E0,0E0,0E0,0E0,0E0,0E0,0E0,0E0,0E0,0E0,0E0,0E0,0E0,0E0,0E0,0E0,0E0,0E0,0E0,0E0,0E0,0E0,0E0,0E0,0E0,0E0,0E0],"parents":[2147483647,0,0,1,1,2,2,3,3,4,4,7,7,8,8,9,9,10,10,11,11,12,12,13,13,14,14,15,15,16,16,17,17,18,18,19,19,20,20,21,21,22,22,23,23,24,24,25,25,26,26,27,27,28,28,29,29,30,30,31,31,32,32,33,33,34,34],"right_children":[2,4,6,8,10,-1,-1,12,14,16,18,20,22,24,26,28,30,32,34,36,38,40,42,44,46,48,50,52,54,56,58,60,62,64,66,-1,-1,-1,-1,-1,-1,-1,-1,-1,-1,-1,-1,-1,-1,-1,-1,-1,-1,-1,-1,-1,-1,-1,-1,-1,-1,-1,-1,-1,-1,-1,-1],"split_conditions":[4E1,1.2879752E1,1.0820832E1,1.3583335E1,2.3131732E2,1.6685966E-1,1.7631493E1,2.8455823E2,2.745065E2,2E0,2.2226902E1,1.01954124E2,1.1966953E1,1.5062501E1,3.2647342E2,1.770625E1,2.1E0,2.550112E2,2.5417631E1,1.2343751E1,2.7665906E2,8.979167E0,1E-1,2.4297577E2,1.14862E1,1.1019764E1,1E-1,1.7627085E1,2.0922916E1,1.13E1,3.1353088E1,1.3697919E1,1.6485485E1,2.4297577E2,2.5053735E2,1.0108047E0,-1.5364479E-1,4.3776703E0,1.20094E0,1.0616963E-1,1.3940696E0,-2.9593542E-1,3.0841458E-1,6.801016E-1,-2.8438863E-1,1.7595717E-1,-2.801846E-1,-3.9561442E-1,1.6301818E0,-2.1548674E-1,6.0794586E-1,1.5927474E-1,2.285729E0,-2.6377642E-1,-2.9411735E-2,1.3195863E1,-1.2059585E-1,1.6360998E-1,1.3174179E0,8.696239E-1,3.0664688E-2,9.145105E-2,-3.0446386E-1,6.1696386E-1,-4.3501905E-1,-7.1457404E-1,-4.990773E-1],"split_indices":[1,2,0,0,3,0,0,3,3,1,2,3,2,0,3,0,1,3,2,0,3,0,1,3,2,2,1,0,0,0,2,0,2,3,3,0,0,0,0,0,0,0,0,0,0,0,0,0,0,0,0,0,0,0,0,0,0,0,0,0,0,0,0,0,0,0,0],"split_type":[0,0,0,0,0,0,0,0,0,0,0,0,0,0,0,0,0,0,0,0,0,0,0,0,0,0,0,0,0,0,0,0,0,0,0,0,0,0,0,0,0,0,0,0,0,0,0,0,0,0,0,0,0,0,0,0,0,0,0,0,0,0,0,0,0,0,0],"sum_hessian":[1.746E3,1.744E3,2E0,5.5E1,1.689E3,1E0,1E0,2.4E1,3.1E1,1.186E3,5.03E2,1.4E1,1E1,2E1,1.1E1,1.061E3,1.25E2,2.07E2,2.96E2,5E0,9E0,3E0,7E0,4E0,1.6E1,5E0,6E0,2.83E2,7.78E2,6E0,1.19E2,4.5E1,1.62E2,6.7E1,2.29E2,3E0,2E0,7E0,2E0,1E0,2E0,5E0,2E0,3E0,1E0,7E0,9E0,1E0,4E0,5E0,1E0,2.79E2,4E0,1.44E2,6.34E2,1E0,5E0,8.7E1,3.2E1,1.9E1,2.6E1,7.6E1,8.6E1,9E0,5.8E1,4.3E1,1.86E2],"tree_param":{"num_deleted":"0","num_feature":"4","num_nodes":"67","size_leaf_vector":"1"}},{"base_weights":[6.0647685E-2,2.9193037E-3,3.3619106E1,2.417477E0,-7.709143E-2,1.4183071E-1,1.4986768E1,5.0543633E0,9.267959E-1,-2.826784E-1,7.839616E-1,9.031051E0,1.6506504E0,-1.3851645E0,1.1715325E0,-7.805813E-2,-8.3889896E-1,1.7174069E0,1.06772244E-1,2.611245E0,3.5417242E0,3.4445887E0,3.2310775E-1,-5.00069E-1,-8.099528E-2,3.3234603E0,7.7382684E-1,9.011367E-1,-1.7128035E-1,1.19686775E-1,-1.1282588E0,-6.175675E-1,3.491523E0,1.0470035E0,-6.6433877E-1,9.53332E-1,1.3674903E-1,9.0244174E-2,1.2465987E0,-2.4748589E-1,5.0322205E-1,-6.2672466E-2,1.2776339E0,3.2399023E-1,-2.918609E-1,7.4441195E-3,2.5479538E0,-3.8389894E-1,-3.370316E-2,3.0324244E-1,-1.7214885E-1,-7.6889324E-1,-3.165003E-1,-6.327355E-1,5.4280743E-2,5.1849256E0,8.1282586E-1,6.6929966E-1,1.0172914E-1,-5.820769E-1,7.555987E-2],"categories":[],"categories_nodes":[],"categories_segments":[],"categories_sizes":[],"default_left":[0,0,0,0,0,0,0,0,0,0,0,0,0,0,0,0,0,0,0,0,0,0,0,0,0,0,0,0,0,0,0,0,0,0,0,0,0,0,0,0,0,0,0,0,0,0,0,0,0,0,0,0,0,0,0,0,0,0,0,0,0],"id":3,"left_children":[1,3,5,7,9,-1,-1,11,13,15,17,19,21,23,25,27,29,31,33,35,-1,37,39,-1,-1,41,43,45,47,49,51,53,55,57,59,-1,-1,-1,-1,-1,-1,-1,-1,-1,-1,-1,-1,-1,-1,-1,-1,-1,-1,-1,-1,-1,-1,-1,-1,-1,-1],"loss_changes":[3.3843223E3,3.373039E2,1.6008958E3,2.1543796E2,2.9938754E2,0E0,0E0,2.5580295E2,2.2558163E1,1.5529062E2,2.0588748E2,1.2948938E2,2.7465382E1,8.066921E-1,2.652657E1,9.1345795E1,1.0193213E2,5.696809E2,1.3844987E2,3.4358864E0,0E0,9.922058E0,1.3822322E1,0E0,0E0,1.7409153E1,1.709271E1,5.786073E2,5.9497246E1,5.3728638E1,2.6935455E1,7.18421E1,7.945145E2,7.1325035E1,1.2323391E2,0E0,0E0,0E0,0E0,0E0,0E0,0E0,0E0,0E0,0E0,0E0,0E0,0E0,0E0,0E0,0E0,0E0,0E0,0E0,0E0,0E0,0E0,0E0,0E0,0E0,0E0],"parents":[2147483647,0,0,1,1,2,2,3,3,4,4,7,7,8,8,9,9,10,10,11,11,12,12,13,13,14,14,15,15,16,16,17,17,18,18,19,19,21,21,22,22,25,25,26,26,27,27,28,28,29,29,30,30,31,31,32,32,33,33,34,34],"right_children":[2,4,6,8,10,-1,-1,12,14,16,18,20,22,24,26,28,30,32,34,36,-1,38,40,-1,-1,42,44,46,48,50,52,54,56,58,60,-1,-1,-1,-1,-1,-1,-1,-1,-1,-1,-1,-1,-1,-1,-1,-1,-1,-1,-1,-1,-1,-1,-1,-1,-1,-1],"split_conditions":[4E1,1.2879752E1,1.0820832E1,1.3002082E1,4E-1,1.4183071E-1,1.4986768E1,2.5410466E2,1.475018E1,2.4748407E2,6.82192E1,1.01954124E2,1.1966953E1,1.605E1,1.3583335E1,1.4973576E1,1.7462782E1,4.8503635E1,2.2226902E1,1.1019764E1,3.5417242E0,8.979167E0,1.24811535E1,-5.00069E-1,-8.099528E-2,1.3102084E1,1.1E0,2.025317E2,1.5542662E1,1.2768749E1,2.5053735E2,1.2158333E1,1.13E1,1.6297916E1,1.6824999E1,9.53332E-1,1.3674903E-1,9.0244174E-2,1.2465987E0,-2.4748589E-1,5.0322205E-1,-6.2672466E-2,1.2776339E0,3.2399023E-1,-2.918609E-1,7.4441195E-3,2.5479538E0,-3.8389894E-1,-3.370316E-2,3.0324244E-1,-1.7214885E-1,-7.6889324E-1,-3.165003E-1,-6.327355E-1,5.4280743E-2,5.1849256E0,8.1282586E-1,6.6929966E-1,1.0172914E-1,-5.820769E-1,7.555987E-2],"split_indices":[1,2,0,0,1,0,0,3,3,3,3,3,2,0,0,2,2,3,2,2,0,0,2,0,0,0,1,3,2,0,3,0,0,0,0,0,0,0,0,0,0,0,0,0,0,0,0,0,0,0,0,0,0,0,0,0,0,0,0,0,0],"split_type":[0,0,0,0,0,0,0,0,0,0,0,0,0,0,0,0,0,0,0,0,0,0,0,0,0,0,0,0,0,0,0,0,0,0,0,0,0,0,0,0,0,0,0,0,0,0,0,0,0,0,0,0,0,0,0,0,0,0,0,0,0],"sum_hessian":[1.746E3,1.744E3,2E0,5.5E1,1.689E3,1E0,1E0,1.9E1,3.6E1,1.364E3,3.25E2,8E0,1.1E1,3E0,3.3E1,9.98E2,3.66E2,1.36E2,1.89E2,3E0,5E0,4E0,7E0,2E0,1E0,4E0,2.9E1,8.6E1,9.12E2,8.5E1,2.81E2,5.9E1,7.7E1,8.5E1,1.04E2,2E0,1E0,1E0,3E0,4E0,3E0,1E0,3E0,2.5E1,4E0,7.8E1,8E0,4.5E1,8.67E2,3.7E1,4.8E1,1.2E1,2.69E2,2E1,3.9E1,3E0,7.4E1,3.1E1,5.4E1,4.3E1,6.1E1],"tree_param":{"num_deleted":"0","num_feature":"4","num_nodes":"61","size_leaf_vector":"1"}},{"base_weights":[5.898828E-2,9.927684E-3,2.8576239E1,1.8152769E0,-4.9900413E-2,1.2055607E-1,1.2738752E1,3.8492732E0,6.667578E-1,-8.978337E-2,2.8446505E0,6.307738E0,7.600345E-1,1.4517881E0,1.2579215E-1,1.7784323E-1,-4.1601184E-1,5.6428885E0,-2.1351519E0,2.1003916E0,7.622944E0,2.2926855E0,-2.2434248E-1,-7.956854E-1,2.0799637E0,-7.555777E-1,8.618903E-1,9.204304E-2,1.1318719E1,2.626341E-1,-6.6070116E-1,-8.062801E-1,1.0031921E1,-2.9327185E0,4.375542E-1,7.6266557E-1,1.1623664E-1,2.656293E0,7.8576976E-1,7.6707534E-2,8.659359E-1,-3.567528E-1,1.1982783E-1,-3.6805284E-1,7.466798E-2,1.1957959E0,4.472764E-2,-4.6083423E-1,5.513672E-1,1.2404377E-2,1.60626E0,-3.9660773E-1,5.4806054E-2,1.0438745E1,4.819703E-1,-2.8025255E-2,1.9166223E0,-2.2041038E-1,7.408994E-1,-6.5874857E-1,5.3351825E-1,4.207029E0,4.6100393E-1,-1.0717667E0,-2.6662517E-1,4.885769E-3,1.9201364E-1],"categories":[],"categories_nodes":[],"categories_segments":[],"categories_sizes":[],"default_left":[0,0,0,0,0,0,0,0,0,0,0,0,0,0,0,0,0,0,0,0,0,0,0,0,0,0,0,0,0,0,0,0,0,0,0,0,0,0,0,0,0,0,0,0,0,0,0,0,0,0,0,0,0,0,0,0,0,0,0,0,0,0,0,0,0,0,0],"id":4,"left_children":[1,3,5,7,9,-1,-1,11,13,15,17,19,21,23,25,27,29,31,33,35,37,39,41,43,45,47,49,51,53,55,57,59,61,63,65,-1,-1,-1,-1,-1,-1,-1,-1,-1,-1,-1,-1,-1,-1,-1,-1,-1,-1,-1,-1,-1,-1,-1,-1,-1,-1,-1,-1,-1,-1,-1,-1],"loss_changes":[2.4438975E3,1.8856909E2,1.1566472E3,1.2825414E2,1.9535449E2,0E0,0E0,1.4710156E2,1.5530331E1,1.4570276E2,3.3254587E2,4.4857666E1,1.5601411E1,2.2832111E1,1.5573043E1,8.755087E2,1.2504869E2,4.3267273E2,1.9750362E1,2.0422878E0,2.609967E1,4.0999603E0,4.6878176E0,2.1068635E0,4.356914E1,2.5090473E1,4.7698307E1,1.1701035E2,1.5401897E3,4.3683884E2,1.2991545E2,2.9045757E1,2.8362988E2,5.9795227E0,2.4548572E-1,0E0,0E0,0E0,0E0,0E0,0E0,0E0,0E0,0E0,0E0,0E0,0E0,0E0,0E0,0E0,0E0,0E0,0E0,0E0,0E0,0E0,0E0,0E0,0E0,0E0,0E0,0E0,0E0,0E0,0E0,0E0,0E0],"parents":[2147483647,0,0,1,1,2,2,3,3,4,4,7,7,8,8,9,9,10,10,11,11,12,12,13,13,14,14,15,15,16,16,17,17,18,18,19,19,20,20,21,21,22,22,23,23,24,24,25,25,26,26,27,27,28,28,29,29,30,30,31,31,32,32,33,33,34,34],"right_children":[2,4,6,8,10,-1,-1,12,14,16,18,20,22,24,26,28,30,32,34,36,38,40,42,44,46,48,50,52,54,56,58,60,62,64,66,-1,-1,-1,-1,-1,-1,-1,-1,-1,-1,-1,-1,-1,-1,-1,-1,-1,-1,-1,-1,-1,-1,-1,-1,-1,-1,-1,-1,-1,-1,-1,-1],"split_conditions":[4E1,1.2879752E1,1.0820832E1,1.3002082E1,1.4400001E1,1.2055607E-1,1.2738752E1,2.8455823E2,1.4487498E1,2.2380884E1,6.6999466E1,1.01954124E2,1.1966953E1,1.2022365E2,1.6685417E1,2.233161E1,7.175596E1,1.3239585E1,2.91E1,1.1019764E1,2.5410466E2,8.979167E0,3.3479886E2,5.1E0,2.898675E2,1.1966953E1,2.661822E2,2.7377642E1,1.13E1,3.9081146E1,4.8E0,5.0389313E1,1.52E1,2.4980553E2,1.770625E1,7.6266557E-1,1.1623664E-1,2.656293E0,7.8576976E-1,7.6707534E-2,8.659359E-1,-3.567528E-1,1.1982783E-1,-3.6805284E-1,7.466798E-2,1.1957959E0,4.472764E-2,-4.6083423E-1,5.513672E-1,1.2404377E-2,1.60626E0,-3.9660773E-1,5.4806054E-2,1.0438745E1,4.819703E-1,-2.8025255E-2,1.9166223E0,-2.2041038E-1,7.408994E-1,-6.5874857E-1,5.3351825E-1,4.207029E0,4.6100393E-1,-1.0717667E0,-2.6662517E-1,4.885769E-3,1.9201364E-1],"split_indices":[1,2,0,0,1,0,0,3,0,2,3,3,2,3,0,2,3,0,1,2,3,0,3,1,3,2,3,3,0,2,1,3,0,3,0,0,0,0,0,0,0,0,0,0,0,0,0,0,0,0,0,0,0,0,0,0,0,0,0,0,0,0,0,0,0,0,0],"split_type":[0,0,0,0,0,0,0,0,0,0,0,0,0,0,0,0,0,0,0,0,0,0,0,0,0,0,0,0,0,0,0,0,0,0,0,0,0,0,0,0,0,0,0,0,0,0,0,0,0,0,0,0,0,0,0,0,0,0,0,0,0,0,0,0,0,0,0],"sum_hessian":[1.746E3,1.744E3,2E0,5.5E1,1.689E3,1E0,1E0,1.9E1,3.6E1,1.667E3,2.2E1,1E1,9E0,1.4E1,2.2E1,9.16E2,7.51E2,1.4E1,8E0,3E0,7E0,3E0,6E0,3E0,1.1E1,1E1,1.2E1,9.1E2,6E0,1.99E2,5.52E2,6E0,8E0,6E0,2E0,2E0,1E0,5E0,2E0,1E0,2E0,2E0,4E0,2E0,1E0,5E0,6E0,8E0,2E0,1.1E1,1E0,5.4E1,8.56E2,1E0,5E0,1.89E2,1E1,5.4E2,1.2E1,4E0,2E0,5E0,3E0,4E0,2E0,1E0,1E0],"tree_param":{"num_deleted":"0","num_feature":"4","num_nodes":"67","size_leaf_vector":"1"}},{"base_weights":[6.243174E-2,2.0744322E-2,2.4289803E1,8.644925E-1,-6.263466E-2,1.0247269E-1,1.0827939E1,-9.245088E-1,1.4840186E0,4.6721977E-1,-2.295593E-1,1.2125942E-1,-1.5325004E0,2.6022618E0,2.6126683E-1,1.0993004E0,-1.0607176E0,8.584747E-3,-5.9885144E-1,1.7907523E0,-4.0175834E-1,-2.1461055E0,8.70534E-1,6.0666213E0,4.9245316E-1,2.1920366E0,-5.2881643E-2,-4.5957446E-1,1.7012244E0,-6.148177E-1,-2.2059782E0,-4.5433186E-2,4.929896E0,-7.3384297E-1,7.0437586E-1,7.688493E-1,2.0373474E-1,-2.4157716E-1,6.660342E-1,-2.9951447E-1,-6.845782E-1,4.0175822E-1,-1.335721E-2,1.2874861E0,4.027492E0,-6.481017E-1,2.3205858E-1,1.0951344E0,1.7607003E-1,2.9109216E-1,-2.481811E-1,-1.0725753E-1,-6.621247E-1,-6.437732E-1,6.1712724E-1,-2.5536123E-1,4.1913489E-1,-8.4779984E-1,-2.9663345E-1,-9.454124E-2,7.0945784E-2,3.5743272E0,1.8479468E-1,-2.3733728E-1,2.1128698E-1,-1.06194496E-1,4.9355638E-1],"categories":[],"categories_nodes":[],"categories_segments":[],"categories_sizes":[],"default_left":[0,0,0,0,0,0,0,0,0,0,0,0,0,0,0,0,0,0,0,0,0,0,0,0,0,0,0,0,0,0,0,0,0,0,0,0,0,0,0,0,0,0,0,0,0,0,0,0,0,0,0,0,0,0,0,0,0,0,0,0,0,0,0,0,0,0,0],"id":5,"left_children":[1,3,5,7,9,-1,-1,11,13,15,17,19,21,23,25,27,29,31,33,35,37,39,41,43,45,47,49,51,53,55,57,59,61,63,65,-1,-1,-1,-1,-1,-1,-1,-1,-1,-1,-1,-1,-1,-1,-1,-1,-1,-1,-1,-1,-1,-1,-1,-1,-1,-1,-1,-1,-1,-1,-1,-1],"loss_changes":[1.7639252E3,1.228164E2,8.356776E2,1.7538026E2,1.4064757E2,0E0,0E0,2.625438E1,1.5929816E2,3.6912805E2,1.0633031E2,1.469024E1,4.0205624E1,4.4286978E2,3.4689175E1,2.5412946E2,5.5838936E1,1.9588152E2,8.390523E1,1.6926241E0,1.5540755E1,9.953613E-1,2.6327329E0,2.4279004E2,3.0750835E1,1.6585144E1,4.042E1,1.2764154E1,2.7138208E2,4.0187912E1,2.0601105E1,5.5503887E1,2.3370613E2,3.597969E1,4.5389565E1,0E0,0E0,0E0,0E0,0E0,0E0,0E0,0E0,0E0,0E0,0E0,0E0,0E0,0E0,0E0,0E0,0E0,0E0,0E0,0E0,0E0,0E0,0E0,0E0,0E0,0E0,0E0,0E0,0E0,0E0,0E0,0E0],"parents":[2147483647,0,0,1,1,2,2,3,3,4,4,7,7,8,8,9,9,10,10,11,11,12,12,13,13,14,14,15,15,16,16,17,17,18,18,19,19,20,20,21,21,22,22,23,23,24,24,25,25,26,26,27,27,28,28,29,29,30,30,31,31,32,32,33,33,34,34],"right_children":[2,4,6,8,10,-1,-1,12,14,16,18,20,22,24,26,28,30,32,34,36,38,40,42,44,46,48,50,52,54,56,58,60,62,64,66,-1,-1,-1,-1,-1,-1,-1,-1,-1,-1,-1,-1,-1,-1,-1,-1,-1,-1,-1,-1,-1,-1,-1,-1,-1,-1,-1,-1,-1,-1,-1,-1],"split_conditions":[4E1,1.4654254E1,1.0820832E1,6.657137E1,7.125045E1,1.0247269E-1,1.0827939E1,1.3044722E1,2.550112E2,2.1270832E1,2.3950148E1,1.1791667E1,1.4255272E1,1.5062501E1,1.0999999E1,3.4056774E1,4E-1,2.3893261E1,2.7525E1,1.0999999E1,2.0716665E1,7.666687E0,2.437475E1,1.4007655E1,1.5770832E1,3.0563818E2,1.2879752E1,3.457687E1,1.120625E1,2E-1,2.4597918E1,2.1708334E1,1.8964582E1,4.8E0,8.202508E1,7.688493E-1,2.0373474E-1,-2.4157716E-1,6.660342E-1,-2.9951447E-1,-6.845782E-1,4.0175822E-1,-1.335721E-2,1.2874861E0,4.027492E0,-6.481017E-1,2.3205858E-1,1.0951344E0,1.7607003E-1,2.9109216E-1,-2.481811E-1,-1.0725753E-1,-6.621247E-1,-6.437732E-1,6.1712724E-1,-2.5536123E-1,4.1913489E-1,-8.4779984E-1,-2.9663345E-1,-9.454124E-2,7.0945784E-2,3.5743272E0,1.8479468E-1,-2.3733728E-1,2.1128698E-1,-1.06194496E-1,4.9355638E-1],"split_indices":[1,2,0,3,3,0,0,2,3,0,2,0,2,0,0,3,1,2,0,0,0,3,3,2,0,3,2,2,0,1,0,0,0,1,3,0,0,0,0,0,0,0,0,0,0,0,0,0,0,0,0,0,0,0,0,0,0,0,0,0,0,0,0,0,0,0,0],"split_type":[0,0,0,0,0,0,0,0,0,0,0,0,0,0,0,0,0,0,0,0,0,0,0,0,0,0,0,0,0,0,0,0,0,0,0,0,0,0,0,0,0,0,0,0,0,0,0,0,0,0,0,0,0,0,0,0,0,0,0,0,0,0,0,0,0,0,0],"sum_hessian":[1.746E3,1.744E3,2E0,1.56E2,1.588E3,1E0,1E0,4E1,1.16E2,3.8E2,1.208E3,1.5E1,2.5E1,6E1,5.6E1,2.69E2,1.11E2,7.35E2,4.73E2,3E0,1.2E1,2E1,5E0,2.2E1,3.8E1,7E0,4.9E1,7.5E1,1.94E2,8.1E1,3E1,7.28E2,7E0,4.29E2,4.4E1,1E0,2E0,1.1E1,1E0,3E0,1.7E1,3E0,2E0,1.9E1,3E0,3E0,3.5E1,3E0,4E0,2.1E1,2.8E1,7.2E1,3E0,1.6E1,1.78E2,7.3E1,8E0,1.9E1,1.1E1,3.72E2,3.56E2,2E0,5E0,4.13E2,1.6E1,2.1E1,2.3E1],"tree_param":{"num_deleted":"0","num_feature":"4","num_nodes":"67","size_leaf_vector":"1"}},{"base_weights":[5.5302028E-2,1.9870285E-2,2.0646332E1,3.7609175E-1,-1.0346303E-1,8.710177E-2,9.203748E0,2.711394E-1,6.1276975E0,-1.5384714E-1,1.1305064E0,7.4092275E-1,-5.0689256E-1,4.974552E0,2.265414E0,-2.2124882E-1,4.1716897E-1,6.419068E-1,8.734132E0,4.9992472E-1,3.8007016E0,-6.9722694E-1,2.9120018E0,-1.8766716E0,2.5241256E0,-1.791897E0,-1.9966899E-1,-2.4694622E-1,1.2953372E0,7.382114E0,1.9802323E-1,3.9236622E0,6.697083E-3,-8.547634E-2,2.4385568E-1,2.759728E-1,8.780364E0,-3.7070423E-1,-4.9038164E-2,3.094068E0,-2.0282832E-1,-6.759362E-1,-5.5631198E-2,-7.16172E-1,-2.3114128E-1,1.0681123E-1,-8.0381595E-2,-3.357941E-1,7.6976754E-2,6.998493E-2,6.535701E-1,3.0662305E0,2.5572088E-1,1.5648191E0,-1.1702251E-1],"categories":[],"categories_nodes":[],"categories_segments":[],"categories_sizes":[],"default_left":[0,0,0,0,0,0,0,0,0,0,0,0,0,0,0,0,0,0,0,0,0,0,0,0,0,0,0,0,0,0,0,0,0,0,0,0,0,0,0,0,0,0,0,0,0,0,0,0,0,0,0,0,0,0,0],"id":6,"left_children":[1,3,5,7,9,-1,-1,11,13,15,17,19,21,-1,23,25,27,29,31,33,35,37,39,41,-1,43,45,47,49,51,53,-1,-1,-1,-1,-1,-1,-1,-1,-1,-1,-1,-1,-1,-1,-1,-1,-1,-1,-1,-1,-1,-1,-1,-1],"loss_changes":[1.274159E3,7.67037E1,6.03777E2,2.693749E2,8.0811584E1,0E0,0E0,1.6192943E2,2.8545013E2,4.8086147E1,1.8386505E2,2.0162257E2,1.1070273E2,0E0,1.9405844E2,3.746828E1,7.730292E1,1.4513966E2,1.13259705E2,6.335076E1,1.4403892E3,4.549598E1,2.4599046E2,2.7655067E0,0E0,7.282181E0,4.1902943E1,3.367156E1,5.2959923E1,4.689456E1,1.4073639E2,0E0,0E0,0E0,0E0,0E0,0E0,0E0,0E0,0E0,0E0,0E0,0E0,0E0,0E0,0E0,0E0,0E0,0E0,0E0,0E0,0E0,0E0,0E0,0E0],"parents":[2147483647,0,0,1,1,2,2,3,3,4,4,7,7,8,8,9,9,10,10,11,11,12,12,14,14,15,15,16,16,17,17,18,18,19,19,20,20,21,21,22,22,23,23,25,25,26,26,27,27,28,28,29,29,30,30],"right_children":[2,4,6,8,10,-1,-1,12,14,16,18,20,22,-1,24,26,28,30,32,34,36,38,40,42,-1,44,46,48,50,52,54,-1,-1,-1,-1,-1,-1,-1,-1,-1,-1,-1,-1,-1,-1,-1,-1,-1,-1,-1,-1,-1,-1,-1,-1],"split_conditions":[4E1,1.4529166E1,1.0820832E1,1.4487498E1,5.299999E0,8.710177E-2,9.203748E0,2.334455E1,1.5596767E1,2.7575003E1,3.714286E1,2.233161E1,1.66E1,4.974552E0,3.2686733E1,1.4670834E1,1.1750086E2,5.5E0,1.8833334E1,6.2867386E1,6E-1,1.3002082E1,1.76E1,2.596995E1,2.5241256E0,2.0771093E1,5.6309914E1,2.0833395E1,1.8391735E1,1.7145834E1,1.52E1,3.9236622E0,6.697083E-3,-8.547634E-2,2.4385568E-1,2.759728E-1,8.780364E0,-3.7070423E-1,-4.9038164E-2,3.094068E0,-2.0282832E-1,-6.759362E-1,-5.5631198E-2,-7.16172E-1,-2.3114128E-1,1.0681123E-1,-8.0381595E-2,-3.357941E-1,7.6976754E-2,6.998493E-2,6.535701E-1,3.0662305E0,2.5572088E-1,1.5648191E0,-1.1702251E-1],"split_indices":[1,0,0,0,1,0,0,2,2,0,2,2,1,0,2,0,3,1,0,3,1,0,1,2,0,2,3,2,2,0,0,0,0,0,0,0,0,0,0,0,0,0,0,0,0,0,0,0,0,0,0,0,0,0,0],"split_type":[0,0,0,0,0,0,0,0,0,0,0,0,0,0,0,0,0,0,0,0,0,0,0,0,0,0,0,0,0,0,0,0,0,0,0,0,0,0,0,0,0,0,0,0,0,0,0,0,0,0,0,0,0,0,0],"sum_hessian":[1.746E3,1.744E3,2E0,4.48E2,1.296E3,1E0,1E0,4.41E2,7E0,1.246E3,5E1,2.75E2,1.66E2,1E0,6E0,1.115E3,1.31E2,4.8E1,2E0,2.56E2,1.9E1,1.58E2,8E0,4E0,2E0,1.4E1,1.101E3,7.5E1,5.6E1,2E0,4.6E1,1E0,1E0,7.3E1,1.83E2,1.8E1,1E0,7.8E1,8E1,2E0,6E0,3E0,1E0,8E0,6E0,1.2E2,9.81E2,2.7E1,4.8E1,2.6E1,3E1,1E0,1E0,4E0,4.2E1],"tree_param":{"num_deleted":"0","num_feature":"4","num_nodes":"55","size_leaf_vector":"1"}},{"base_weights":[5.9311308E-2,2.9208431E-2,1.754938E1,1.1631716E0,1.2414912E-3,7.403648E-2,7.823185E0,3.0042093E0,3.2661632E-1,-8.7477535E-2,3.7510565E-1,4.8312497E0,7.4799603E-1,-1.5789683E-1,1.3114322E0,1.7524984E-1,-1.9625126E-1,7.4881524E-1,-1.8974857E-1,1.2955364E0,1.7959286E0,1.6169529E0,-2.8487924E-1,-6.395405E-1,8.9675343E-1,4.6921054E-1,1.3337142E0,8.128042E-2,2.6067717E0,-2.9043207E-1,3.2367945E-1,6.2484586E-1,5.3842707E0,-1.2725302E0,2.8308854E-1,6.663433E-1,-8.33519E-2,2.2125721E-3,6.052511E-1,2.7983585E-1,-3.331063E-1,-6.1904587E-2,7.309018E-1,3.0141392E-1,-1.3540378E-1,3.68524E-1,-2.8476218E-2,2.7745721E0,2.6205817E-1,-5.353816E-1,-7.986377E-2,-2.698354E-1,1.9889952E-1,3.9011255E-1,2.8257037E-3,3.5154516E-1,3.3351128E0,-4.4699255E-1,5.717846E-1,-3.276887E-1,1.9680847E-1],"categories":[],"categories_nodes":[],"categories_segments":[],"categories_sizes":[],"default_left":[0,0,0,0,0,0,0,0,0,0,0,0,0,0,0,0,0,0,0,0,0,0,0,0,0,0,0,0,0,0,0,0,0,0,0,0,0,0,0,0,0,0,0,0,0,0,0,0,0,0,0,0,0,0,0,0,0,0,0,0,0],"id":7,"left_children":[1,3,5,7,9,-1,-1,11,13,15,17,19,21,23,25,27,29,31,33,35,-1,37,-1,39,41,43,-1,45,47,49,51,53,55,57,59,-1,-1,-1,-1,-1,-1,-1,-1,-1,-1,-1,-1,-1,-1,-1,-1,-1,-1,-1,-1,-1,-1,-1,-1,-1,-1],"loss_changes":[9.192853E2,5.533858E1,4.3622894E2,6.3704235E1,5.6552555E1,0E0,0E0,4.9974754E1,1.4521758E1,3.9414654E1,6.916899E1,2.0835037E1,1.18614025E1,1.12407875E1,2.4311628E1,9.209756E1,4.7837322E1,1.0984261E2,6.742953E1,4.9861093E0,0E0,3.2087078E0,0E0,1.2139819E1,1.2390976E1,4.890116E0,0E0,7.894578E1,1.6459912E2,2.9416313E1,6.2851055E1,8.022535E1,1.0771803E2,3.048558E1,4.7906628E1,0E0,0E0,0E0,0E0,0E0,0E0,0E0,0E0,0E0,0E0,0E0,0E0,0E0,0E0,0E0,0E0,0E0,0E0,0E0,0E0,0E0,0E0,0E0,0E0,0E0,0E0],"parents":[2147483647,0,0,1,1,2,2,3,3,4,4,7,7,8,8,9,9,10,10,11,11,12,12,13,13,14,14,15,15,16,16,17,17,18,18,19,19,21,21,23,23,24,24,25,25,27,27,28,28,29,29,30,30,31,31,32,32,33,33,34,34],"right_children":[2,4,6,8,10,-1,-1,12,14,16,18,20,22,24,26,28,30,32,34,36,-1,38,-1,40,42,44,-1,46,48,50,52,54,56,58,60,-1,-1,-1,-1,-1,-1,-1,-1,-1,-1,-1,-1,-1,-1,-1,-1,-1,-1,-1,-1,-1,-1,-1,-1,-1,-1],"split_conditions":[4E1,1.2287555E1,1.0820832E1,1.3002082E1,4E-1,7.403648E-2,7.823185E0,2.5410466E2,1.6685417E1,1.7673029E1,1.9122915E1,1.01954124E2,1.1966953E1,1.1659777E1,2.661822E2,1.757744E1,2.666458E1,1.8754164E1,7.0116425E1,1.0999999E1,1.7959286E0,8.979167E0,-2.8487924E-1,1.01887E1,1E-1,1.14862E1,1.3337142E0,1.2279167E1,6.94247E1,1.7873554E1,7.8111404E1,6.3807846E1,1E0,3.925321E1,2.0716665E1,6.663433E-1,-8.33519E-2,2.2125721E-3,6.052511E-1,2.7983585E-1,-3.331063E-1,-6.1904587E-2,7.309018E-1,3.0141392E-1,-1.3540378E-1,3.68524E-1,-2.8476218E-2,2.7745721E0,2.6205817E-1,-5.353816E-1,-7.986377E-2,-2.698354E-1,1.9889952E-1,3.9011255E-1,2.8257037E-3,3.5154516E-1,3.3351128E0,-4.4699255E-1,5.717846E-1,-3.276887E-1,1.9680847E-1],"split_indices":[1,2,0,0,1,0,0,3,0,2,0,3,2,2,3,2,0,0,3,0,0,0,0,2,1,2,0,0,3,2,3,3,1,2,0,0,0,0,0,0,0,0,0,0,0,0,0,0,0,0,0,0,0,0,0,0,0,0,0,0,0],"split_type":[0,0,0,0,0,0,0,0,0,0,0,0,0,0,0,0,0,0,0,0,0,0,0,0,0,0,0,0,0,0,0,0,0,0,0,0,0,0,0,0,0,0,0,0,0,0,0,0,0,0,0,0,0,0,0,0,0,0,0,0,0],"sum_hessian":[1.746E3,1.744E3,2E0,4.1E1,1.703E3,1E0,1E0,1.2E1,2.9E1,1.377E3,3.26E2,6E0,6E0,2E1,9E0,4.03E2,9.74E2,1.96E2,1.3E2,2E0,4E0,4E0,2E0,1.4E1,6E0,8E0,1E0,3.89E2,1.4E1,8.25E2,1.49E2,1.92E2,4E0,3.9E1,9.1E1,1E0,1E0,1E0,3E0,3E0,1.1E1,4E0,2E0,5E0,3E0,5.1E1,3.38E2,2E0,1.2E1,1.2E1,8.13E2,3.2E1,1.17E2,9.1E1,1.01E2,3E0,1E0,3.7E1,2E0,1.9E1,7.2E1],"tree_param":{"num_deleted":"0","num_feature":"4","num_nodes":"61","size_leaf_vector":"1"}},{"base_weights":[5.266736E-2,2.7082503E-2,1.4916971E1,8.800186E-2,-4.0003616E-1,6.2930994E-2,6.6497064E0,2.004166E-2,1.6680281E0,1.3919785E0,-5.488689E-1,-1.773679E-1,2.0977084E-1,4.066813E0,-1.714102E-2,2.9779148E-1,2.8348458E0,-4.19686E-1,-1.4466965E0,1.5659311E0,-2.6618263E-1,4.7201684E-1,-2.4041803E-1,-1.0037518E0,5.987745E0,1.6029982E-1,-1.2203106E0,-1.7396357E0,2.0757499E0,-4.722224E-1,1.3318884E0,-3.2738812E0,-8.262063E-1,4.8020396E-2,7.404792E0,-3.3938702E-2,-2.6327142E-1,6.9398427E-1,8.757372E-2,-8.565285E-2,8.691539E-1,-3.1991705E-1,-8.479235E-2,2.7453914E0,4.3675992E-1,-9.0013305E-3,4.7852483E-1,-1.0336288E-1,-4.0593505E-1,1.0877631E-1,-6.275255E-1,1.278849E0,-1.5794407E-1,-1.774582E-1,1.0569614E-1,-1.5765979E0,1.3780184E-1,1.3114123E-1,-6.399792E-1],"categories":[],"categories_nodes":[],"categories_segments":[],"categories_sizes":[],"default_left":[0,0,0,0,0,0,0,0,0,0,0,0,0,0,0,0,0,0,0,0,0,0,0,0,0,0,0,0,0,0,0,0,0,0,0,0,0,0,0,0,0,0,0,0,0,0,0,0,0,0,0,0,0,0,0,0,0,0,0],"id":8,"left_children":[1,3,5,7,9,-1,-1,11,13,15,17,19,21,23,25,27,-1,29,31,33,35,37,39,41,43,45,47,49,51,53,-1,55,57,-1,-1,-1,-1,-1,-1,-1,-1,-1,-1,-1,-1,-1,-1,-1,-1,-1,-1,-1,-1,-1,-1,-1,-1,-1,-1],"loss_changes":[6.639821E2,4.543975E1,3.151753E2,1.6404156E2,5.890689E1,0E0,0E0,5.4945286E1,2.5473828E2,1.4706516E2,2.282161E1,1.1174006E2,8.842253E1,2.5925558E2,8.308289E0,6.1570423E1,0E0,4.753827E1,2.5638847E1,1.1335114E3,6.399977E1,1.5618091E2,3.987535E1,5.9947968E-2,2.5907745E2,9.3314E0,1.1533022E-1,6.680252E0,5.3465866E1,1.7620258E1,0E0,4.6797012E1,3.3957787E1,0E0,0E0,0E0,0E0,0E0,0E0,0E0,0E0,0E0,0E0,0E0,0E0,0E0,0E0,0E0,0E0,0E0,0E0,0E0,0E0,0E0,0E0,0E0,0E0,0E0,0E0],"parents":[2147483647,0,0,1,1,2,2,3,3,4,4,7,7,8,8,9,9,10,10,11,11,12,12,13,13,14,14,15,15,17,17,18,18,19,19,20,20,21,21,22,22,23,23,24,24,25,25,26,26,27,27,28,28,29,29,31,31,32,32],"right_children":[2,4,6,8,10,-1,-1,12,14,16,18,20,22,24,26,28,-1,30,32,34,36,38,40,42,44,46,48,50,52,54,-1,56,58,-1,-1,-1,-1,-1,-1,-1,-1,-1,-1,-1,-1,-1,-1,-1,-1,-1,-1,-1,-1,-1,-1,-1,-1,-1,-1],"split_conditions":[4E1,3.2862694E1,1.0820832E1,3.1487139E1,4.9521538E1,6.2930994E-2,6.6497064E0,1.2479611E2,8.2231895E1,4.8503635E1,2.1000001E0,1.13E1,2.619644E2,4.6688362E1,1.2000002E0,1.1649999E1,2.8348458E0,2.1E0,1.2506248E1,5.2549374E1,5E-1,1.4529915E1,8.6E0,2.8999999E0,2.1062498E1,8.000001E-1,1.3697919E1,3.3353954E1,1.8833334E1,4.2493725E1,1.3318884E0,5.3445015E1,1.4529166E1,4.8020396E-2,7.404792E0,-3.3938702E-2,-2.6327142E-1,6.9398427E-1,8.757372E-2,-8.565285E-2,8.691539E-1,-3.1991705E-1,-8.479235E-2,2.7453914E0,4.3675992E-1,-9.0013305E-3,4.7852483E-1,-1.0336288E-1,-4.0593505E-1,1.0877631E-1,-6.275255E-1,1.278849E0,-1.5794407E-1,-1.774582E-1,1.0569614E-1,-1.5765979E0,1.3780184E-1,1.3114123E-1,-6.399792E-1],"split_indices":[1,2,0,2,3,0,0,3,3,3,1,0,3,3,1,0,0,1,0,3,1,2,1,1,0,1,0,2,0,2,0,3,0,0,0,0,0,0,0,0,0,0,0,0,0,0,0,0,0,0,0,0,0,0,0,0,0,0,0],"split_type":[0,0,0,0,0,0,0,0,0,0,0,0,0,0,0,0,0,0,0,0,0,0,0,0,0,0,0,0,0,0,0,0,0,0,0,0,0,0,0,0,0,0,0,0,0,0,0,0,0,0,0,0,0,0,0,0,0,0,0],"sum_hessian":[1.746E3,1.744E3,2E0,1.527E3,2.17E2,1E0,1E0,1.465E3,6.2E1,1.6E1,2.01E2,7.18E2,7.47E2,2.5E1,3.7E1,1.5E1,1E0,1.77E2,2.4E1,3.4E1,6.84E2,4.72E2,2.75E2,7E0,1.8E1,3.3E1,4E0,7E0,8E0,1.76E2,1E0,5E0,1.9E1,3.3E1,1E0,5.48E2,1.36E2,4.1E1,4.31E2,2.72E2,3E0,6E0,1E0,1E1,8E0,3E1,3E0,1E0,3E0,1E0,6E0,4E0,4E0,1.54E2,2.2E1,3E0,2E0,1E1,9E0],"tree_param":{"num_deleted":"0","num_feature":"4","num_nodes":"59","size_leaf_vector":"1"}},{"base_weights":[4.8842303E-2,2.7099844E-2,1.2679426E1,1.0619254E-2,1.1605396E0,5.349133E-2,5.652251E0,8.8803005E-1,-1.0787326E-2,3.1833918E0,-1.2961662E0,2.13567E0,2.9812142E-1,8.0098994E-2,-1.9044968E-1,-6.2168884E-1,6.1149135E0,-1.7709174E0,9.606558E-2,3.3231468E0,6.430975E-1,-7.229623E-2,1.0091445E0,2.1747187E-2,4.365562E0,-6.947027E-1,-7.2485596E-2,-1.3484402E0,2.390379E-1,9.010273E0,9.669862E-1,-2.7989926E-2,-1.9689572E0,1.8640152E-1,-2.2196293E-1,3.7463695E-1,1.3700151E0,3.9656466E-1,-2.1077284E-1,-1.1387236E-1,3.7551317E-1,8.160263E-2,1.1465051E0,-1.4042167E-2,2.2489148E-1,4.5467544E0,-2.8079465E-1,-1.035301E0,-1.2190762E-1,9.398465E-1,-3.6556717E-2,-4.4534907E-1,-1.2063203E-1,3.1236231E0,5.104583E-1,3.7618002E-1,1.5921736E-2,-6.6598654E-1,-3.179598E-2],"categories":[],"categories_nodes":[],"categories_segments":[],"categories_sizes":[],"default_left":[0,0,0,0,0,0,0,0,0,0,0,0,0,0,0,0,0,0,0,0,0,0,0,0,0,0,0,0,0,0,0,0,0,0,0,0,0,0,0,0,0,0,0,0,0,0,0,0,0,0,0,0,0,0,0,0,0,0,0],"id":9,"left_children":[1,3,5,7,9,-1,-1,11,13,15,17,19,21,23,25,27,29,31,33,35,37,39,41,43,45,47,49,51,-1,53,55,-1,57,-1,-1,-1,-1,-1,-1,-1,-1,-1,-1,-1,-1,-1,-1,-1,-1,-1,-1,-1,-1,-1,-1,-1,-1,-1,-1],"loss_changes":[4.794175E2,3.258385E1,2.2771417E2,3.2334026E1,1.2836502E2,0E0,0E0,2.9539047E1,2.7464054E1,1.5996704E2,8.101688E0,2.0904034E1,7.710848E0,2.7922717E2,3.355796E1,8.290613E0,1.10527985E2,2.8064137E0,2.216104E0,1.2354393E1,7.322681E0,8.611888E0,1.96927E1,5.5074944E1,8.7226324E2,8.363724E1,7.301686E1,4.6848297E-2,0E0,3.351071E1,9.8243E-1,0E0,3.5055237E0,0E0,0E0,0E0,0E0,0E0,0E0,0E0,0E0,0E0,0E0,0E0,0E0,0E0,0E0,0E0,0E0,0E0,0E0,0E0,0E0,0E0,0E0,0E0,0E0,0E0,0E0],"parents":[2147483647,0,0,1,1,2,2,3,3,4,4,7,7,8,8,9,9,10,10,11,11,12,12,13,13,14,14,15,15,16,16,17,17,18,18,19,19,20,20,21,21,22,22,23,23,24,24,25,25,26,26,27,27,29,29,30,30,32,32],"right_children":[2,4,6,8,10,-1,-1,12,14,16,18,20,22,24,26,28,30,32,34,36,38,40,42,44,46,48,50,52,-1,54,56,-1,58,-1,-1,-1,-1,-1,-1,-1,-1,-1,-1,-1,-1,-1,-1,-1,-1,-1,-1,-1,-1,-1,-1,-1,-1,-1,-1],"split_conditions":[4E1,1.43E1,1.0820832E1,1.2287555E1,6.0599777E1,5.349133E-2,5.652251E0,1.3002082E1,2.141145E2,1.3239585E1,1.7931248E1,2.5410466E2,1.6685417E1,2.0685252E2,2.4106471E2,5.0389313E1,1.52E1,1.1659777E1,2.5135416E1,2.2772633E2,1.1966953E1,1.1966953E1,2.661822E2,1.796669E2,1.5596767E1,1.6179987E1,2.4297577E2,1.1685417E1,2.390379E-1,1.76E1,1.8656248E1,-2.7989926E-2,2.91E1,1.8640152E-1,-2.2196293E-1,3.7463695E-1,1.3700151E0,3.9656466E-1,-2.1077284E-1,-1.1387236E-1,3.7551317E-1,8.160263E-2,1.1465051E0,-1.4042167E-2,2.2489148E-1,4.5467544E0,-2.8079465E-1,-1.035301E0,-1.2190762E-1,9.398465E-1,-3.6556717E-2,-4.4534907E-1,-1.2063203E-1,3.1236231E0,5.104583E-1,3.7618002E-1,1.5921736E-2,-6.6598654E-1,-3.179598E-2],"split_indices":[1,1,0,2,3,0,0,0,3,0,0,3,0,3,3,3,0,2,0,3,2,2,3,3,2,2,3,0,0,1,0,0,1,0,0,0,0,0,0,0,0,0,0,0,0,0,0,0,0,0,0,0,0,0,0,0,0,0,0],"split_type":[0,0,0,0,0,0,0,0,0,0,0,0,0,0,0,0,0,0,0,0,0,0,0,0,0,0,0,0,0,0,0,0,0,0,0,0,0,0,0,0,0,0,0,0,0,0,0,0,0,0,0,0,0,0,0,0,0,0,0],"sum_hessian":[1.746E3,1.744E3,2E0,1.72E3,2.4E1,1E0,1E0,4E1,1.68E3,1.3E1,1.1E1,1.2E1,2.8E1,1.116E3,5.64E2,6E0,7E0,8E0,3E0,6E0,6E0,1.9E1,9E0,1.102E3,1.4E1,1.06E2,4.58E2,4E0,2E0,4E0,3E0,1E0,7E0,2E0,1E0,3E0,3E0,4E0,2E0,1.6E1,3E0,8E0,1E0,1.008E3,9.4E1,4E0,1E1,9E0,9.7E1,6E0,4.52E2,3E0,1E0,3E0,1E0,2E0,1E0,6E0,1E0],"tree_param":{"num_deleted":"0","num_feature":"4","num_nodes":"59","size_leaf_vector":"1"}},{"base_weights":[4.3512397E-2,2.5033593E-2,1.0777513E1,1.20366685E-1,-1.6915786E-1,4.5467664E-2,4.804413E0,4.6646435E-2,1.1819066E0,-6.203152E-1,6.9434896E-2,3.8224712E-1,-9.2238195E-2,1.4671719E0,-8.475625E-1,-7.0031935E-1,-5.4566425E-1,1.7573237E0,4.325336E-3,4.1718476E-2,1.3742548E0,7.5717187E-1,-2.0198421E-1,1.2902118E0,4.81225E0,-2.8283936E-1,-6.21291E-1,1.0514152E0,-7.068172E-1,2.5083485E0,-4.0079314E-2,-8.386452E-1,1.0806225E-1,-3.5567466E-2,7.912532E-1,-3.722289E-1,7.628881E-1,6.711992E-1,5.2869387E-2,-9.777759E-2,6.372692E-2,4.8571596E-1,-2.8074202E-1,1.2197235E-1,2.0435405E0,-1.1690696E-1,6.976712E-2,7.745327E-2,1.4794633E0,-3.2440326E-1,-4.289528E-2,9.5576346E-2,-2.5111815E-1,-4.0157303E-1,1.8031336E-1,4.7111586E-1,1.4094452E-2],"categories":[],"categories_nodes":[],"categories_segments":[],"categories_sizes":[],"default_left":[0,0,0,0,0,0,0,0,0,0,0,0,0,0,0,0,0,0,0,0,0,0,0,0,0,0,0,0,0,0,0,0,0,0,0,0,0,0,0,0,0,0,0,0,0,0,0,0,0,0,0,0,0,0,0,0,0],"id":10,"left_children":[1,3,5,7,9,-1,-1,11,13,15,17,19,21,23,25,-1,27,29,31,33,35,37,39,41,43,45,-1,47,49,-1,51,53,55,-1,-1,-1,-1,-1,-1,-1,-1,-1,-1,-1,-1,-1,-1,-1,-1,-1,-1,-1,-1,-1,-1,-1,-1],"loss_changes":[3.4625024E2,3.232532E1,1.6452347E2,9.15838E1,6.193773E1,0E0,0E0,5.1119576E1,4.524276E1,2.4189812E1,4.1423832E1,1.0837873E2,7.2491165E1,3.3451523E1,6.3231125E0,0E0,5.0158978E1,1.6651172E2,3.1921394E1,1.0016349E2,2.5376242E2,7.613542E1,3.540635E1,4.909558E1,2.3658607E1,5.311881E-1,0E0,5.412834E1,3.6800247E1,0E0,3.696889E0,2.9594389E1,2.8955164E1,0E0,0E0,0E0,0E0,0E0,0E0,0E0,0E0,0E0,0E0,0E0,0E0,0E0,0E0,0E0,0E0,0E0,0E0,0E0,0E0,0E0,0E0,0E0,0E0],"parents":[2147483647,0,0,1,1,2,2,3,3,4,4,7,7,8,8,9,9,10,10,11,11,12,12,13,13,14,14,16,16,17,17,18,18,19,19,20,20,21,21,22,22,23,23,24,24,25,25,27,27,28,28,30,30,31,31,32,32],"right_children":[2,4,6,8,10,-1,-1,12,14,16,18,20,22,24,26,-1,28,30,32,34,36,38,40,42,44,46,-1,48,50,-1,52,54,56,-1,-1,-1,-1,-1,-1,-1,-1,-1,-1,-1,-1,-1,-1,-1,-1,-1,-1,-1,-1,-1,-1,-1,-1],"split_conditions":[4E1,2.2849998E1,1.0820832E1,2.1977087E1,2.5135416E1,4.5467664E-2,4.804413E0,7.125045E1,3.0676142E1,1.4386494E1,2.5264585E1,2.9539747E1,1.4386494E1,2.9539747E1,2.2752083E1,-7.0031935E-1,1.5596767E1,1.6039202E1,1.642247E1,6.894404E1,1.3495833E1,2.141145E2,1E-1,6E-1,2.2070833E1,2.2670835E1,-6.21291E-1,1.5379206E1,1.492754E2,2.5083485E0,2.7466372E1,2.7745834E1,1.678156E1,-3.5567466E-2,7.912532E-1,-3.722289E-1,7.628881E-1,6.711992E-1,5.2869387E-2,-9.777759E-2,6.372692E-2,4.8571596E-1,-2.8074202E-1,1.2197235E-1,2.0435405E0,-1.1690696E-1,6.976712E-2,7.745327E-2,1.4794633E0,-3.2440326E-1,-4.289528E-2,9.5576346E-2,-2.5111815E-1,-4.0157303E-1,1.8031336E-1,4.7111586E-1,1.4094452E-2],"split_indices":[1,0,0,0,0,0,0,3,2,2,0,2,2,2,0,0,2,2,2,3,0,3,1,1,0,0,0,2,3,0,2,0,2,0,0,0,0,0,0,0,0,0,0,0,0,0,0,0,0,0,0,0,0,0,0,0,0],"split_type":[0,0,0,0,0,0,0,0,0,0,0,0,0,0,0,0,0,0,0,0,0,0,0,0,0,0,0,0,0,0,0,0,0,0,0,0,0,0,0,0,0,0,0,0,0,0,0,0,0,0,0,0,0,0,0,0,0],"sum_hessian":[1.746E3,1.744E3,2E0,1.17E3,5.74E2,1E0,1E0,1.095E3,7.5E1,1.98E2,3.76E2,3.2E2,7.75E2,6.6E1,9E0,7E0,1.91E2,1.3E1,3.63E2,2.39E2,8.1E1,8.8E1,6.87E2,6.4E1,2E0,7E0,2E0,1.7E1,1.74E2,2E0,1.1E1,3.9E1,3.24E2,2.26E2,1.3E1,2.5E1,5.6E1,2.4E1,6.4E1,5.29E2,1.58E2,5.6E1,8E0,1E0,1E0,6E0,1E0,1.5E1,2E0,1.04E2,7E1,8E0,3E0,2.9E1,1E1,1.2E1,3.12E2],"tree_param":{"num_deleted":"0","num_feature":"4","num_nodes":"57","size_leaf_vector":"1"}},{"base_weights":[3.7038144E-2,2.133122E-2,9.160885E0,1.7418331E-1,-8.294683E-2,3.8647488E-2,4.083751E0,1.3264568E-1,1.7590898E0,-1.2329885E0,-6.601951E-2,3.4344137E-1,-1.416193E-1,6.431498E0,7.730702E-1,-1.4498638E0,2.7049002E-1,3.5515553E-1,-9.824615E-2,2.1116069E-1,1.0513278E1,-6.327143E-2,-2.201402E0,4.5343438E-1,2.4407399E0,1.6009805E0,-8.736104E-1,-2.1054626E0,-6.9498193E-1,2.8001644E-2,2.3938239E0,-8.686745E-1,-4.820917E-2,-1.139827E-1,1.1983038E-1,6.3015156E0,7.9172176E-1,-4.43642E-2,1.0171716E0,-9.817044E-1,-4.1722617E-1,-4.8850458E-2,1.1250378E0,-3.1721845E-2,-3.01811E-1,-7.067485E-1,-9.049017E-2,-2.9827714E-1,4.0568687E-2,-2.3507167E-1,1.5429711E-1,-5.6672055E-1,-1.5957445E-1,2.3586169E-1,-2.614326E-2],"categories":[],"categories_nodes":[],"categories_segments":[],"categories_sizes":[],"default_left":[0,0,0,0,0,0,0,0,0,0,0,0,0,0,0,0,0,0,0,0,0,0,0,0,0,0,0,0,0,0,0,0,0,0,0,0,0,0,0,0,0,0,0,0,0,0,0,0,0,0,0,0,0,0,0],"id":11,"left_children":[1,3,5,7,9,-1,-1,11,13,15,17,19,21,23,25,27,-1,29,31,33,35,37,39,-1,-1,41,43,45,47,49,-1,51,53,-1,-1,-1,-1,-1,-1,-1,-1,-1,-1,-1,-1,-1,-1,-1,-1,-1,-1,-1,-1,-1,-1],"loss_changes":[2.5016289E2,2.7828207E1,1.1886821E2,4.637661E1,2.0125467E1,0E0,0E0,3.9998024E1,7.795556E1,8.25145E0,1.39337015E1,5.2378174E2,4.8435963E1,1.285891E1,2.3211496E1,5.465334E0,0E0,1.8186084E2,3.665763E1,4.322071E1,3.5763806E2,8.553947E1,4.9987335E0,0E0,0E0,4.2308296E1,5.0373983E-1,2.4507217E0,2.1221437E0,2.8425734E1,0E0,1.8925575E1,2.9145237E1,0E0,0E0,0E0,0E0,0E0,0E0,0E0,0E0,0E0,0E0,0E0,0E0,0E0,0E0,0E0,0E0,0E0,0E0,0E0,0E0,0E0,0E0],"parents":[2147483647,0,0,1,1,2,2,3,3,4,4,7,7,8,8,9,9,10,10,11,11,12,12,13,13,14,14,15,15,17,17,18,18,19,19,20,20,21,21,22,22,25,25,26,26,27,27,28,28,29,29,31,31,32,32],"right_children":[2,4,6,8,10,-1,-1,12,14,16,18,20,22,24,26,28,-1,30,32,34,36,38,40,-1,-1,42,44,46,48,50,-1,52,54,-1,-1,-1,-1,-1,-1,-1,-1,-1,-1,-1,-1,-1,-1,-1,-1,-1,-1,-1,-1,-1,-1],"split_conditions":[4E1,1.7145834E1,1.0820832E1,1.39E1,1.7320835E1,3.8647488E-2,4.083751E0,2.2380884E1,1.46E1,2.9656494E2,4.9521538E1,2.233161E1,7.1E0,1.3495833E1,5.809848E1,1.7241667E1,2.7049002E-1,3.816679E1,6.210284E1,6.2867386E1,1.13E1,4.2999997E0,2.8137634E1,4.5343438E-1,2.4407399E0,1.3239585E1,1.1659777E1,2.4980553E2,1.6534319E2,2.0406252E1,2.3938239E0,1.9860416E1,6.94247E1,-1.139827E-1,1.1983038E-1,6.3015156E0,7.9172176E-1,-4.43642E-2,1.0171716E0,-9.817044E-1,-4.1722617E-1,-4.8850458E-2,1.1250378E0,-3.1721845E-2,-3.01811E-1,-7.067485E-1,-9.049017E-2,-2.9827714E-1,4.0568687E-2,-2.3507167E-1,1.5429711E-1,-5.6672055E-1,-1.5957445E-1,2.3586169E-1,-2.614326E-2],"split_indices":[1,0,0,1,0,0,0,2,1,3,3,2,1,0,3,0,0,2,3,3,0,1,2,0,0,0,2,3,3,0,0,0,3,0,0,0,0,0,0,0,0,0,0,0,0,0,0,0,0,0,0,0,0,0,0],"split_type":[0,0,0,0,0,0,0,0,0,0,0,0,0,0,0,0,0,0,0,0,0,0,0,0,0,0,0,0,0,0,0,0,0,0,0,0,0,0,0,0,0,0,0,0,0,0,0,0,0,0,0,0,0,0,0],"sum_hessian":[1.746E3,1.744E3,2E0,7.07E2,1.037E3,1E0,1E0,6.9E2,1.7E1,1.4E1,1.023E3,3.9E2,3E2,2E0,1.5E1,1.3E1,1E0,7.2E1,9.51E2,3.86E2,4E0,2.9E2,1E1,1E0,1E0,1E1,5E0,6E0,7E0,7E1,2E0,5.7E1,8.94E2,9.3E1,2.93E2,1E0,3E0,2.84E2,6E0,3E0,7E0,6E0,4E0,1E0,4E0,5E0,1E0,5E0,2E0,2.6E1,4.4E1,1.3E1,4.4E1,3.9E1,8.55E2],"tree_param":{"num_deleted":"0","num_feature":"4","num_nodes":"55","size_leaf_vector":"1"}},{"base_weights":[3.476703E-2,2.1419914E-2,7.786751E0,6.1624248E-2,-2.6047754E-1,3.285034E-2,3.4711878E0,2.0592105E-2,1.0154575E0,8.3434045E-1,-3.513262E-1,4.4566546E-2,-7.933167E-1,2.309907E0,1.0305919E-1,7.889579E-2,1.9382184E0,-1.4165585E0,-2.5830457E-1,1.7649217E-2,9.304955E-1,-1.0379491E0,-9.524014E-2,-7.9105335E-1,3.4940002E0,5.0627923E-1,-2.4746558E-1,-7.502265E-1,8.0712724E-1,-3.293019E0,-5.166535E-1,3.3943288E0,-3.363058E-1,-3.0046267E-2,5.8616843E-2,1.5735185E0,-7.168889E-2,-3.4536222E-1,-6.562938E-2,7.728678E-2,-5.7472486E-2,-3.657828E-1,-8.707937E-2,1.8244641E0,4.4334075E-1,2.218873E-2,4.8465315E-1,-1.8646369E-2,-2.4840899E-1,1.5705521E-1,-3.0209345E-1,1.0402027E0,1.2354756E-2,-2.757527E-1,-1.0970058E0,2.7304667E-1,-4.997475E-1,1.7983504E-1,1.2378415E0,1.2357528E-1,-1.4717968E-1],"categories":[],"categories_nodes":[],"categories_segments":[],"categories_sizes":[],"default_left":[0,0,0,0,0,0,0,0,0,0,0,0,0,0,0,0,0,0,0,0,0,0,0,0,0,0,0,0,0,0,0,0,0,0,0,0,0,0,0,0,0,0,0,0,0,0,0,0,0,0,0,0,0,0,0,0,0,0,0,0,0],"id":12,"left_children":[1,3,5,7,9,-1,-1,11,13,15,17,19,21,23,25,27,-1,29,31,33,35,37,39,41,43,45,47,49,51,53,55,57,59,-1,-1,-1,-1,-1,-1,-1,-1,-1,-1,-1,-1,-1,-1,-1,-1,-1,-1,-1,-1,-1,-1,-1,-1,-1,-1,-1,-1],"loss_changes":[1.8058942E2,1.9793007E1,8.588225E1,5.978169E1,2.1976004E1,0E0,0E0,2.8641426E1,7.4168304E1,7.174749E1,1.9650206E1,3.396533E1,7.073572E0,9.823143E1,5.4961543E0,1.0266214E1,0E0,2.5316833E1,5.4419693E1,2.8998331E1,2.1317302E2,2.6243172E0,4.5726955E-1,1.3616805E0,9.013579E1,8.512219E0,2.207819E0,3.143457E0,1.8195406E1,9.553032E-1,2.1191938E1,5.707863E0,2.1444094E1,0E0,0E0,0E0,0E0,0E0,0E0,0E0,0E0,0E0,0E0,0E0,0E0,0E0,0E0,0E0,0E0,0E0,0E0,0E0,0E0,0E0,0E0,0E0,0E0,0E0,0E0,0E0,0E0],"parents":[2147483647,0,0,1,1,2,2,3,3,4,4,7,7,8,8,9,9,10,10,11,11,12,12,13,13,14,14,15,15,17,17,18,18,19,19,20,20,21,21,22,22,23,23,24,24,25,25,26,26,27,27,28,28,29,29,30,30,31,31,32,32],"right_children":[2,4,6,8,10,-1,-1,12,14,16,18,20,22,24,26,28,-1,30,32,34,36,38,40,42,44,46,48,50,52,54,56,58,60,-1,-1,-1,-1,-1,-1,-1,-1,-1,-1,-1,-1,-1,-1,-1,-1,-1,-1,-1,-1,-1,-1,-1,-1,-1,-1,-1,-1],"split_conditions":[4E1,3.2862694E1,1.0820832E1,3.1487139E1,4.9521538E1,3.285034E-2,3.4711878E0,3.0676142E1,8.2231895E1,4.8503635E1,5.5325203E1,2.9539747E1,2.4913304E2,4.6688362E1,2.5125856E2,1.1649999E1,1.9382184E0,1.2506248E1,5.6309914E1,1.7010889E2,5.876087E1,2.7318748E1,2.6024765E2,2.9420347E1,1.5808333E1,2.3974358E2,9E-1,3.3353954E1,1.6935415E1,9.933332E0,1.4810416E1,1.1685417E1,1.3495833E1,-3.0046267E-2,5.8616843E-2,1.5735185E0,-7.168889E-2,-3.4536222E-1,-6.562938E-2,7.728678E-2,-5.7472486E-2,-3.657828E-1,-8.707937E-2,1.8244641E0,4.4334075E-1,2.218873E-2,4.8465315E-1,-1.8646369E-2,-2.4840899E-1,1.5705521E-1,-3.0209345E-1,1.0402027E0,1.2354756E-2,-2.757527E-1,-1.0970058E0,2.7304667E-1,-4.997475E-1,1.7983504E-1,1.2378415E0,1.2357528E-1,-1.4717968E-1],"split_indices":[1,2,0,2,3,0,0,2,3,3,3,2,3,3,3,0,0,0,3,3,3,0,3,3,0,3,1,2,0,0,0,0,0,0,0,0,0,0,0,0,0,0,0,0,0,0,0,0,0,0,0,0,0,0,0,0,0,0,0,0,0],"split_type":[0,0,0,0,0,0,0,0,0,0,0,0,0,0,0,0,0,0,0,0,0,0,0,0,0,0,0,0,0,0,0,0,0,0,0,0,0,0,0,0,0,0,0,0,0,0,0,0,0,0,0,0,0,0,0,0,0,0,0,0,0],"sum_hessian":[1.746E3,1.744E3,2E0,1.527E3,2.17E2,1E0,1E0,1.465E3,6.2E1,1.6E1,2.01E2,1.424E3,4.1E1,2.5E1,3.7E1,1.5E1,1E0,1.5E1,1.86E2,1.383E3,4.1E1,3E1,1.1E1,7E0,1.8E1,1.7E1,2E1,7E0,8E0,4E0,1.1E1,3E0,1.83E2,8.32E2,5.51E2,8E0,3.3E1,2.6E1,4E0,2E0,9E0,3E0,4E0,7E0,1.1E1,1.3E1,4E0,1.6E1,4E0,1E0,6E0,1E0,7E0,1E0,3E0,5E0,6E0,1E0,2E0,3.1E1,1.52E2],"tree_param":{"num_deleted":"0","num_feature":"4","num_nodes":"61","size_leaf_vector":"1"}},{"base_weights":[2.9682372E-2,1.8337475E-2,6.618737E0,5.08417E-2,-3.0620682E-1,2.7922798E-2,2.950509E0,3.7530083E-2,2.6735306E0,-7.1126556E-1,1.4551872E-1,2.572176E-1,-2.519174E-2,3.0954604E0,1.0740619E-1,-8.864537E-1,1.0638282E0,6.452319E-1,-6.8661064E-1,1.7898731E-1,3.5889676E0,-1.8393358E0,-1.0313253E-2,4.6746027E-1,-3.9409307E-1,-1.0714861E0,-2.2043155E-1,-4.0726215E-1,2.636734E0,4.162837E-2,1.743472E0,-8.7433404E-1,-1.7229933E-1,1.6406703E-1,-9.5331855E-2,3.5253916E0,2.232485E-1,-8.509595E-1,-8.245014E-2,-1.1963648E-2,2.0929824E-1,-1.7468658E-1,8.2032666E-2,-1.8349385E-1,-4.4457853E-1,2.470122E-2,-1.02964446E-1,5.8906157E-2,-4.2325893E-1,-1.6476506E-1,1.1645371E0,-7.61337E-2,6.518774E-1,7.3798037E-1,2.4998711E-1,5.254984E-3,-2.9074052E-1,-1.2195496E-1,6.663039E-2],"categories":[],"categories_nodes":[],"categories_segments":[],"categories_sizes":[],"default_left":[0,0,0,0,0,0,0,0,0,0,0,0,0,0,0,0,0,0,0,0,0,0,0,0,0,0,0,0,0,0,0,0,0,0,0,0,0,0,0,0,0,0,0,0,0,0,0,0,0,0,0,0,0,0,0,0,0,0,0],"id":13,"left_children":[1,3,5,7,9,-1,-1,11,13,15,17,19,21,-1,23,25,27,29,31,33,35,37,39,-1,41,43,45,47,49,51,53,55,57,-1,-1,-1,-1,-1,-1,-1,-1,-1,-1,-1,-1,-1,-1,-1,-1,-1,-1,-1,-1,-1,-1,-1,-1,-1,-1],"loss_changes":[1.3047064E2,1.842368E1,6.204988E1,5.5305367E1,2.9196587E1,0E0,0E0,2.1777618E1,1.5582916E2,2.7064957E1,3.20458E1,9.0843575E1,3.3180843E1,0E0,5.707083E0,9.252953E0,1.9584934E1,3.17467E1,2.649252E0,6.3043037E1,1.7701724E2,1.4821568E1,2.5585373E1,0E0,9.12985E-1,1.0417854E1,6.974086E-1,3.305976E0,1.7998693E1,2.069866E1,9.036045E0,1.7924919E0,9.216666E-1,0E0,0E0,0E0,0E0,0E0,0E0,0E0,0E0,0E0,0E0,0E0,0E0,0E0,0E0,0E0,0E0,0E0,0E0,0E0,0E0,0E0,0E0,0E0,0E0,0E0,0E0],"parents":[2147483647,0,0,1,1,2,2,3,3,4,4,7,7,8,8,9,9,10,10,11,11,12,12,14,14,15,15,16,16,17,17,18,18,19,19,20,20,21,21,22,22,24,24,25,25,26,26,27,27,28,28,29,29,30,30,31,31,32,32],"right_children":[2,4,6,8,10,-1,-1,12,14,16,18,20,22,-1,24,26,28,30,32,34,36,38,40,-1,42,44,46,48,50,52,54,56,58,-1,-1,-1,-1,-1,-1,-1,-1,-1,-1,-1,-1,-1,-1,-1,-1,-1,-1,-1,-1,-1,-1,-1,-1,-1,-1],"split_conditions":[4E1,2.997775E2,1.0820832E1,2.9821417E2,1.3960418E1,2.7922798E-2,2.950509E0,1.4529166E1,1.5315873E1,3.5447253E2,1.7241667E1,1.4487498E1,1.4670834E1,3.0954604E0,1.1685417E1,2.2505037E1,1.0735416E1,3.3479886E2,2.3683512E1,2.334455E1,1.5596767E1,2.0771093E1,5.299999E0,4.6746027E-1,1.5568749E1,1.2116666E1,1.2012501E1,3.5783524E2,1.2287555E1,1.675625E1,3.4655142E2,1.4255272E1,3.3479886E2,1.6406703E-1,-9.5331855E-2,3.5253916E0,2.232485E-1,-8.509595E-1,-8.245014E-2,-1.1963648E-2,2.0929824E-1,-1.7468658E-1,8.2032666E-2,-1.8349385E-1,-4.4457853E-1,2.470122E-2,-1.02964446E-1,5.8906157E-2,-4.2325893E-1,-1.6476506E-1,1.1645371E0,-7.61337E-2,6.518774E-1,7.3798037E-1,2.4998711E-1,5.254984E-3,-2.9074052E-1,-1.2195496E-1,6.663039E-2],"split_indices":[1,3,0,3,0,0,0,0,2,3,0,0,0,0,0,2,0,3,2,2,2,2,1,0,0,0,0,3,2,0,3,2,3,0,0,0,0,0,0,0,0,0,0,0,0,0,0,0,0,0,0,0,0,0,0,0,0,0,0],"split_type":[0,0,0,0,0,0,0,0,0,0,0,0,0,0,0,0,0,0,0,0,0,0,0,0,0,0,0,0,0,0,0,0,0,0,0,0,0,0,0,0,0,0,0,0,0,0,0,0,0,0,0,0,0,0,0,0,0,0,0],"sum_hessian":[1.746E3,1.744E3,2E0,1.586E3,1.58E2,1E0,1E0,1.579E3,7E0,8.3E1,7.5E1,3.5E2,1.229E3,1E0,6E0,7.6E1,7E0,4.7E1,2.8E1,3.43E2,7E0,9E0,1.22E3,1E0,5E0,5.9E1,1.7E1,4E0,3E0,3.1E1,1.6E1,2E1,8E0,1.97E2,1.46E2,1E0,6E0,5E0,4E0,1.172E3,4.8E1,4E0,1E0,2.9E1,3E1,5E0,1.2E1,3E0,1E0,1E0,2E0,2.8E1,3E0,8E0,8E0,2E0,1.8E1,5E0,3E0],"tree_param":{"num_deleted":"0","num_feature":"4","num_nodes":"59","size_leaf_vector":"1"}},{"base_weights":[2.6892196E-2,1.7250942E-2,5.625924E0,-4.5048156E-1,3.8526643E-2,2.3734404E-2,2.5079317E0,-2.6060882E-1,-1.2727318E0,1.3276763E0,1.0923487E-2,-1.009051E0,-1.1718234E-1,-1.5000252E-1,-1.7068231E0,1.450585E-1,5.300879E0,-8.469018E-1,2.6387423E-2,1.4655273E-1,-1.316271E0,2.0588303E0,-2.855523E-1,1.6342407E-1,-2.3842534E-1,1.12114765E-1,-1.9795182E0,1.5335318E0,-8.4357315E-1,9.422433E0,-1.1762838E0,1.1587751E-1,-1.052309E0,9.216254E-3,8.210405E-1,-5.192943E-2,1.17878154E-1,-4.5745963E-1,2.1583557E-2,8.4363633E-1,2.6110792E-1,2.6575276E-1,-1.2964058E-1,-2.853959E-1,-9.0808094E-1,1.03372544E-1,7.995178E-1,-1.4636451E-1,-9.8019564E-1,8.6532027E-1,5.3361845E0,-7.148459E-1,6.0503962E-3,1.818776E-1,-3.1035133E-2,-1.971016E-2,-3.5703737E-1,7.6994416E-3,-3.4592056E-1,1.0324724E0,7.5164825E-2],"categories":[],"categories_nodes":[],"categories_segments":[],"categories_sizes":[],"default_left":[0,0,0,0,0,0,0,0,0,0,0,0,0,0,0,0,0,0,0,0,0,0,0,0,0,0,0,0,0,0,0,0,0,0,0,0,0,0,0,0,0,0,0,0,0,0,0,0,0,0,0,0,0,0,0,0,0,0,0,0,0],"id":14,"left_children":[1,3,5,7,9,-1,-1,11,13,15,17,19,21,23,25,27,29,31,33,35,37,39,41,-1,-1,-1,43,45,47,49,51,53,55,57,59,-1,-1,-1,-1,-1,-1,-1,-1,-1,-1,-1,-1,-1,-1,-1,-1,-1,-1,-1,-1,-1,-1,-1,-1,-1,-1],"loss_changes":[9.420896E1,1.7382439E1,4.4831E1,1.1533656E1,5.9411774E1,0E0,0E0,6.644581E0,6.56711E0,1.6368835E2,2.1724468E1,3.7431488E0,2.0372162E1,2.6726317E0,6.4133053E0,3.972893E1,2.2465128E2,5.857033E0,2.1933794E1,3.0427632E-1,2.426301E0,1.1334991E0,9.139835E0,0E0,0E0,0E0,6.8129997E0,1.5225729E1,1.3061734E1,2.2214255E2,5.8223047E0,7.0804346E-1,3.1850872E0,3.0140287E1,4.996741E1,0E0,0E0,0E0,0E0,0E0,0E0,0E0,0E0,0E0,0E0,0E0,0E0,0E0,0E0,0E0,0E0,0E0,0E0,0E0,0E0,0E0,0E0,0E0,0E0,0E0,0E0],"parents":[2147483647,0,0,1,1,2,2,3,3,4,4,7,7,8,8,9,9,10,10,11,11,12,12,13,13,14,14,15,15,16,16,17,17,18,18,19,19,20,20,21,21,22,22,26,26,27,27,28,28,29,29,30,30,31,31,32,32,33,33,34,34],"right_children":[2,4,6,8,10,-1,-1,12,14,16,18,20,22,24,26,28,30,32,34,36,38,40,42,-1,-1,-1,44,46,48,50,52,54,56,58,60,-1,-1,-1,-1,-1,-1,-1,-1,-1,-1,-1,-1,-1,-1,-1,-1,-1,-1,-1,-1,-1,-1,-1,-1,-1,-1],"split_conditions":[4E1,1.0735416E1,1.0820832E1,1.029375E1,1.13E1,2.3734404E-2,2.5079317E0,1.5596767E1,3.4056774E1,1.120625E1,1.475018E1,1.1966953E1,1.6179987E1,2.2505037E1,1.1659777E1,1.6075521E1,5.466963E1,2.0749617E0,1.0400002E1,8.979167E0,7E-1,9.195834E0,1.475018E1,1.6342407E-1,-2.3842534E-1,1.12114765E-1,1.0508333E1,1.4440443E1,3.8000002E0,4.007443E1,2.046941E1,1E-1,1.2012501E1,7.1E0,5.0389313E1,-5.192943E-2,1.17878154E-1,-4.5745963E-1,2.1583557E-2,8.4363633E-1,2.6110792E-1,2.6575276E-1,-1.2964058E-1,-2.853959E-1,-9.0808094E-1,1.03372544E-1,7.995178E-1,-1.4636451E-1,-9.8019564E-1,8.6532027E-1,5.3361845E0,-7.148459E-1,6.0503962E-3,1.818776E-1,-3.1035133E-2,-1.971016E-2,-3.5703737E-1,7.6994416E-3,-3.4592056E-1,1.0324724E0,7.5164825E-2],"split_indices":[1,0,0,0,0,0,0,2,3,0,3,2,2,2,2,2,3,3,1,0,1,0,3,0,0,0,0,2,1,3,2,1,0,1,3,0,0,0,0,0,0,0,0,0,0,0,0,0,0,0,0,0,0,0,0,0,0,0,0,0,0],"split_type":[0,0,0,0,0,0,0,0,0,0,0,0,0,0,0,0,0,0,0,0,0,0,0,0,0,0,0,0,0,0,0,0,0,0,0,0,0,0,0,0,0,0,0,0,0,0,0,0,0,0,0,0,0,0,0,0,0,0,0,0,0],"sum_hessian":[1.746E3,1.744E3,2E0,7.5E1,1.669E3,1E0,1E0,6.2E1,1.3E1,3.4E1,1.635E3,9E0,5.3E1,4E0,9E0,2.7E1,7E0,2.8E1,1.607E3,2E0,7E0,3E0,5E1,2E0,2E0,1E0,8E0,1.1E1,1.6E1,4E0,3E0,5E0,2.3E1,1.574E3,3.3E1,1E0,1E0,6E0,1E0,1E0,2E0,5E0,4.5E1,5E0,3E0,6E0,5E0,1.5E1,1E0,3E0,1E0,1E0,2E0,1E0,4E0,3E0,2E1,1.553E3,2.1E1,5E0,2.8E1],"tree_param":{"num_deleted":"0","num_feature":"4","num_nodes":"61","size_leaf_vector":"1"}},{"base_weights":[2.3437439E-2,1.5243039E-2,4.7820344E0,-3.243121E-1,3.2181002E-2,2.0174218E-2,2.1317415E0,1.6571012E0,-4.1932884E-1,2.0221478E-1,-2.1829868E-2,1.9361008E-2,6.499331E-1,-7.849512E-1,5.436709E-3,1.4030865E-1,3.666602E0,-6.6702E-1,-1.825851E-4,1.8407306E-1,-1.0468715E0,1.3300043E0,-6.570562E-1,2.527172E-1,-6.403648E-1,2.9954278E0,9.494492E-1,-8.67696E-1,2.1641073E0,-6.149932E-2,2.0750378E-1,4.779289E-1,-4.4848733E-2,2.495124E-2,-3.600949E-1,1.3449885E-1,1.2358432E0,-7.767424E-2,-2.939481E-1,5.1282145E-2,2.8636632E0,-3.1925517E-1,3.4839898E-1,-4.184843E-1,1.1276486E0,5.0384146E-1,-3.379836E-1,-1.226737E-2,9.861157E-1,4.3973437E-1,-3.0866902E-2,3.9371854E-1,2.5174402E-2],"categories":[],"categories_nodes":[],"categories_segments":[],"categories_sizes":[],"default_left":[0,0,0,0,0,0,0,0,0,0,0,0,0,0,0,0,0,0,0,0,0,0,0,0,0,0,0,0,0,0,0,0,0,0,0,0,0,0,0,0,0,0,0,0,0,0,0,0,0,0,0,0,0],"id":15,"left_children":[1,3,5,7,9,-1,-1,11,13,15,17,-1,-1,19,21,23,25,27,29,31,33,35,37,39,41,-1,43,45,47,49,51,-1,-1,-1,-1,-1,-1,-1,-1,-1,-1,-1,-1,-1,-1,-1,-1,-1,-1,-1,-1,-1,-1],"loss_changes":[6.804936E1,1.0046582E1,3.2390396E1,1.6321068E1,1.5276861E1,0E0,0E0,3.104828E0,1.2428572E1,8.548675E1,1.7639711E1,0E0,0E0,1.1106409E1,3.421952E1,3.4824814E1,1.1069177E2,2.5171492E1,1.5587238E1,4.9382234E0,5.9953995E0,3.012542E1,3.087534E0,2.6130652E2,3.9415497E1,0E0,4.476117E1,2.7612703E1,7.562688E0,5.9888683E1,3.798803E1,0E0,0E0,0E0,0E0,0E0,0E0,0E0,0E0,0E0,0E0,0E0,0E0,0E0,0E0,0E0,0E0,0E0,0E0,0E0,0E0,0E0,0E0],"parents":[2147483647,0,0,1,1,2,2,3,3,4,4,7,7,8,8,9,9,10,10,13,13,14,14,15,15,16,16,17,17,18,18,19,19,20,20,21,21,22,22,23,23,24,24,26,26,27,27,28,28,29,29,30,30],"right_children":[2,4,6,8,10,-1,-1,12,14,16,18,-1,-1,20,22,24,26,28,30,32,34,36,38,40,42,-1,44,46,48,50,52,-1,-1,-1,-1,-1,-1,-1,-1,-1,-1,-1,-1,-1,-1,-1,-1,-1,-1,-1,-1,-1,-1],"split_conditions":[4E1,2.7377642E1,1.0820832E1,1.14862E1,1.4529166E1,2.0174218E-2,2.1317415E0,3.667748E0,1.3764584E1,1.4487498E1,1.4885417E1,1.9361008E-2,6.499331E-1,9.616667E0,1.6935415E1,2.1E0,1.5596767E1,3.9503334E1,1E-1,8.127084E0,1.3044722E1,2.596995E1,1.9983335E1,1.9000001E0,1.39E1,2.9954278E0,3.2686733E1,1.4973576E1,1.4670834E1,4.6688362E1,1.5929166E1,4.779289E-1,-4.4848733E-2,2.495124E-2,-3.600949E-1,1.3449885E-1,1.2358432E0,-7.767424E-2,-2.939481E-1,5.1282145E-2,2.8636632E0,-3.1925517E-1,3.4839898E-1,-4.184843E-1,1.1276486E0,5.0384146E-1,-3.379836E-1,-1.226737E-2,9.861157E-1,4.3973437E-1,-3.0866902E-2,3.9371854E-1,2.5174402E-2],"split_indices":[1,3,0,2,0,0,0,3,0,0,0,0,0,0,0,1,2,2,1,0,2,2,0,1,1,0,2,2,0,3,0,0,0,0,0,0,0,0,0,0,0,0,0,0,0,0,0,0,0,0,0,0,0],"split_type":[0,0,0,0,0,0,0,0,0,0,0,0,0,0,0,0,0,0,0,0,0,0,0,0,0,0,0,0,0,0,0,0,0,0,0,0,0,0,0,0,0,0,0,0,0,0,0,0,0,0,0,0,0],"sum_hessian":[1.746E3,1.744E3,2E0,8.2E1,1.662E3,1E0,1E0,3E0,7.9E1,4E2,1.262E3,1E0,2E0,4.2E1,3.7E1,3.94E2,6E0,4E1,1.222E3,9E0,3.3E1,1.2E1,2.5E1,3.45E2,4.9E1,1E0,5E0,3.8E1,2E0,9.44E2,2.78E2,1E0,8E0,4E0,2.9E1,1E1,2E0,1.2E1,1.3E1,3.43E2,2E0,4E1,9E0,3E0,2E0,3E0,3.5E1,1E0,1E0,2.4E1,9.2E2,2.7E1,2.51E2],"tree_param":{"num_deleted":"0","num_feature":"4","num_nodes":"53","size_leaf_vector":"1"}},{"base_weights":[2.3580858E-2,1.6619813E-2,4.0647283E0,8.027655E-3,6.5956193E-1,1.7148115E-2,1.8119798E0,7.827406E-2,-6.271876E-2,-6.040955E-1,1.678075E0,4.064524E-2,2.207864E0,-4.459639E-1,1.8991733E-2,-3.0375758E-1,-3.9112327E-1,3.6257563E0,7.31195E-1,2.1812193E-1,-1.1068412E-1,6.082383E-2,8.097018E0,2.648527E-1,-6.099291E-1,-3.339219E-1,1.4422636E-1,-1.4070976E-1,1.8313646E-1,1.3273726E0,1.8439515E-1,-6.189098E-1,1.7344164E0,3.0141937E-2,1.7558117E0,2.0548426E-1,-4.7978073E-2,-2.5882825E-1,2.5313362E-1,4.140361E0,4.785669E-1,2.1566363E-1,-3.7943497E-1,-2.4817239E-1,3.68963E-2,1.1294872E0,-1.3340813E-1,1.0922242E0,3.1057881E-2,1.1995569E-1,-3.7544277E-2,1.7843264E-1,-3.2130748E-1,6.13431E-1,2.7397515E-2],"categories":[],"categories_nodes":[],"categories_segments":[],"categories_sizes":[],"default_left":[0,0,0,0,0,0,0,0,0,0,0,0,0,0,0,0,0,0,0,0,0,0,0,0,0,0,0,0,0,0,0,0,0,0,0,0,0,0,0,0,0,0,0,0,0,0,0,0,0,0,0,0,0,0,0],"id":16,"left_children":[1,3,5,7,9,-1,-1,11,13,15,17,19,21,23,25,27,-1,29,31,33,35,37,39,41,43,45,47,-1,49,-1,-1,51,53,-1,-1,-1,-1,-1,-1,-1,-1,-1,-1,-1,-1,-1,-1,-1,-1,-1,-1,-1,-1,-1,-1],"loss_changes":[4.9076622E1,9.634539E0,2.340205E1,8.56767E0,3.0615902E1,0E0,0E0,6.9226135E1,2.6908182E1,1.9154191E0,2.1323734E1,2.287982E1,1.8917126E2,1.776047E1,3.1383839E1,8.101395E-1,0E0,6.901741E0,1.4617989E1,2.5926953E2,1.8131937E1,9.4054785E0,1.263338E2,2.1049564E1,1.9692162E1,8.6125755E1,7.419288E1,0E0,2.504706E-1,0E0,0E0,3.3806472E0,2.8728924E0,0E0,0E0,0E0,0E0,0E0,0E0,0E0,0E0,0E0,0E0,0E0,0E0,0E0,0E0,0E0,0E0,0E0,0E0,0E0,0E0,0E0,0E0],"parents":[2147483647,0,0,1,1,2,2,3,3,4,4,7,7,8,8,9,9,10,10,11,11,12,12,13,13,14,14,15,15,17,17,18,18,19,19,20,20,21,21,22,22,23,23,24,24,25,25,26,26,28,28,31,31,32,32],"right_children":[2,4,6,8,10,-1,-1,12,14,16,18,20,22,24,26,28,-1,30,32,34,36,38,40,42,44,46,48,-1,50,-1,-1,52,54,-1,-1,-1,-1,-1,-1,-1,-1,-1,-1,-1,-1,-1,-1,-1,-1,-1,-1,-1,-1,-1,-1],"split_conditions":[4E1,2.9120834E1,1.0820832E1,1.9122915E1,9.1478226E1,1.7148115E-2,1.8119798E0,1.886875E1,2.0922916E1,8.0671715E1,1.4627295E2,2.141145E2,1E-1,7.0640915E1,7.8111404E1,3.0827856E1,-3.9112327E-1,2.5210283E1,1.7010889E2,2.0685252E2,1.2287555E1,1.8964582E1,3E-1,2.9175552E1,2.5183534E2,2.0977083E1,7.8586174E1,-1.4070976E-1,2.9835417E1,1.3273726E0,1.8439515E-1,2.93125E1,1E-1,3.0141937E-2,1.7558117E0,2.0548426E-1,-4.7978073E-2,-2.5882825E-1,2.5313362E-1,4.140361E0,4.785669E-1,2.1566363E-1,-3.7943497E-1,-2.4817239E-1,3.68963E-2,1.1294872E0,-1.3340813E-1,1.0922242E0,3.1057881E-2,1.1995569E-1,-3.7544277E-2,1.7843264E-1,-3.2130748E-1,6.13431E-1,2.7397515E-2],"split_indices":[1,0,0,0,3,0,0,0,0,3,3,3,1,3,3,2,0,2,3,3,2,0,1,2,3,0,3,0,0,0,0,0,1,0,0,0,0,0,0,0,0,0,0,0,0,0,0,0,0,0,0,0,0,0,0],"split_type":[0,0,0,0,0,0,0,0,0,0,0,0,0,0,0,0,0,0,0,0,0,0,0,0,0,0,0,0,0,0,0,0,0,0,0,0,0,0,0,0,0,0,0,0,0,0,0,0,0,0,0,0,0,0,0],"sum_hessian":[1.746E3,1.744E3,2E0,1.722E3,2.2E1,1E0,1E0,8.64E2,8.58E2,1E1,1.2E1,8.5E2,1.4E1,1.5E2,7.08E2,8E0,2E0,3E0,9E0,3.91E2,4.59E2,1.1E1,3E0,2.8E1,1.22E2,1.85E2,5.23E2,6E0,2E0,2E0,1E0,4E0,5E0,3.84E2,7E0,2.6E1,4.33E2,5E0,6E0,1E0,2E0,2.2E1,6E0,9.4E1,2.8E1,4E0,1.81E2,5E0,5.18E2,1E0,1E0,1E0,3E0,4E0,1E0],"tree_param":{"num_deleted":"0","num_feature":"4","num_nodes":"55","size_leaf_vector":"1"}},{"base_weights":[2.3198344E-2,1.7285071E-2,3.4550188E0,-2.9810104E-1,3.441518E-2,1.4575911E-2,1.5401826E0,5.52736E-3,-1.2960005E0,2.2874682E0,2.4835918E-2,3.7985533E-1,-1.3923323E0,-1.6685517E0,1.4954907E0,-1.3525975E-1,4.1383295E0,1.906744E-2,1.2064328E0,2.2978829E-1,1.2950315E0,-7.606268E-3,-2.6030169E0,-2.3064055E0,-7.035578E-1,6.236825E-1,4.9288347E-2,9.765683E-1,-7.051494E-1,1.7158478E0,-9.077411E-2,2.8595597E-2,-1.2783508E0,2.3598206E0,-5.369101E-1,2.4640173E-1,-1.24227524E-1,-6.4942114E-2,2.1816988E-1,-8.9120775E-1,-2.9999793E-1,-1.1386298E-1,-1.0059749E0,8.036016E-2,-3.0581236E-1,-3.2073173E-1,1.0194621E-2,-7.094776E-2,-4.79808E-1,-2.2405355E-1,9.969595E-1,-3.3931762E-1,1.1447692E-2],"categories":[],"categories_nodes":[],"categories_segments":[],"categories_sizes":[],"default_left":[0,0,0,0,0,0,0,0,0,0,0,0,0,0,0,0,0,0,0,0,0,0,0,0,0,0,0,0,0,0,0,0,0,0,0,0,0,0,0,0,0,0,0,0,0,0,0,0,0,0,0,0,0],"id":17,"left_children":[1,3,5,7,9,-1,-1,11,13,15,17,19,21,23,25,27,29,31,33,35,-1,37,39,41,43,-1,-1,-1,-1,-1,-1,45,47,49,51,-1,-1,-1,-1,-1,-1,-1,-1,-1,-1,-1,-1,-1,-1,-1,-1,-1,-1],"loss_changes":[3.539265E1,9.437795E0,1.6907974E1,2.7276321E1,3.5683956E1,0E0,0E0,3.715694E1,2.4334743E1,3.194868E1,1.1223424E1,3.2092934E1,2.5127195E1,1.0072292E1,1.9885049E0,3.769435E1,2.9817825E1,2.0347328E1,1.7353014E1,2.1288935E1,0E0,1.3852986E0,1.7444725E0,2.091566E1,3.0341873E0,0E0,0E0,0E0,0E0,0E0,0E0,9.685916E0,3.6351166E0,1.7446377E1,1.409866E0,0E0,0E0,0E0,0E0,0E0,0E0,0E0,0E0,0E0,0E0,0E0,0E0,0E0,0E0,0E0,0E0,0E0,0E0],"parents":[2147483647,0,0,1,1,2,2,3,3,4,4,7,7,8,8,9,9,10,10,11,11,12,12,13,13,14,14,15,15,16,16,17,17,18,18,19,19,21,21,22,22,23,23,24,24,31,31,32,32,33,33,34,34],"right_children":[2,4,6,8,10,-1,-1,12,14,16,18,20,22,24,26,28,30,32,34,36,-1,38,40,42,44,-1,-1,-1,-1,-1,-1,46,48,50,52,-1,-1,-1,-1,-1,-1,-1,-1,-1,-1,-1,-1,-1,-1,-1,-1,-1,-1],"split_conditions":[4E1,1.3513193E1,1.0820832E1,1.3207634E1,1.3708391E1,1.4575911E-2,1.5401826E0,1.7449999E1,3.31607E2,1.5770832E1,3.5783524E2,1.7379168E1,6.210284E1,1.3697919E1,1.5620834E1,1.3152084E1,2.2139587E1,3.5323883E2,1.4077085E1,1.3697919E1,1.2950315E0,2.0716665E1,2.109375E1,1.1685417E1,7.666687E0,6.236825E-1,4.9288347E-2,9.765683E-1,-7.051494E-1,1.7158478E0,-9.077411E-2,1.3783817E1,9.391666E0,1.0735416E1,1.5062501E1,2.4640173E-1,-1.24227524E-1,-6.4942114E-2,2.1816988E-1,-8.9120775E-1,-2.9999793E-1,-1.1386298E-1,-1.0059749E0,8.036016E-2,-3.0581236E-1,-3.2073173E-1,1.0194621E-2,-7.094776E-2,-4.79808E-1,-2.2405355E-1,9.969595E-1,-3.3931762E-1,1.1447692E-2],"split_indices":[1,2,0,2,2,0,0,0,3,0,3,0,3,0,0,0,0,3,0,0,0,0,0,0,3,0,0,0,0,0,0,2,0,0,0,0,0,0,0,0,0,0,0,0,0,0,0,0,0,0,0,0,0],"split_type":[0,0,0,0,0,0,0,0,0,0,0,0,0,0,0,0,0,0,0,0,0,0,0,0,0,0,0,0,0,0,0,0,0,0,0,0,0,0,0,0,0,0,0,0,0,0,0,0,0,0,0,0,0],"sum_hessian":[1.746E3,1.744E3,2E0,8.9E1,1.655E3,1E0,1E0,6.9E1,2E1,6E0,1.649E3,5.5E1,1.4E1,1.8E1,2E0,3E0,3E0,1.642E3,7E0,5.4E1,1E0,7E0,7E0,1E1,8E0,1E0,1E0,1E0,2E0,2E0,1E0,1.631E3,1.1E1,4E0,3E0,2.8E1,2.6E1,6E0,1E0,5E0,2E0,4E0,6E0,2E0,6E0,7E0,1.624E3,3E0,8E0,1E0,3E0,1E0,2E0],"tree_param":{"num_deleted":"0","num_feature":"4","num_nodes":"53","size_leaf_vector":"1"}},{"base_weights":[1.7808266E-2,1.2779792E-2,2.9367678E0,-3.1899923E-1,2.7871065E-2,1.2389517E-2,1.3091561E0,-2.2710451E-1,-1.192375E0,1.0000187E0,7.056247E-3,-8.449302E-1,-1.22098595E-1,-2.3814201E-2,-1.6550364E0,7.909012E-2,4.0982666E0,-2.2138633E-1,4.5532614E-2,-9.529023E-1,1.902287E-2,1.711746E0,-2.4646549E-1,3.4087874E-2,-4.4804264E-2,1.9822313E-2,-2.1018326E0,1.041664E0,-6.050261E-1,7.3814282E0,-1.0302517E0,-3.4827378E-1,2.6810973E0,7.871712E-1,1.578928E-2,-6.326266E-2,-3.404355E-1,7.150661E-1,2.0798771E-1,-2.921688E-1,-3.3179607E-2,-1.9044554E-1,-7.137694E-1,4.8966026E-1,-1.6423804E-1,-9.3936026E-2,-7.913285E-1,7.17957E-1,4.1001573E0,-6.096439E-1,-5.6714537E-3,-5.7857767E-2,-4.788927E-1,1.1597123E0,-1.867354E-2,6.555632E-2,1.3722101E0,1.0395421E-1,-8.4295375E-3],"categories":[],"categories_nodes":[],"categories_segments":[],"categories_sizes":[],"default_left":[0,0,0,0,0,0,0,0,0,0,0,0,0,0,0,0,0,0,0,0,0,0,0,0,0,0,0,0,0,0,0,0,0,0,0,0,0,0,0,0,0,0,0,0,0,0,0,0,0,0,0,0,0,0,0,0,0,0,0],"id":18,"left_children":[1,3,5,7,9,-1,-1,11,13,15,17,19,21,23,25,27,29,31,33,35,-1,37,39,-1,-1,-1,41,43,45,47,49,51,53,55,57,-1,-1,-1,-1,-1,-1,-1,-1,-1,-1,-1,-1,-1,-1,-1,-1,-1,-1,-1,-1,-1,-1,-1,-1],"loss_changes":[2.5604782E1,8.746049E0,1.2216026E1,5.8288608E0,3.3785526E1,0E0,0E0,4.4381094E0,3.745122E0,9.9540146E1,1.4389933E1,1.0411773E0,1.4334128E1,6.872988E-2,3.9838076E0,1.9068583E1,1.4230678E2,8.784989E1,3.089196E1,9.75358E-1,0E0,1.0843201E0,5.6246395E0,0E0,0E0,0E0,1.1741066E-1,1.2154801E1,9.261316E0,1.2406619E2,4.0146337E0,4.37217E1,3.2738533E1,1.1528407E2,1.9575634E1,0E0,0E0,0E0,0E0,0E0,0E0,0E0,0E0,0E0,0E0,0E0,0E0,0E0,0E0,0E0,0E0,0E0,0E0,0E0,0E0,0E0,0E0,0E0,0E0],"parents":[2147483647,0,0,1,1,2,2,3,3,4,4,7,7,8,8,9,9,10,10,11,11,12,12,13,13,14,14,15,15,16,16,17,17,18,18,19,19,21,21,22,22,26,26,27,27,28,28,29,29,30,30,31,31,32,32,33,33,34,34],"right_children":[2,4,6,8,10,-1,-1,12,14,16,18,20,22,24,26,28,30,32,34,36,-1,38,40,-1,-1,-1,42,44,46,48,50,52,54,56,58,-1,-1,-1,-1,-1,-1,-1,-1,-1,-1,-1,-1,-1,-1,-1,-1,-1,-1,-1,-1,-1,-1,-1,-1],"split_conditions":[4E1,1.0735416E1,1.0820832E1,1.0508333E1,1.13E1,1.2389517E-2,1.3091561E0,1.5596767E1,3.4056774E1,1.120625E1,5.809848E1,7E-1,1.6179987E1,2E-1,1.1659777E1,1.6075521E1,5.466963E1,3.9081146E1,6.3807846E1,1.1966953E1,1.902287E-2,9.195834E0,1.8193361E1,3.4087874E-2,-4.4804264E-2,1.9822313E-2,1.5408671E1,1.0999999E1,3.8000002E0,4.007443E1,2.046941E1,5.570331E1,1.05E1,6.2867386E1,1.3697919E1,-6.326266E-2,-3.404355E-1,7.150661E-1,2.0798771E-1,-2.921688E-1,-3.3179607E-2,-1.9044554E-1,-7.137694E-1,4.8966026E-1,-1.6423804E-1,-9.3936026E-2,-7.913285E-1,7.17957E-1,4.1001573E0,-6.096439E-1,-5.6714537E-3,-5.7857767E-2,-4.788927E-1,1.1597123E0,-1.867354E-2,6.555632E-2,1.3722101E0,1.0395421E-1,-8.4295375E-3],"split_indices":[1,0,0,0,0,0,0,2,3,0,3,1,2,1,2,2,3,2,3,2,0,0,2,0,0,0,2,0,1,3,2,3,1,3,0,0,0,0,0,0,0,0,0,0,0,0,0,0,0,0,0,0,0,0,0,0,0,0,0],"split_type":[0,0,0,0,0,0,0,0,0,0,0,0,0,0,0,0,0,0,0,0,0,0,0,0,0,0,0,0,0,0,0,0,0,0,0,0,0,0,0,0,0,0,0,0,0,0,0,0,0,0,0,0,0,0,0,0,0,0,0],"sum_hessian":[1.746E3,1.744E3,2E0,7.5E1,1.669E3,1E0,1E0,6.9E1,6E0,3.4E1,1.635E3,9E0,6E1,2E0,4E0,2.7E1,7E0,2.35E2,1.4E3,8E0,1E0,3E0,5.7E1,1E0,1E0,1E0,3E0,1.1E1,1.6E1,4E0,3E0,2.26E2,9E0,5.3E1,1.347E3,2E0,6E0,1E0,2E0,8E0,4.9E1,1E0,2E0,8E0,3E0,1.5E1,1E0,3E0,1E0,1E0,2E0,2.02E2,2.4E1,6E0,3E0,4.7E1,6E0,1.57E2,1.19E3],"tree_param":{"num_deleted":"0","num_feature":"4","num_nodes":"59","size_leaf_vector":"1"}},{"base_weights":[1.614065E-2,1.1867599E-2,2.4962518E0,3.593103E-2,-1.763246E-1,1.0531068E-2,1.1127824E0,4.2879307E-3,5.943991E-1,-3.9553544E-1,9.65913E-2,1.6251933E-2,-6.1072946E-1,1.2214248E0,-1.728589E-2,-1.0231861E0,-5.0064456E-2,1.8106558E0,-4.9132112E-2,6.01824E-2,-1.7417362E-1,-9.979893E-1,-8.712281E-2,-5.6540966E-1,1.741641E0,-6.7004013E-1,1.7520906E-1,1.1992218E0,-1.1757276E0,2.6065825E-2,-5.429249E-1,-5.4880306E-2,3.351582E0,4.2135575E-1,-3.680812E-1,-1.2761432E-2,1.07464105E-1,-6.2732585E-2,6.603841E-1,-3.592983E-1,-9.575386E-2,6.9284365E-2,-1.1782423E-1,1.3576953E-1,-5.0216925E-1,2.3066807E0,2.583804E-1,-3.603072E-1,1.2800749E-1,3.76465E-1,-3.1730814E-3,7.0206356E-1,-1.6241372E-1,-5.2332526E-1,-1.212204E-1,-8.2966834E-2,4.8421483E-2,1.3097502E0,4.632397E-2,-1.2357359E-1,4.1535792E-1,-4.2494646E-1,-8.1307076E-2],"categories":[],"categories_nodes":[],"categories_segments":[],"categories_sizes":[],"default_left":[0,0,0,0,0,0,0,0,0,0,0,0,0,0,0,0,0,0,0,0,0,0,0,0,0,0,0,0,0,0,0,0,0,0,0,0,0,0,0,0,0,0,0,0,0,0,0,0,0,0,0,0,0,0,0,0,0,0,0,0,0,0,0],"id":19,"left_children":[1,3,5,7,9,-1,-1,11,13,15,17,19,21,23,25,27,29,31,33,35,37,39,41,43,45,47,49,51,53,55,-1,-1,57,59,61,-1,-1,-1,-1,-1,-1,-1,-1,-1,-1,-1,-1,-1,-1,-1,-1,-1,-1,-1,-1,-1,-1,-1,-1,-1,-1,-1,-1],"loss_changes":[1.8484457E1,7.908654E0,8.826075E0,2.7353182E1,1.1883777E1,0E0,0E0,1.0796856E1,3.1855116E1,2.3800634E1,2.2319323E1,1.2048413E1,5.590663E0,3.9095894E1,5.520429E0,1.4631332E1,9.692675E0,2.2116947E1,1.2610212E1,3.5833523E1,2.2866652E1,1.7863579E0,1.3544371E0,1.2041674E1,1.6092456E2,6.3359356E0,6.8332767E0,7.2249665E0,1.5532032E1,2.9115984E0,0E0,0E0,1.2296799E1,2.7857988E1,4.7038927E0,0E0,0E0,0E0,0E0,0E0,0E0,0E0,0E0,0E0,0E0,0E0,0E0,0E0,0E0,0E0,0E0,0E0,0E0,0E0,0E0,0E0,0E0,0E0,0E0,0E0,0E0,0E0,0E0],"parents":[2147483647,0,0,1,1,2,2,3,3,4,4,7,7,8,8,9,9,10,10,11,11,12,12,13,13,14,14,15,15,16,16,17,17,18,18,19,19,20,20,21,21,22,22,23,23,24,24,25,25,26,26,27,27,28,28,29,29,32,32,33,33,34,34],"right_children":[2,4,6,8,10,-1,-1,12,14,16,18,20,22,24,26,28,30,32,34,36,38,40,42,44,46,48,50,52,54,56,-1,-1,58,60,62,-1,-1,-1,-1,-1,-1,-1,-1,-1,-1,-1,-1,-1,-1,-1,-1,-1,-1,-1,-1,-1,-1,-1,-1,-1,-1,-1,-1],"split_conditions":[4E1,3.3574707E1,1.0820832E1,3.1487139E1,3.756786E1,1.0531068E-2,1.1127824E0,3.1035257E1,1.895988E2,7.2506226E1,4.9521538E1,2.619644E2,2.3318887E2,1.4487498E1,2.3974358E2,1.5741227E1,3.9000003E0,1.0735416E1,1.5102084E1,1.7225635E2,8.6E0,2.318125E1,1.6297916E1,3.211071E1,1.5270832E1,1E-1,2.5125856E2,1.6935415E1,1.7931248E1,1.5770832E1,-5.429249E-1,-5.4880306E-2,1.8833334E1,1.3102084E1,5.3445015E1,-1.2761432E-2,1.07464105E-1,-6.2732585E-2,6.603841E-1,-3.592983E-1,-9.575386E-2,6.9284365E-2,-1.1782423E-1,1.3576953E-1,-5.0216925E-1,2.3066807E0,2.583804E-1,-3.603072E-1,1.2800749E-1,3.76465E-1,-3.1730814E-3,7.0206356E-1,-1.6241372E-1,-5.2332526E-1,-1.212204E-1,-8.2966834E-2,4.8421483E-2,1.3097502E0,4.632397E-2,-1.2357359E-1,4.1535792E-1,-4.2494646E-1,-8.1307076E-2],"split_indices":[1,2,0,2,2,0,0,2,3,3,3,3,3,0,3,3,1,0,0,3,1,0,0,2,0,1,3,0,0,0,0,0,0,0,3,0,0,0,0,0,0,0,0,0,0,0,0,0,0,0,0,0,0,0,0,0,0,0,0,0,0,0,0],"split_type":[0,0,0,0,0,0,0,0,0,0,0,0,0,0,0,0,0,0,0,0,0,0,0,0,0,0,0,0,0,0,0,0,0,0,0,0,0,0,0,0,0,0,0,0,0,0,0,0,0,0,0,0,0,0,0,0,0,0,0,0,0,0,0],"sum_hessian":[1.746E3,1.744E3,2E0,1.547E3,1.97E2,1E0,1E0,1.465E3,8.2E1,1.09E2,8.8E1,1.438E3,2.7E1,4E1,4.2E1,3.8E1,7.1E1,6E0,8.2E1,1.169E3,2.69E2,1.5E1,1.2E1,9E0,3.1E1,9E0,3.3E1,2E0,3.6E1,6.9E1,2E0,3E0,3E0,3.3E1,4.9E1,8.7E2,2.99E2,2.66E2,3E0,1.1E1,4E0,6E0,6E0,5E0,4E0,3E0,2.8E1,6E0,3E0,4E0,2.9E1,1E0,1E0,2E1,1.6E1,2.1E1,4.8E1,2E0,1E0,1.8E1,1.5E1,3E0,4.6E1],"tree_param":{"num_deleted":"0","num_feature":"4","num_nodes":"63","size_leaf_vector":"1"}},{"base_weights":[1.3620247E-2,9.988037E-3,2.1218157E0,-7.3729777E-3,2.3504578E-1,8.951426E-3,9.458657E-1,4.5605235E-2,-1.4491203E-1,-2.7734837E-1,4.454226E-1,-8.368149E-3,8.233582E-1,-9.373754E-1,-7.80508E-2,6.899807E-1,-5.679902E-1,-4.695058E-3,1.1736922E0,1.6606222E-1,-9.785744E-2,1.4396974E0,1.691321E-1,8.588588E-2,-1.1962581E0,3.481711E0,-1.473192E-1,-4.4676813E-1,1.6887333E0,1.3449773E-2,-1.1919223E0,-4.8539314E-1,8.8483113E-1,1.8228575E0,-8.3208466E-1,-1.7563081E-1,1.09260164E-1,-2.3685692E-1,1.174884E-3,1.7051777E-1,1.2842678E0,-9.774947E-2,4.7628406E-1,-3.1530824E-1,1.2066419E0,-4.1354305E-1,7.250193E-2,-2.1934637E-1,1.2564E0,-1.9250606E-1,-1.0417316E-2,9.132796E-2,-3.1471205E-1,6.9826514E-1,-1.2998018E-1,-1.3691337E-1,4.6110818E-1,-5.332678E-1,-1.0570449E-1,-2.23642E-1,3.9846447E-1,9.208905E-1,9.561323E-2,1.678606E0,4.344431E-1,-4.6179116E-1,1.2465435E-2],"categories":[],"categories_nodes":[],"categories_segments":[],"categories_sizes":[],"default_left":[0,0,0,0,0,0,0,0,0,0,0,0,0,0,0,0,0,0,0,0,0,0,0,0,0,0,0,0,0,0,0,0,0,0,0,0,0,0,0,0,0,0,0,0,0,0,0,0,0,0,0,0,0,0,0,0,0,0,0,0,0,0,0,0,0,0,0],"id":20,"left_children":[1,3,5,7,9,-1,-1,11,13,15,17,19,21,23,25,27,29,31,33,35,37,39,41,43,45,47,49,51,53,55,57,59,61,63,65,-1,-1,-1,-1,-1,-1,-1,-1,-1,-1,-1,-1,-1,-1,-1,-1,-1,-1,-1,-1,-1,-1,-1,-1,-1,-1,-1,-1,-1,-1,-1,-1],"loss_changes":[1.33563E1,6.819851E0,6.376848E0,1.1818144E1,1.3598019E1,0E0,0E0,4.9163074E1,2.3823105E1,1.0794314E1,2.9180336E1,1.7124426E1,3.0401615E1,9.374405E0,1.0333636E2,1.097245E1,1.053662E1,2.4374727E1,4.578752E1,5.5604237E1,5.103829E1,9.411309E1,2.719697E1,4.0028812E1,7.6696396E0,2.6866074E1,2.2799644E1,2.5814729E0,7.7863007E0,1.2154567E1,6.2572803E0,1.844244E1,2.3758917E1,2.8650894E1,5.62463E0,0E0,0E0,0E0,0E0,0E0,0E0,0E0,0E0,0E0,0E0,0E0,0E0,0E0,0E0,0E0,0E0,0E0,0E0,0E0,0E0,0E0,0E0,0E0,0E0,0E0,0E0,0E0,0E0,0E0,0E0,0E0,0E0],"parents":[2147483647,0,0,1,1,2,2,3,3,4,4,7,7,8,8,9,9,10,10,11,11,12,12,13,13,14,14,15,15,16,16,17,17,18,18,19,19,20,20,21,21,22,22,23,23,24,24,25,25,26,26,27,27,28,28,29,29,30,30,31,31,32,32,33,33,34,34],"right_children":[2,4,6,8,10,-1,-1,12,14,16,18,20,22,24,26,28,30,32,34,36,38,40,42,44,46,48,50,52,54,56,58,60,62,64,66,-1,-1,-1,-1,-1,-1,-1,-1,-1,-1,-1,-1,-1,-1,-1,-1,-1,-1,-1,-1,-1,-1,-1,-1,-1,-1,-1,-1,-1,-1,-1,-1],"split_conditions":[4E1,2.7637497E1,1.0820832E1,2.2849998E1,1.8075441E1,8.951426E-3,9.458657E-1,2.1977087E1,2.3341667E1,1.5646544E1,1.01954124E2,7.8111404E1,2.0969805E1,1.8709612E1,2.3414583E1,1.4131392E2,1.4278346E2,2.7792374E1,2.5210283E1,1.6485485E1,1.2479611E2,1.905281E1,2.2670835E1,1.757744E1,3.211071E1,4.9521538E1,2.431042E1,2.8074995E1,2.830625E1,1.2768956E2,1.5387534E2,2E-1,2.8657898E1,2.76625E1,2.9120834E1,-1.7563081E-1,1.09260164E-1,-2.3685692E-1,1.174884E-3,1.7051777E-1,1.2842678E0,-9.774947E-2,4.7628406E-1,-3.1530824E-1,1.2066419E0,-4.1354305E-1,7.250193E-2,-2.1934637E-1,1.2564E0,-1.9250606E-1,-1.0417316E-2,9.132796E-2,-3.1471205E-1,6.9826514E-1,-1.2998018E-1,-1.3691337E-1,4.6110818E-1,-5.332678E-1,-1.0570449E-1,-2.23642E-1,3.9846447E-1,9.208905E-1,9.561323E-2,1.678606E0,4.344431E-1,-4.6179116E-1,1.2465435E-2],"split_indices":[1,0,0,0,2,0,0,0,0,2,3,3,2,2,0,3,3,2,2,2,3,2,0,2,2,3,0,0,0,3,3,1,2,0,0,0,0,0,0,0,0,0,0,0,0,0,0,0,0,0,0,0,0,0,0,0,0,0,0,0,0,0,0,0,0,0,0],"split_type":[0,0,0,0,0,0,0,0,0,0,0,0,0,0,0,0,0,0,0,0,0,0,0,0,0,0,0,0,0,0,0,0,0,0,0,0,0,0,0,0,0,0,0,0,0,0,0,0,0,0,0,0,0,0,0,0,0,0,0,0,0,0,0,0,0,0,0],"sum_hessian":[1.746E3,1.744E3,2E0,1.62E3,1.24E2,1E0,1E0,1.17E3,4.5E2,3.6E1,8.8E1,1.095E3,7.5E1,3.4E1,4.16E2,8E0,2.8E1,5.5E1,3.3E1,3.71E2,7.24E2,3.8E1,3.7E1,7E0,2.7E1,7E0,4.09E2,4E0,4E0,1.5E1,1.3E1,3.6E1,1.9E1,2.5E1,8E0,7.7E1,2.94E2,9.2E1,6.32E2,3E1,8E0,2.8E1,9E0,6E0,1E0,2.4E1,3E0,1E0,6E0,7.5E1,3.34E2,2E0,2E0,3E0,1E0,1.2E1,3E0,7E0,6E0,3.2E1,4E0,3E0,1.6E1,1E0,2.4E1,4E0,4E0],"tree_param":{"num_deleted":"0","num_feature":"4","num_nodes":"67","size_leaf_vector":"1"}},{"base_weights":[1.340118E-2,1.03158895E-2,1.8035445E0,1.2449711E-1,-2.851189E-2,7.6086763E-3,8.039864E-1,-1.8202178E-2,8.249176E-1,-2.8308332E-1,4.144225E-2,8.691708E-2,-1.0238236E0,2.6259952E0,2.100862E-1,-1.4896919E-1,-1.2530016E0,1.3603096E0,2.1794626E-2,-3.483409E-1,2.6065812E-1,-1.2344153E0,1.6339589E0,3.0982592E0,8.0439806E-2,-1.479811E-2,2.5518427E0,-7.5813603E-1,4.8363893E-3,-9.780034E-1,-9.5361316E-1,-3.614445E-1,2.5103424E0,-1.0564457E-2,4.8429734E-1,-5.8736496E-2,-4.9221435E-1,1.2826996E0,6.268608E-2,-5.083622E-1,-1.4667626E-1,6.6650665E-1,6.8774916E-2,1.0287912E0,-2.801109E-1,2.151168E-1,-2.7441132E-1,1.7313251E-1,-1.1730523E-1,1.6466573E0,-3.7073606E-1,2.3334093E-1,-3.9564362E-1,4.073004E0,-3.9683208E-2,-3.2374817E-1,4.2192122E-1,8.385221E-1,-2.5722313E-1,6.0529776E-2,-2.2724018E-2,3.2665986E-1,1.9231804E-2],"categories":[],"categories_nodes":[],"categories_segments":[],"categories_sizes":[],"default_left":[0,0,0,0,0,0,0,0,0,0,0,0,0,0,0,0,0,0,0,0,0,0,0,0,0,0,0,0,0,0,0,0,0,0,0,0,0,0,0,0,0,0,0,0,0,0,0,0,0,0,0,0,0,0,0,0,0,0,0,0,0,0,0],"id":21,"left_children":[1,3,5,7,9,-1,-1,11,13,15,17,19,21,23,25,27,29,31,33,35,37,39,41,43,45,47,49,51,53,-1,55,57,-1,59,61,-1,-1,-1,-1,-1,-1,-1,-1,-1,-1,-1,-1,-1,-1,-1,-1,-1,-1,-1,-1,-1,-1,-1,-1,-1,-1,-1,-1],"loss_changes":[9.630271E0,7.739838E0,4.60728E0,4.4292645E1,2.321598E1,0E0,0E0,3.9096046E1,8.2500244E1,3.6365746E1,2.647895E1,2.5424225E1,2.1606716E1,2.2592087E1,3.0055346E1,2.3239597E1,1.7320972E1,1.8400232E2,1.5105976E1,1.860564E1,4.892916E1,1.0491192E1,1.9674473E0,2.455809E1,3.1899934E0,1.2028049E1,6.2404682E1,4.408398E1,3.7211224E2,0E0,1.0702847E1,2.2748358E1,0E0,1.3080407E1,1.6696478E1,0E0,0E0,0E0,0E0,0E0,0E0,0E0,0E0,0E0,0E0,0E0,0E0,0E0,0E0,0E0,0E0,0E0,0E0,0E0,0E0,0E0,0E0,0E0,0E0,0E0,0E0,0E0,0E0],"parents":[2147483647,0,0,1,1,2,2,3,3,4,4,7,7,8,8,9,9,10,10,11,11,12,12,13,13,14,14,15,15,16,16,17,17,18,18,19,19,20,20,21,21,22,22,23,23,24,24,25,25,26,26,27,27,28,28,30,30,31,31,33,33,34,34],"right_children":[2,4,6,8,10,-1,-1,12,14,16,18,20,22,24,26,28,30,32,34,36,38,40,42,44,46,48,50,52,54,-1,56,58,-1,60,62,-1,-1,-1,-1,-1,-1,-1,-1,-1,-1,-1,-1,-1,-1,-1,-1,-1,-1,-1,-1,-1,-1,-1,-1,-1,-1,-1,-1],"split_conditions":[4E1,1.7106628E1,1.0820832E1,1.656E1,1.9652176E1,7.6086763E-3,8.039864E-1,1.6263872E1,7.563788E1,1.9255793E1,1.9829433E1,7.7417046E1,3.5447253E2,2.1808334E1,7.0000005E-1,6.6999466E1,6.94247E1,2E-1,2.76625E1,6.6999466E1,7.8586174E1,2.1708334E1,1.158125E1,3.1000001E0,2.3414583E1,1.678156E1,1E0,1.2716667E1,6.94247E1,-9.780034E-1,8.6E0,5.2114494E1,2.5103424E0,2.2380884E1,2.5210283E1,-5.8736496E-2,-4.9221435E-1,1.2826996E0,6.268608E-2,-5.083622E-1,-1.4667626E-1,6.6650665E-1,6.8774916E-2,1.0287912E0,-2.801109E-1,2.151168E-1,-2.7441132E-1,1.7313251E-1,-1.1730523E-1,1.6466573E0,-3.7073606E-1,2.3334093E-1,-3.9564362E-1,4.073004E0,-3.9683208E-2,-3.2374817E-1,4.2192122E-1,8.385221E-1,-2.5722313E-1,6.0529776E-2,-2.2724018E-2,3.2665986E-1,1.9231804E-2],"split_indices":[1,2,0,2,2,0,0,2,3,2,2,3,3,0,1,3,3,1,0,3,3,0,0,1,0,2,1,0,3,0,1,3,0,2,2,0,0,0,0,0,0,0,0,0,0,0,0,0,0,0,0,0,0,0,0,0,0,0,0,0,0,0,0],"split_type":[0,0,0,0,0,0,0,0,0,0,0,0,0,0,0,0,0,0,0,0,0,0,0,0,0,0,0,0,0,0,0,0,0,0,0,0,0,0,0,0,0,0,0,0,0,0,0,0,0,0,0,0,0,0,0,0,0,0,0,0,0,0,0],"sum_hessian":[1.746E3,1.744E3,2E0,4.42E2,1.302E3,1E0,1E0,3.68E2,7.4E1,2.8E2,1.022E3,3.34E2,3.4E1,1.8E1,5.6E1,2.47E2,3.3E1,1.4E1,1.008E3,9.5E1,2.39E2,3.2E1,2E0,1.5E1,3E0,5.2E1,4E0,4.9E1,1.98E2,3E0,3E1,1.2E1,2E0,9.43E2,6.5E1,8.6E1,9E0,2E0,2.37E2,1.9E1,1.3E1,1E0,1E0,1.4E1,1E0,2E0,1E0,2E1,3.2E1,2E0,2E0,1.3E1,3.6E1,1E0,1.97E2,2.9E1,1E0,1E0,1.1E1,2.21E2,7.22E2,2.6E1,3.9E1],"tree_param":{"num_deleted":"0","num_feature":"4","num_nodes":"63","size_leaf_vector":"1"}},{"base_weights":[1.5204519E-2,1.2586392E-2,1.533013E0,5.3875722E-2,-6.730706E-2,6.467343E-3,6.8338853E-1,1.1817548E-2,1.1641304E0,-7.778247E-1,-2.2858888E-2,2.2583218E-2,-1.4739764E0,4.168934E0,5.146484E-1,-2.8640733E0,-1.5397424E-1,-1.4326611E-1,1.0378396E-1,3.0456001E-2,-1.4218997E0,-2.238237E0,-1.5015656E-1,-4.2638645E0,8.690302E-1,-3.2128315E0,-6.3414864E-2,4.4615912E-1,-1.4704957E0,-2.2850722E-1,6.8919444E-1,4.0935745E0,1.4406538E-2,5.9371204E-3,4.443511E-1,-6.9537306E-1,7.402425E-2,-1.269938E-1,-7.75842E-1,6.3335754E-2,-1.02286465E-1,-1.5282673E0,-3.904718E-1,1.9798748E0,7.665125E-3,-1.2867271E0,-4.0000954E-1,3.1507033E-1,-3.415167E-1,-2.642964E-1,-5.9614E-1,5.489369E-4,-1.3765746E-1,1.0129012E0,-1.8598084E-1,7.122479E-2,3.5061553E0,-1.372187E-1,4.9179625E-2],"categories":[],"categories_nodes":[],"categories_segments":[],"categories_sizes":[],"default_left":[0,0,0,0,0,0,0,0,0,0,0,0,0,0,0,0,0,0,0,0,0,0,0,0,0,0,0,0,0,0,0,0,0,0,0,0,0,0,0,0,0,0,0,0,0,0,0,0,0,0,0,0,0,0,0,0,0,0,0],"id":22,"left_children":[1,3,5,7,9,-1,-1,11,13,15,17,19,21,-1,23,25,27,29,31,33,35,37,39,41,43,45,-1,47,49,51,53,55,57,-1,-1,-1,-1,-1,-1,-1,-1,-1,-1,-1,-1,-1,-1,-1,-1,-1,-1,-1,-1,-1,-1,-1,-1,-1,-1],"loss_changes":[6.9229584E0,5.7599397E0,3.3287625E0,5.3732513E1,1.877304E1,0E0,0E0,1.7788368E1,3.4016345E2,4.5111755E1,8.569397E0,1.2586729E1,7.75786E0,0E0,7.313556E1,6.7220383E0,2.2778553E1,2.0593924E1,9.764865E1,1.6959757E1,9.542691E0,2.0623417E0,3.4770527E-1,7.48806E-1,1.8834198E2,8.44062E0,0E0,2.0339304E1,9.9041367E-1,1.3902128E1,9.707427E1,1.7291824E2,1.9051985E1,0E0,0E0,0E0,0E0,0E0,0E0,0E0,0E0,0E0,0E0,0E0,0E0,0E0,0E0,0E0,0E0,0E0,0E0,0E0,0E0,0E0,0E0,0E0,0E0,0E0,0E0],"parents":[2147483647,0,0,1,1,2,2,3,3,4,4,7,7,8,8,9,9,10,10,11,11,12,12,14,14,15,15,16,16,17,17,18,18,19,19,20,20,21,21,22,22,23,23,24,24,25,25,27,27,28,28,29,29,30,30,31,31,32,32],"right_children":[2,4,6,8,10,-1,-1,12,14,16,18,20,22,-1,24,26,28,30,32,34,36,38,40,42,44,46,-1,48,50,52,54,56,58,-1,-1,-1,-1,-1,-1,-1,-1,-1,-1,-1,-1,-1,-1,-1,-1,-1,-1,-1,-1,-1,-1,-1,-1,-1,-1],"split_conditions":[4E1,2.141145E2,1.0820832E1,1.9930048E2,2.237972E2,6.467343E-3,6.8338853E-1,1.979353E2,1.2279167E1,1.731746E1,2.3795427E1,4.5361427E1,2.542083E1,4.168934E0,1.4281251E1,8.000001E0,2.9869154E1,8E-1,2.3950148E1,4.1736717E1,3.8000002E0,1.3708391E1,2.5502083E1,1.4235415E1,1.7145834E1,1.59134655E1,-6.3414864E-2,2.2107516E2,1E-1,1.7462782E1,1.5E0,1E-1,2.5053735E2,5.9371204E-3,4.443511E-1,-6.9537306E-1,7.402425E-2,-1.269938E-1,-7.75842E-1,6.3335754E-2,-1.02286465E-1,-1.5282673E0,-3.904718E-1,1.9798748E0,7.665125E-3,-1.2867271E0,-4.0000954E-1,3.1507033E-1,-3.415167E-1,-2.642964E-1,-5.9614E-1,5.489369E-4,-1.3765746E-1,1.0129012E0,-1.8598084E-1,7.122479E-2,3.5061553E0,-1.372187E-1,4.9179625E-2],"split_indices":[1,3,0,3,3,0,0,3,0,2,2,2,0,0,0,1,2,1,2,2,1,2,0,0,0,2,0,3,1,2,1,1,3,0,0,0,0,0,0,0,0,0,0,0,0,0,0,0,0,0,0,0,0,0,0,0,0,0,0],"split_type":[0,0,0,0,0,0,0,0,0,0,0,0,0,0,0,0,0,0,0,0,0,0,0,0,0,0,0,0,0,0,0,0,0,0,0,0,0,0,0,0,0,0,0,0,0,0,0,0,0,0,0,0,0,0,0,0,0,0,0],"sum_hessian":[1.746E3,1.744E3,2E0,1.15E3,5.94E2,1E0,1E0,1.109E3,4.1E1,3.4E1,5.6E2,1.102E3,7E0,1E0,4E1,7E0,2.7E1,2.87E2,2.73E2,1.097E3,5E0,4E0,3E0,2E0,3.8E1,6E0,1E0,1.9E1,8E0,2.61E2,2.6E1,5E0,2.68E2,1.09E3,7E0,3E0,2E0,1E0,3E0,1E0,2E0,1E0,1E0,4E0,3.4E1,3E0,3E0,1.4E1,5E0,5E0,3E0,1.31E2,1.3E2,8E0,1.8E1,4E0,1E0,6.4E1,2.04E2],"tree_param":{"num_deleted":"0","num_feature":"4","num_nodes":"59","size_leaf_vector":"1"}},{"base_weights":[1.3709473E-2,1.148497E-2,1.3030587E0,1.596988E-2,-6.969518E-1,5.4972414E-3,5.808792E-1,9.2864055E-3,7.8172266E-1,-1.1363637E0,5.761528E-2,1.9737221E-2,-4.0896732E-1,2.1285698E0,-1.0616127E0,-5.325581E-1,-5.291756E-1,4.313089E-1,-1.00585036E-1,4.747752E-3,1.6832517E0,1.7749413E0,-7.520615E-1,3.538361E0,2.930646E-1,8.6239815E-2,-4.0031105E-1,-1.9622321E-1,-7.005582E-2,2.037692E-2,1.7371209E-1,6.797505E-3,-2.7315608E-1,1.5901241E-2,2.4559722E0,7.754967E-2,9.6156526E-1,-3.0596173E-1,5.137041E-1,1.3055713E0,4.2628244E-2,-6.012948E-2,1.3996397E-1],"categories":[],"categories_nodes":[],"categories_segments":[],"categories_sizes":[],"default_left":[0,0,0,0,0,0,0,0,0,0,0,0,0,0,0,0,0,0,0,0,0,0,0,0,0,0,0,0,0,0,0,0,0,0,0,0,0,0,0,0,0,0,0],"id":23,"left_children":[1,3,5,7,9,-1,-1,11,13,15,17,19,21,23,25,27,-1,29,-1,31,33,35,37,39,41,-1,-1,-1,-1,-1,-1,-1,-1,-1,-1,-1,-1,-1,-1,-1,-1,-1,-1],"loss_changes":[4.9957123E0,5.555475E0,2.4050212E0,8.872279E0,3.712696E0,0E0,0E0,7.5307217E0,3.9500084E1,1.7130585E0,8.7872946E-1,4.188314E1,3.2804886E1,2.2252148E1,2.9593854E0,2.8955102E-2,0E0,1.21720314E-1,0E0,2.7331364E1,1.5859647E2,1.2185041E1,2.6166212E1,1.3196671E1,5.21574E-1,0E0,0E0,0E0,0E0,0E0,0E0,0E0,0E0,0E0,0E0,0E0,0E0,0E0,0E0,0E0,0E0,0E0,0E0],"parents":[2147483647,0,0,1,1,2,2,3,3,4,4,7,7,8,8,9,9,10,10,11,11,12,12,13,13,14,14,15,15,17,17,19,19,20,20,21,21,22,22,23,23,24,24],"right_children":[2,4,6,8,10,-1,-1,12,14,16,18,20,22,24,26,28,-1,30,-1,32,34,36,38,40,42,-1,-1,-1,-1,-1,-1,-1,-1,-1,-1,-1,-1,-1,-1,-1,-1,-1,-1],"split_conditions":[4E1,1.92E1,1.0820832E1,1.43E1,2.91E1,5.4972414E-3,5.808792E-1,6.8E0,6.0599777E1,3.1353088E1,3.5E1,5.299999E0,1.6263872E1,3.2686733E1,1.4400001E1,1.4235415E1,-5.291756E-1,1.3239585E1,-1.00585036E-1,3.3999999E0,2.3950148E1,1.4408333E1,3.714286E1,1.52E1,9.195834E0,8.6239815E-2,-4.0031105E-1,-1.9622321E-1,-7.005582E-2,2.037692E-2,1.7371209E-1,6.797505E-3,-2.7315608E-1,1.5901241E-2,2.4559722E0,7.754967E-2,9.6156526E-1,-3.0596173E-1,5.137041E-1,1.3055713E0,4.2628244E-2,-6.012948E-2,1.3996397E-1],"split_indices":[1,1,0,1,1,0,0,1,3,2,1,1,2,2,1,0,0,0,0,1,2,0,2,0,0,0,0,0,0,0,0,0,0,0,0,0,0,0,0,0,0,0,0],"split_type":[0,0,0,0,0,0,0,0,0,0,0,0,0,0,0,0,0,0,0,0,0,0,0,0,0,0,0,0,0,0,0,0,0,0,0,0,0,0,0,0,0,0,0],"sum_hessian":[1.746E3,1.744E3,2E0,1.734E3,1E1,1E0,1E0,1.72E3,1.4E1,6E0,4E0,1.679E3,4.1E1,8E0,6E0,4E0,2E0,2E0,2E0,1.665E3,1.4E1,5E0,3.6E1,4E0,4E0,1E0,5E0,2E0,2E0,1E0,1E0,1.634E3,3.1E1,1.2E1,2E0,3E0,2E0,3.3E1,3E0,3E0,1E0,1E0,3E0],"tree_param":{"num_deleted":"0","num_feature":"4","num_nodes":"43","size_leaf_vector":"1"}},{"base_weights":[1.2144352E-2,-1.9036263E-1,2.3129566E-2,3.4016334E-2,-9.292276E-1,1.9471325E0,1.4963009E-2,2.858296E-1,-9.083543E-1,-1.227747E0,1.2711372E0,1.3694646E0,7.5002736E-1,3.230154E-1,-4.0401975E-3,6.5997325E-2,2.5149193E0,3.0561393E-1,-2.008778E0,-1.7435021E0,-4.6096307E-1,5.301234E-1,4.1888382E-2,7.8768915E-1,-1.5021935E-1,7.671268E-1,-5.8918005E-1,-9.952701E-1,1.5423766E-2,5.6038344E-1,-6.336375E-1,-4.736312E-2,1.2716687E0,5.0422615E-1,-1.9348185E-1,-6.9132847E-1,-7.4788547E-1,-3.777779E-1,-2.4699478E0,1.8629122E-1,-8.156387E-1,-1.2669907E0,6.475299E-1,4.10095E-1,3.5425742E0,-1.2049491E0,-3.4905705E-1,-4.1281804E-1,-2.3084562E0,1.7047112E0,-1.9699076E-4,-3.0276135E-2,3.3327693E-1,-2.7322012E-1,2.5229365E-1,-1.74429E-1,1.5311559E-1,2.1719272E-1,1.29454145E-2,-8.6056285E-2,-1.0105491E-3,-5.818749E-2,-2.78361E-1,-4.3376872E-1,5.84204E-1,-8.912383E-1,-2.4356636E-1,1.4716645E-1,-1.0897494E-1,-2.781616E-1,-3.8670983E-2,-4.3415338E-1,-1.08964354E-1,5.0086766E-1,2.6202777E-2,2.1024017E-1,-2.4311966E-1,-1.7818463E-1,2.7969778E-1,-4.8532344E-2,-8.69605E-1,2.1325455E0,6.351254E-2,-2.8436863E-1,5.09632E-3],"categories":[],"categories_nodes":[],"categories_segments":[],"categories_sizes":[],"default_left":[0,0,0,0,0,0,0,0,0,0,0,0,0,0,0,0,0,0,0,0,0,0,0,0,0,0,0,0,0,0,0,0,0,0,0,0,0,0,0,0,0,0,0,0,0,0,0,0,0,0,0,0,0,0,0,0,0,0,0,0,0,0,0,0,0,0,0,0,0,0,0,0,0,0,0,0,0,0,0,0,0,0,0,0,0],"id":24,"left_children":[1,3,5,7,9,11,13,15,17,19,21,-1,23,25,27,29,31,33,35,37,39,-1,-1,-1,41,43,45,47,49,51,53,55,-1,57,59,-1,61,63,65,67,69,71,-1,73,-1,-1,75,77,79,81,83,-1,-1,-1,-1,-1,-1,-1,-1,-1,-1,-1,-1,-1,-1,-1,-1,-1,-1,-1,-1,-1,-1,-1,-1,-1,-1,-1,-1,-1,-1,-1,-1,-1,-1],"loss_changes":[3.8907483E0,1.4952326E1,2.6022154E1,1.6870735E1,1.5354513E1,1.851226E1,9.672086E0,2.727547E1,2.0652107E1,6.7102947E0,1.4367509E0,0E0,1.0525453E1,3.9343147E1,3.0054962E1,1.8341347E1,2.2287338E1,8.905708E-1,1.2588158E0,9.980278E0,2.2180343E0,0E0,0E0,0E0,1.5625898E1,2.513971E2,2.4933304E1,2.1993065E1,4.032112E1,1.139841E1,9.75534E0,1.190378E0,0E0,5.766853E-1,5.2287757E-2,0E0,1.191268E-1,1.5233195E1,3.401081E0,8.4701526E-1,3.4018016E-1,1.2576008E-1,0E0,2.5869858E1,0E0,0E0,1.5582565E1,5.9139833E0,1.0934334E1,1.11444954E2,2.4689295E1,0E0,0E0,0E0,0E0,0E0,0E0,0E0,0E0,0E0,0E0,0E0,0E0,0E0,0E0,0E0,0E0,0E0,0E0,0E0,0E0,0E0,0E0,0E0,0E0,0E0,0E0,0E0,0E0,0E0,0E0,0E0,0E0,0E0,0E0],"parents":[2147483647,0,0,1,1,2,2,3,3,4,4,5,5,6,6,7,7,8,8,9,9,10,10,12,12,13,13,14,14,15,15,16,16,17,17,18,18,19,19,20,20,24,24,25,25,26,26,27,27,28,28,29,29,30,30,31,31,33,33,34,34,36,36,37,37,38,38,39,39,40,40,41,41,43,43,46,46,47,47,48,48,49,49,50,50],"right_children":[2,4,6,8,10,12,14,16,18,20,22,-1,24,26,28,30,32,34,36,38,40,-1,-1,-1,42,44,46,48,50,52,54,56,-1,58,60,-1,62,64,66,68,70,72,-1,74,-1,-1,76,78,80,82,84,-1,-1,-1,-1,-1,-1,-1,-1,-1,-1,-1,-1,-1,-1,-1,-1,-1,-1,-1,-1,-1,-1,-1,-1,-1,-1,-1,-1,-1,-1,-1,-1,-1,-1],"split_conditions":[1.3513193E1,1.3207634E1,1.3708391E1,1.7449999E1,3.31607E2,8.578762E1,1.4973576E1,1.6824999E1,6.210284E1,1.3697919E1,1.5620834E1,1.3694646E0,1.3152084E1,2.1153474E2,1.5175612E1,2.898675E2,1.2768956E2,1E-1,2.109375E1,1.1685417E1,1.7320835E1,5.301234E-1,4.1888382E-2,7.8768915E-1,1E-1,2.025317E2,2.1921571E2,1.5387534E2,1.5315873E1,1.2022365E2,1E-1,1.7241667E1,1.2716687E0,1.3044722E1,1.9983335E1,-6.9132847E-1,2.3545835E1,1.13E1,1.3102084E1,1.4278346E2,8.000001E-1,1.5770832E1,6.475299E-1,1.473125E1,3.5425742E0,-1.2049491E0,1.4007655E1,1.3000001E0,1.120625E1,1.1885418E1,1.5542662E1,-3.0276135E-2,3.3327693E-1,-2.7322012E-1,2.5229365E-1,-1.74429E-1,1.5311559E-1,2.1719272E-1,1.29454145E-2,-8.6056285E-2,-1.0105491E-3,-5.818749E-2,-2.78361E-1,-4.3376872E-1,5.84204E-1,-8.912383E-1,-2.4356636E-1,1.4716645E-1,-1.0897494E-1,-2.781616E-1,-3.8670983E-2,-4.3415338E-1,-1.08964354E-1,5.0086766E-1,2.6202777E-2,2.1024017E-1,-2.4311966E-1,-1.7818463E-1,2.7969778E-1,-4.8532344E-2,-8.69605E-1,2.1325455E0,6.351254E-2,-2.8436863E-1,5.09632E-3],"split_indices":[2,2,2,0,3,3,2,0,3,0,0,0,0,3,2,3,3,1,0,0,0,0,0,0,1,3,3,3,2,3,1,0,0,2,0,0,0,0,0,3,1,0,0,0,0,0,2,1,0,0,2,0,0,0,0,0,0,0,0,0,0,0,0,0,0,0,0,0,0,0,0,0,0,0,0,0,0,0,0,0,0,0,0,0,0],"split_type":[0,0,0,0,0,0,0,0,0,0,0,0,0,0,0,0,0,0,0,0,0,0,0,0,0,0,0,0,0,0,0,0,0,0,0,0,0,0,0,0,0,0,0,0,0,0,0,0,0,0,0,0,0,0,0,0,0,0,0,0,0,0,0,0,0,0,0,0,0,0,0,0,0,0,0,0,0,0,0,0,0,0,0,0,0],"sum_hessian":[1.746E3,8.9E1,1.657E3,6.9E1,2E1,6E0,1.651E3,5.5E1,1.4E1,1.8E1,2E0,1E0,5E0,9.5E1,1.556E3,5.1E1,4E0,7E0,7E0,1E1,8E0,1E0,1E0,1E0,4E0,6.4E1,3.1E1,2.9E1,1.527E3,3E1,2.1E1,2E0,2E0,5E0,2E0,5E0,2E0,4E0,6E0,3E0,5E0,3E0,1E0,6.3E1,1E0,1E0,3E1,2.1E1,8E0,1.3E1,1.514E3,1.4E1,1.6E1,1.8E1,3E0,1E0,1E0,3E0,2E0,1E0,1E0,1E0,1E0,3E0,1E0,4E0,2E0,2E0,1E0,4E0,1E0,2E0,1E0,1.2E1,5.1E1,9E0,2.1E1,1.9E1,2E0,2E0,6E0,2E0,1.1E1,2.6E1,1.488E3],"tree_param":{"num_deleted":"0","num_feature":"4","num_nodes":"85","size_leaf_vector":"1"}},{"base_weights":[1.2021374E-2,9.806303E-2,-1.7195847E-2,5.633609E-1,-6.03392E-3,-6.052048E-1,2.837076E-3,1.2838478E0,-1.0320537E-1,-8.832122E-1,1.2087248E-1,-8.7805605E-1,6.982764E-1,3.309517E0,-1.8226838E-2,-3.3488572E-1,2.5499094E0,-2.41449E0,4.1328028E-1,8.056976E-1,-1.3747343E0,1.2922779E0,7.071188E-2,-2.192614E0,-2.1194603E-1,2.172484E0,-6.207449E-1,6.9714594E0,-2.8194064E-1,-5.4397994E-1,2.6618112E-3,-1.0780342E0,1.812907E0,7.584899E0,1.6671655E0,-2.518983E-1,-3.093371E0,3.956829E0,-2.858995E-1,1.2558849E0,-2.440291E-1,-6.161978E-1,-1.8294303E0,1.3166195E0,6.6851246E-1,-1.9779539E0,1.1827838E-1,-5.16274E-1,-8.082091E-1,3.1223035E0,-8.085393E-1,-1.8704318E-1,9.93689E-1,-9.172509E-1,8.4791854E-2,-6.437232E-1,3.217733E0,-3.7069765E-1,2.2972733E-1,-7.234344E-1,2.3889818E0,4.8050636E-1,-2.3147441E-2,1.5520567E-1,-5.303772E-1,8.413053E-1,-3.2293034E-1,3.0111883E0,4.0201652E-1,1.9416668E-1,1.181749E0,-1.7052127E-2,-9.630211E-2,-1.0461076E0,-1.6876467E-1,5.079723E-1,2.2912154E0,-1.6438037E-1,4.859462E-1,-1.8091325E-1,4.6908948E-1,4.751622E-2,-5.4134214E-1,-6.346137E-1,-4.1453186E-3,-4.984547E-2,5.6108177E-1,-1.049904E0,1.1478156E-2,4.486587E-1,2.1163117E-2,-2.5190664E-2,-1.8971582E-1,1.4872468E0,-3.5748798E-1,-3.2394385E-1,3.8083908E-1,5.5195536E-2,-4.036974E-1,-5.069646E-1,-7.434144E-2,3.041053E-2,1.0446314E0,2.8252712E-1,-2.3875463E-1,-1.421635E-1,9.420776E-3],"categories":[],"categories_nodes":[],"categories_segments":[],"categories_sizes":[],"default_left":[0,0,0,0,0,0,0,0,0,0,0,0,0,0,0,0,0,0,0,0,0,0,0,0,0,0,0,0,0,0,0,0,0,0,0,0,0,0,0,0,0,0,0,0,0,0,0,0,0,0,0,0,0,0,0,0,0,0,0,0,0,0,0,0,0,0,0,0,0,0,0,0,0,0,0,0,0,0,0,0,0,0,0,0,0,0,0,0,0,0,0,0,0,0,0,0,0,0,0,0,0,0,0,0,0,0,0],"id":25,"left_children":[1,3,5,7,9,11,13,15,17,19,21,23,25,27,29,31,33,35,37,39,41,43,45,47,49,51,53,55,57,59,61,63,65,67,69,71,73,75,77,79,-1,81,83,-1,85,87,89,91,-1,93,95,-1,-1,97,-1,-1,-1,-1,-1,99,101,103,105,-1,-1,-1,-1,-1,-1,-1,-1,-1,-1,-1,-1,-1,-1,-1,-1,-1,-1,-1,-1,-1,-1,-1,-1,-1,-1,-1,-1,-1,-1,-1,-1,-1,-1,-1,-1,-1,-1,-1,-1,-1,-1,-1,-1],"loss_changes":[4.393466E0,2.1460587E1,1.5374014E1,3.903294E1,4.0515747E1,1.5906355E1,8.803032E1,8.078117E1,5.232891E1,3.92939E1,1.859379E1,3.1058332E1,1.6904648E1,1.0717923E2,1.3795182E1,3.0684689E1,8.513606E1,1.09659195E1,9.032405E1,9.039595E0,1.128923E1,2.2175066E1,3.005299E1,8.695671E0,5.2254272E1,1.481263E1,1.5985459E0,1.5993024E2,5.9422603E0,2.699226E1,1.492149E1,1.6323608E1,1.7341799E1,3.2493927E1,4.3796658E1,2.219443E-2,4.015995E0,3.7055626E1,1.6367886E1,6.09165E0,0E0,1.4092118E1,1.1392548E1,0E0,1.2347538E1,2.161078E1,1.9617275E1,1.4768255E-1,0E0,3.7574924E1,1.3772339E1,0E0,0E0,2.13469E0,0E0,0E0,0E0,0E0,0E0,2.072611E1,7.1489506E0,3.7250114E1,2.8241194E1,0E0,0E0,0E0,0E0,0E0,0E0,0E0,0E0,0E0,0E0,0E0,0E0,0E0,0E0,0E0,0E0,0E0,0E0,0E0,0E0,0E0,0E0,0E0,0E0,0E0,0E0,0E0,0E0,0E0,0E0,0E0,0E0,0E0,0E0,0E0,0E0,0E0,0E0,0E0,0E0,0E0,0E0,0E0,0E0],"parents":[2147483647,0,0,1,1,2,2,3,3,4,4,5,5,6,6,7,7,8,8,9,9,10,10,11,11,12,12,13,13,14,14,15,15,16,16,17,17,18,18,19,19,20,20,21,21,22,22,23,23,24,24,25,25,26,26,27,27,28,28,29,29,30,30,31,31,32,32,33,33,34,34,35,35,36,36,37,37,38,38,39,39,41,41,42,42,44,44,45,45,46,46,47,47,49,49,50,50,53,53,59,59,60,60,61,61,62,62],"right_children":[2,4,6,8,10,12,14,16,18,20,22,24,26,28,30,32,34,36,38,40,42,44,46,48,50,52,54,56,58,60,62,64,66,68,70,72,74,76,78,80,-1,82,84,-1,86,88,90,92,-1,94,96,-1,-1,98,-1,-1,-1,-1,-1,100,102,104,106,-1,-1,-1,-1,-1,-1,-1,-1,-1,-1,-1,-1,-1,-1,-1,-1,-1,-1,-1,-1,-1,-1,-1,-1,-1,-1,-1,-1,-1,-1,-1,-1,-1,-1,-1,-1,-1,-1,-1,-1,-1,-1,-1,-1],"split_conditions":[1.7106628E1,1.2768749E1,1.757744E1,2.745065E2,1.3804165E1,2.1608394E2,1.7610588E1,1.4113653E1,2.886073E2,1.3207634E1,1.4187501E1,2.161458E1,1.4008332E1,1.770625E1,1.8075441E1,2.2772633E2,1.4386494E1,1.120625E1,3.0563818E2,3.1798956E2,1.4869351E1,6.6999466E1,1.4235415E1,3.4056774E1,7.2506226E1,9.195834E0,1.731746E1,5.2549374E1,1.07569374E2,1.8E0,1.8532133E1,1.8550264E1,1.3513193E1,1.2279167E1,1.6485485E1,1.029375E1,1.2158333E1,1.1685417E1,1.2506248E1,9.113566E0,-2.440291E-1,1E-1,1.6676977E1,1.3166195E0,1.4255272E1,1.5072783E1,1.4529166E1,1.0168749E1,-8.082091E-1,1.7388409E1,2.830625E1,-1.8704318E-1,9.93689E-1,1.8304169E1,8.4791854E-2,-6.437232E-1,3.217733E0,-3.7069765E-1,2.2972733E-1,8.2231895E1,1.2716667E1,2.0062994E2,1.9652176E1,1.5520567E-1,-5.303772E-1,8.413053E-1,-3.2293034E-1,3.0111883E0,4.0201652E-1,1.9416668E-1,1.181749E0,-1.7052127E-2,-9.630211E-2,-1.0461076E0,-1.6876467E-1,5.079723E-1,2.2912154E0,-1.6438037E-1,4.859462E-1,-1.8091325E-1,4.6908948E-1,4.751622E-2,-5.4134214E-1,-6.346137E-1,-4.1453186E-3,-4.984547E-2,5.6108177E-1,-1.049904E0,1.1478156E-2,4.486587E-1,2.1163117E-2,-2.5190664E-2,-1.8971582E-1,1.4872468E0,-3.5748798E-1,-3.2394385E-1,3.8083908E-1,5.5195536E-2,-4.036974E-1,-5.069646E-1,-7.434144E-2,3.041053E-2,1.0446314E0,2.8252712E-1,-2.3875463E-1,-1.421635E-1,9.420776E-3],"split_indices":[2,0,2,3,0,3,2,2,3,2,0,0,0,0,2,3,2,0,3,3,2,3,0,3,3,0,2,3,3,1,2,3,2,0,2,0,0,0,0,3,0,1,2,0,2,2,0,0,0,2,0,0,0,0,0,0,0,0,0,3,0,3,2,0,0,0,0,0,0,0,0,0,0,0,0,0,0,0,0,0,0,0,0,0,0,0,0,0,0,0,0,0,0,0,0,0,0,0,0,0,0,0,0,0,0,0,0],"split_type":[0,0,0,0,0,0,0,0,0,0,0,0,0,0,0,0,0,0,0,0,0,0,0,0,0,0,0,0,0,0,0,0,0,0,0,0,0,0,0,0,0,0,0,0,0,0,0,0,0,0,0,0,0,0,0,0,0,0,0,0,0,0,0,0,0,0,0,0,0,0,0,0,0,0,0,0,0,0,0,0,0,0,0,0,0,0,0,0,0,0,0,0,0,0,0,0,0,0,0,0,0,0,0,0,0,0,0],"sum_hessian":[1.746E3,4.42E2,1.304E3,8E1,3.62E2,4.2E1,1.262E3,3.8E1,4.2E1,4.5E1,3.17E2,3.5E1,7E0,7E0,1.255E3,1.7E1,2.1E1,7E0,3.5E1,1E1,3.5E1,1.2E1,3.05E2,1.1E1,2.4E1,3E0,4E0,3E0,4E0,4.7E1,1.208E3,1.3E1,4E0,2E0,1.9E1,2E0,5E0,5E0,3E1,8E0,2E0,1.4E1,2.1E1,1E0,1.1E1,6E0,2.99E2,3E0,8E0,3E0,2.1E1,1E0,2E0,3E0,1E0,1E0,2E0,2E0,2E0,4.5E1,2E0,6.1E1,1.147E3,4E0,9E0,3E0,1E0,1E0,1E0,1.4E1,5E0,1E0,1E0,4E0,1E0,4E0,1E0,2.7E1,3E0,1E0,7E0,9E0,5E0,1.8E1,3E0,7E0,4E0,3E0,3E0,9E0,2.9E2,1E0,2E0,2E0,1E0,1.9E1,2E0,1E0,2E0,1.4E1,3.1E1,1E0,1E0,4.5E1,1.6E1,1.23E2,1.024E3],"tree_param":{"num_deleted":"0","num_feature":"4","num_nodes":"107","size_leaf_vector":"1"}},{"base_weights":[1.4390859E-2,6.20093E-2,-4.5689832E-2,3.595864E-2,3.6593068E0,-7.221619E-1,-5.834856E-3,-1.8314838E-1,8.082411E-2,-1.0687312E0,3.0958805E0,-1.6374615E0,-3.951783E-1,3.8793716E-1,-3.8446393E-2,6.63647E-1,-3.1124803E-1,8.2364476E-1,-1.3829745E-2,-1.954651E-3,-3.997969E-1,-2.183376E0,-5.456891E-1,-5.341395E-1,6.0773724E-1,-4.6177354E-1,9.5133156E-1,-7.865033E-2,6.0276246E-1,3.100704E-1,2.7996087E0,-4.733369E-1,2.2707881E-1,6.286408E-1,4.907821E0,-3.599221E-1,4.6333566E-2,-7.229168E-1,-1.2379439E-1,1.3820816E-2,-2.1154383E-1,-3.1357792E-1,-1.2770627E0,-5.081415E-3,-6.6125876E-1,1.6934416E-1,2.370863E0,-1.2763299E-2,-8.868732E-1,5.246318E0,8.446561E-2,-1.03495784E-1,1.6542646E-1,-9.4374925E-2,1.3541989E0,-8.97569E-2,-3.752242E-1,1.3709732E0,-1.2901288E-2,-7.2272635E-1,2.5219852E-1,-3.4956932E-1,2.1961746E0,7.371754E-1,-1.3974977E-1,6.1441666E-1,6.9174278E-3,-6.5213226E-2,-4.0778866E-1,-4.9885556E-1,-1.7160232E-1,-1.9751874E-1,5.4691724E-2,4.8898127E-2,-2.3719546E-1,5.8992136E-1,-2.2193101E-1,1.4647563E0,-3.6204286E-2,2.5941747E-1,-1.1618817E-2,-4.0306363E-1,6.2212583E-2,2.0497914E-1,1.9618745E0,2.3750444E-1,-3.401813E-1],"categories":[],"categories_nodes":[],"categories_segments":[],"categories_sizes":[],"default_left":[0,0,0,0,0,0,0,0,0,0,0,0,0,0,0,0,0,0,0,0,0,0,0,0,0,0,0,0,0,0,0,0,0,0,0,0,0,0,0,0,0,0,0,0,0,0,0,0,0,0,0,0,0,0,0,0,0,0,0,0,0,0,0,0,0,0,0,0,0,0,0,0,0,0,0,0,0,0,0,0,0,0,0,0,0,0,0],"id":26,"left_children":[1,3,5,7,9,11,13,15,17,19,-1,21,23,25,27,29,31,33,35,-1,-1,37,39,41,-1,43,45,47,49,51,53,55,57,59,61,63,65,-1,-1,-1,-1,67,69,71,73,75,77,79,81,83,85,-1,-1,-1,-1,-1,-1,-1,-1,-1,-1,-1,-1,-1,-1,-1,-1,-1,-1,-1,-1,-1,-1,-1,-1,-1,-1,-1,-1,-1,-1,-1,-1,-1,-1,-1,-1],"loss_changes":[5.0009108E0,9.12376E1,2.0836468E1,9.5404005E0,2.3145976E2,1.2222296E1,9.402059E0,1.8104801E1,5.6611618E1,1.3930435E0,0E0,5.3647137E0,1.2183944E1,2.7247746E1,1.7474092E1,1.57469E1,1.2672462E1,6.938994E1,1.4904451E1,0E0,0E0,1.8112221E0,5.042857E-1,4.843071E0,0E0,2.0920162E0,3.73404E1,3.3909824E1,9.582648E1,3.3522048E0,1.7436821E1,1.46534E1,4.007599E1,5.8702656E1,6.7141464E1,3.277167E1,2.83733E1,0E0,0E0,0E0,0E0,2.3200827E0,9.5285416E-1,1.099411E0,1.8353081E0,3.9030544E1,7.568409E1,1.3476603E1,2.4264832E1,1.9136665E1,3.2779655E1,0E0,0E0,0E0,0E0,0E0,0E0,0E0,0E0,0E0,0E0,0E0,0E0,0E0,0E0,0E0,0E0,0E0,0E0,0E0,0E0,0E0,0E0,0E0,0E0,0E0,0E0,0E0,0E0,0E0,0E0,0E0,0E0,0E0,0E0,0E0,0E0],"parents":[2147483647,0,0,1,1,2,2,3,3,4,4,5,5,6,6,7,7,8,8,9,9,11,11,12,12,13,13,14,14,15,15,16,16,17,17,18,18,21,21,22,22,23,23,25,25,26,26,27,27,28,28,29,29,30,30,31,31,32,32,33,33,34,34,35,35,36,36,41,41,42,42,43,43,44,44,45,45,46,46,47,47,48,48,49,49,50,50],"right_children":[2,4,6,8,10,12,14,16,18,20,-1,22,24,26,28,30,32,34,36,-1,-1,38,40,42,-1,44,46,48,50,52,54,56,58,60,62,64,66,-1,-1,-1,-1,68,70,72,74,76,78,80,82,84,86,-1,-1,-1,-1,-1,-1,-1,-1,-1,-1,-1,-1,-1,-1,-1,-1,-1,-1,-1,-1,-1,-1,-1,-1,-1,-1,-1,-1,-1,-1,-1,-1,-1,-1,-1,-1],"split_conditions":[2.2380884E1,2.233161E1,2.3132626E1,6.0599777E1,2E-1,7.0116425E1,4.7589535E1,1.13E1,7.8586174E1,6.45588E1,3.0958805E0,1E-1,2.7637497E1,1.3724999E1,4.9999995E0,1.120625E1,2.161458E1,7.8111404E1,9.608963E1,-1.954651E-3,-3.997969E-1,2.3042812E1,1.0735416E1,2.586875E1,6.0773724E-1,9.933332E0,4.007443E1,1.8000001E0,6.1E0,1.5021105E1,1.3358861E1,5.2114494E1,2.1808334E1,1.2443749E1,2.318125E1,1.3708391E1,9.691831E1,-7.229168E-1,-1.2379439E-1,1.3820816E-2,-2.1154383E-1,3.9000003E0,2.7133337E1,1E-1,2.4546085E1,1.6935415E1,2.0977083E1,2.334455E1,2.5183534E2,2.3950148E1,7.175596E1,-1.03495784E-1,1.6542646E-1,-9.4374925E-2,1.3541989E0,-8.97569E-2,-3.752242E-1,1.3709732E0,-1.2901288E-2,-7.2272635E-1,2.5219852E-1,-3.4956932E-1,2.1961746E0,7.371754E-1,-1.3974977E-1,6.1441666E-1,6.9174278E-3,-6.5213226E-2,-4.0778866E-1,-4.9885556E-1,-1.7160232E-1,-1.9751874E-1,5.4691724E-2,4.8898127E-2,-2.3719546E-1,5.8992136E-1,-2.2193101E-1,1.4647563E0,-3.6204286E-2,2.5941747E-1,-1.1618817E-2,-4.0306363E-1,6.2212583E-2,2.0497914E-1,1.9618745E0,2.3750444E-1,-3.401813E-1],"split_indices":[2,2,2,3,1,3,3,0,3,3,0,1,0,0,1,0,0,3,3,0,0,2,0,0,0,0,3,1,1,2,2,3,0,0,0,2,3,0,0,0,0,1,0,1,2,0,0,2,3,2,3,0,0,0,0,0,0,0,0,0,0,0,0,0,0,0,0,0,0,0,0,0,0,0,0,0,0,0,0,0,0,0,0,0,0,0,0],"split_type":[0,0,0,0,0,0,0,0,0,0,0,0,0,0,0,0,0,0,0,0,0,0,0,0,0,0,0,0,0,0,0,0,0,0,0,0,0,0,0,0,0,0,0,0,0,0,0,0,0,0,0,0,0,0,0,0,0,0,0,0,0,0,0,0,0,0,0,0,0,0,0,0,0,0,0,